-0.300536 -0.122231 0.121557 -0.386777 0.0557868 0.551858 0.313386 0.930198 -0.704416 -0.0505082 -0.253911 0.468619 -0.636979 -0.276009 0.747408 0.983062 -0.283131 -0.0339107 -0.309519 0.246045 -0.1115 0.124569 0.657827 -0.230152 -0.437655 -0.194272 0.143925 0.496999 0.0534563 0.305027 0.298212 -0.168072 -0.358513 -0.198616 0.123456 0.221061 0.192062 -0.0627062 0.587687 0.394745 -0.733459 0.144084 0.0248134 0.519588 0.939279 0.313103 0.133471 0.0723951 0.400815 -0.354549 -0.100108 -1.00506 0.188138 0.785881 0.481992 1.17862 0.437549 -0.117748 0.277507 -0.0887541 -0.0493204 -1.13838 -0.660229 -0.1183 0.0101753 0.42465 0.440818 -0.114658 0.178224 0.314131 -1.20884 0.0387301 0.746819 0.157118 0.130017 -0.503327 0.0182103 0.217159 0.144453 0.541207 -0.446651 0.35267 0.636962 -0.857975 0.341564 -0.0504707 -0.252194 0.125985 -0.633141 0.269299 0.236327 -1.27495 0.430044 0.660002 -0.481408 -0.0632198 -0.0741776 0.426739 -0.0198785 -0.943692 -0.509926 0.294667 0.406975 0.234996 -0.496392 -0.303421 0.0727242 -0.643429 0.60178 0.791962 -0.126592 -1.01066 -0.0471994 0.796026 0.543401 -0.940901 0.489481 -0.181807 0.13487 -1.28078 0.207984 -0.220886 -0.537931 0.534235 -1.02152 -0.0515408 -0.482238 0.303919 0.178416 0.575524 -0.218278 0.00971494 0.315213 0.480785 0.290772 0.00835945 0.0271473 -0.412292 -0.651181 0.0850267 0.330073 0.203409 0.924471 -0.373697 0.122458 0.573806 -0.056861 -0.014047 0.0694064 -0.379634 0.0574539 0.510557 1.17128 -0.493037 -0.606633 -0.723449 0.830602 0.19905 -0.444646 0.628067 -0.338966 -0.0878656 -0.201022 -0.0120689 0.0340192 -0.730892 -0.523607 0.626063 -0.394576 0.196901 0.636955 0.290595 -0.58546 0.363297 0.0694672 -0.496006 -0.00131825 0.267392 0.033119 0.337571 0.139205 1.2616 -0.235538 -0.465322 -0.896559 0.065473 0.733285 -0.183052 0.329618 0.338065 -0.694866 0.893948 -0.292181 -0.641105 0.167805 -0.817188 0.30049 0.277706 0.733904 -0.256376 0.0282208 -0.788734 0.098434 -0.100656 0.394649 -0.194526 0.904466 0.510228 0.550834 -0.322492 0.960063 -0.334367 -1.0987 0.231929 0.307596 0.264305 -0.132654 -0.327075 -0.0649416 -0.712448 -0.458863 -0.418779 0.540943 0.529011 -0.804452 0.356052 -0.380452 -0.0182172 1.08906 0.580254 0.75331 0.415607 0.0296697 -0.0874198 -0.234485 -0.073909 -0.0107239 -0.257641 0.0528597 0.751683 -0.143623 0.425954 0.189182 0.722878 -0.476124 0.62694 -0.032756 0.544448 -0.309651 0.402197 -0.600145 -0.807534 -0.617614 -0.239979 -0.597773 -0.311697 -0.0608786 0.549375 -0.109774 0.447664 0.175823 -0.362857 0.421947 0.934652 0.23598 -0.319822 -0.252384 0.0194422 -0.113082 -0.760256 -0.471523 0.0223507 0.790987 0.298073 -0.300313 0.187835 0.0894571 0.0332633 0.265372 -0.688581 -0.238493 0.372932 0.289337 0.213171 1.1631 0.776631 -0.210198 0.254873 -0.166526 0.733665 0.0347497 -1.16887 1.16928 0.00965008 0.30179 -0.609924 -0.417073 -0.587575 -0.887542 0.0463303 0.374423 -0.0782153 0.852411 0.0745755 -0.506595 0.147483 0.559706 -0.876024 -0.111223 -0.492419 0.108202 -0.21437 0.493193 0.098117 -0.115851 -0.119137 -0.197197 0.543495 0.562465 0.36824 0.589173 -0.220298 0.518978 -0.953632 -0.330392 0.137634 -0.189138 -0.644265 0.0813414 -0.7132 1.12933 -0.251565 0.305851 0.121764 -0.00384104 -0.171584 0.165581 -0.480352 0.863818 -0.239728 0.43453 0.275001 0.198245 0.444489 -1.29511 0.611786 -0.0184799 0.330069 1.30147 -0.518458 -0.0983386 -0.613983 0.741049 -0.0720614 -0.304246 0.50639 -0.396587 0.219116 0.948945 0.317494 0.294895 0.364868 0.0361951 0.585497 0.133181 -0.0577618 -0.241639 -0.894814 0.481356 1.0175 -0.438982 -0.0485454 -0.124986 0.512164 -0.0917226 0.210633 -0.935276 1.20331 -0.680746 0.0396569 0.331774 -0.709947 0.408748 -0.32618 -0.0149694 -0.147201 -0.319593 0.31932 -0.289049 0.188289 0.608796 0.336556 0.23502 0.257651 -0.285243 0.15268 0.0330634 0.129919 0.478846 0.57412 0.364558 -0.37686 0.34569 0.592702 0.0225652 0.15078 0.665778 0.0579229 -0.846263 -0.020914 -0.216732 -0.533597 0.00512352 -0.0797329 -0.410621 0.0188124 -0.35783 -0.847862 -0.128688 -0.187022 -1.36916 -0.170173 0.127896 -0.399109 0.0825556 0.646078 1.18463 0.340468 0.760544 -0.545215 -0.261472 -0.397512 -0.273648 -0.232215 0.393969 -0.376829 -0.351709 -0.337682 -0.563947 0.79777 0.290448 0.317577 0.172938 -0.186282 0.060375 -0.015606 0.205985 -0.115996 -0.578521 -0.104643 0.55485 0.322148 -0.155621 0.0792049 0.0244811 0.691842 -0.359298 -0.0889522 0.069976 -0.54313 0.114946 -0.228739 -0.363921 -0.191774 0.138479 0.125752 0.612369 0.362394 -1.05562e-005 0.263936 -0.483488 -0.650019 0.642012 -0.316489 -0.482302 -0.0027448 0.0996574 -0.102772 0.136551 -0.211678 0.361064 -0.0626003 -0.422651 -0.310104 -0.0669335 -0.341825 0.207384 -0.102467 0.294321 0.480124 0.255772 0.984263 -0.337913 0.57412 -0.0950833 0.149907 -0.046875 0.647946 0.133128 0.349097 -0.867182 -0.562966 0.799364 -0.258175 0.321157 -0.0466278 -0.0527615 -0.271422 0.764418 -0.0706733 -0.136239 -1.03902 -0.394546 0.215353 -0.756851 0.0588666 -0.166518 0.63017 -0.107029 -0.103041 -0.732748 -0.280224 0.331063 -0.534106 0.358076 -0.230206 -0.170926 0.0292811 -0.223078 -0.248827 0.413598 0.0854313 0.128319 -0.551987 0.192439 0.675977 -0.23172 0.120674 0.288571 -0.380567 -0.48272 -0.698409 -0.369551 -0.261205 0.986236 -0.266099 0.13755 0.136078 0.432668 -0.524385 -0.969869 -0.481414 -0.485936 0.226281 -0.426299 0.132861 -0.459291 0.165663 0.796438 -0.235918 0.554399 0.411009 0.861479 0.106151 0.121611 0.172484 0.612704 0.652526 0.685665 0.0539536 -0.222398 -0.085161 0.141445 0.0617355 -0.525836 -0.391807 0.450055 0.104757 0.0662449 -0.529901 0.27906 -0.22213 0.72275 -0.524572 0.236369 -0.48984 -0.406231 0.812887 0.156307 0.199248 -0.311196 0.511355 0.64359 0.406293 0.163048 0.179273 -0.528993 0.311696 -0.575502 -0.00858287 0.224177 -0.360011 -0.00418216 0.505936 0.512264 0.0261698 -0.528869 -0.117376 -0.519216 -0.540568 -0.0760126 0.155469 -0.520426 -0.0676459 -0.133472 -0.0573636 0.631365 0.321369 0.507332 -0.0205777 0.217651 0.15055 0.0451447 0.21972 0.313212 -0.212999 0.0454847 -0.610887 0.254608 -0.47304 0.149488 -0.0776747 -0.0911149 0.755818 -0.528686 1.02331 0.395927 -0.313809 1.05291 0.429167 -0.25943 -0.060806 -0.183477 -0.210829 -0.184188 0.420631 0.630626 -0.0340338 -0.0599143 0.892794 0.349848 0.229467 -0.309237 -1.22476 -0.414364 0.917365 -0.530339 0.454743 -0.169874 0.3188 -0.00493612 -0.215446 0.372499 0.90529 0.522504 0.171217 -0.00226644 0.296778 -0.312793 0.276553 -0.57227 -0.377643 -0.153775 0.509552 -0.841838 -0.00774263 0.152148 -1.13322 -0.495413 0.789107 -0.542686 -0.722905 -0.133349 -0.724294 0.380004 -0.534918 0.225985 -0.401167 -0.343836 -0.136459 -0.299935 -0.611285 0.801339 0.673627 -0.619406 -0.256955 -0.178752 -0.368496 0.0140771 -0.0547973 -0.285057 -0.264263 0.204269 -0.401335 -0.17497 -0.116176 -0.225568 0.0992128 0.309695 0.316028 0.19518 -0.0323879 -1.03893 0.863692 0.676887 -0.0920755 0.620053 -0.223855 0.356246 0.205187 -0.0848805 0.216512 0.16492 -0.548244 0.224701 0.816084 0.0828621 -0.947843 0.748387 1.17635 0.831063 -0.26222 0.165933 -0.0643797 -0.250162 -0.220362 -0.0572986 0.845102 0.480649 -0.674436 0.28295 -0.258605 -0.92137 -0.0543746 0.0129034 -1.04175 -0.788892 -0.175882 0.474859 -0.213324 0.154651 -0.730184 0.759213 0.652376 -0.143695 -0.172802 0.0353638 -0.607706 0.164936 -0.0911528 0.0654164 -0.217191 0.110238 -0.8532 0.572118 -0.604321 0.0579422 -0.427635 -0.295439 0.609842 0.501597 -0.260839 -0.220835 0.524432 -0.37965 0.48508 0.507394 0.322305 0.560121 0.356874 -0.724454 0.425426 0.221624 -0.383215 -0.237231 -0.384851 -0.144922 0.0932706 -0.409374 -0.465869 0.399037 -0.290841 -0.545527 0.424388 0.753028 -0.00496612 -0.471754 0.614638 0.401894 0.0746425 -0.720764 0.137289 -0.370569 0.219592 -0.465331 0.556863 0.297382 0.32262 -1.28913 -0.199108 -0.211785 0.628639 0.57244 -0.579223 0.580329 0.83745 0.0385079 -0.837486 -0.165864 0.490261 -0.130663 0.410904 0.502808 0.768799 0.209551 -0.323069 0.196687 0.466482 -0.052514 -0.564516 -0.315687 -0.597818 -0.247904 -0.246351 0.981898 0.590104 0.701814 0.0237645 -0.0712386 0.265915 -0.0632799 0.10911 0.124626 -0.399439 -0.0700562 0.227765 0.154273 -0.137006 -0.25587 -0.038538 0.424666 -0.0541004 -0.403352 0.0516753 -0.0804286 0.208523 -0.896516 0.257298 0.827647 -0.0231042 -0.214753 -0.220005 -0.0606578 -0.264439 0.27547 0.533957 0.883064 0.249881 0.123379 -0.454562 -0.237454 0.136967 0.728751 0.181327 0.0541759 0.288401 0.0512043 -0.0341704 0.149532 -0.848841 0.204929 0.28032 -0.0471616 -0.601871 0.145344 -0.168106 0.170573 -0.100261 0.637551 0.955726 -0.0836927 -0.0706031 0.347659 -0.2997 0.832647 0.222106 0.0609809 -0.00472944 -0.188314 0.0949106 0.64027 -0.256024 0.0420754 -0.296092 0.170502 0.35232 0.492085 -0.662113 -0.797642 0.540585 1.01528 0.0781627 0.219959 0.57543 0.120241 -0.427888 0.276185 0.428247 -0.660291 -0.0527773 -1.24922 0.164806 0.211482 -0.310417 0.587102 -0.509151 -0.384 0.0687815 -0.809269 -0.205372 -0.0219263 -0.639791 -0.00872565 1.06824 0.0773939 -0.440651 -0.113136 -0.130567 -0.050174 -0.227993 -0.454744 0.569141 -0.403876 -0.151666 -0.817072 0.557788 -0.467171 -0.382302 -0.431351 0.0395941 0.43948 -0.199666 0.187678 0.161267 0.33064 -0.90337 -0.311566 -1.25611 0.0265826 0.264311 -0.0515 -0.123063 -0.0826692 -0.633715 -0.340749 0.452551 0.000393927 -0.626838 -0.613627 0.0507014 -0.431983 0.345353 0.422031 0.105931 -0.246525 -0.759469 -0.131554 -0.584799 0.022892 -0.118282 0.0833444 0.622601 0.330268 0.179636 0.303452 -0.609578 -0.175372 0.313298 -0.0783102 -0.590177 -0.0324865 -0.171904 0.619645 0.143772 0.141175 0.229902 0.266862 -0.209474 -0.00577468 0.338306 -0.382392 0.391386 0.549499 -1.34595 -0.291101 -1.04284 -0.106803 0.165023 -0.00272007 -0.0937815 0.213836 0.43946 0.404443 0.0264438 0.364384 0.251587 -0.30173 -0.0756745 1.08109 0.132137 0.264353 0.409282 0.0721109 0.143934 0.343175 -0.0220884 0.454443 0.264727 0.271699 1.494 0.175992 0.0367895 -0.110226 0.0410428 -0.200109 0.196353 0.302899 0.61306 -0.0518849 -0.287458 0.210221 -0.242618 0.410567 0.0650596 -0.178195 -0.0983628 -0.184778 -0.92275 0.763341 0.167868 -0.116003 0.57347 -0.0273218 0.0863729 -1.0076 -0.437657 -0.212173 0.466871 0.0706819 -0.320753 -0.962686 0.47663 -0.548572 -0.980856 -0.154964 0.485193 -0.194773 -0.239494 -0.0720565 -0.426755 -0.195793 0.175325 0.214956 0.392882 0.157594 -0.260722 -0.902096 -1.06407 -0.177568 -0.392655 0.210206 -0.687276 -0.526123 0.0853933 0.314706 -0.140635 0.279336 0.0838952 -0.0884134 0.465448 0.220579 -0.136259 0.178562 0.334234 1.24484 0.85469 0.0786614 -0.366625 0.341091 -0.641473 -0.631193 -0.304292 -0.255821 0.743582 0.0506397 -0.155874 0.70975 -0.319989 0.00534502 0.0882535 -0.441421 -0.201077 -0.0117294 0.261767 -0.164653 0.0703779 -0.26947 0.200018 -0.98255 0.541192 0.094432 -0.823279 0.155233 -0.0259489 0.36223 -0.00482217 -0.23463 0.108789 -1.16399 -0.103277 -0.858181 0.0117454 -0.380762 0.827139 -0.166279 -0.643331 0.606946 -0.821311 0.0776595 0.0557455 0.370514 -0.0448118 -0.358505 -0.22273 0.145821 -0.26572 -0.186007 0.146025 -0.725113 0.248008 -0.228463 0.317809 0.552082 0.145464 0.577227 -0.318231 -0.414216 0.553283 0.12135 -0.328124 -0.355412 -0.260465 0.0917454 -0.858572 -0.397968 0.10222 -0.405686 -0.332167 0.208905 -0.677015 0.107759 0.0658452 0.361499 -0.28933 -0.605724 0.552424 0.398578 -0.403691 -0.863041 0.338086 0.153996 -0.928212 0.769312 0.166783 0.462325 -0.649703 -0.165613 0.67123 -0.905629 0.0188975 -0.269493 -0.259268 0.560094 0.476467 -0.229427 -0.119766 -0.86801 -0.176773 0.32509 0.829336 -0.12519 -0.42194 0.484588 0.0541414 -0.0378258 0.929429 1.33562 -0.433846 -0.692148 -0.303486 -0.269413 0.113956 0.201867 -0.240637 0.00688443 0.523163 -0.129483 0.538642 0.0714202 0.550766 -0.144448 -0.507344 -0.13281 0.623251 -0.0197731 -1.10586 -0.571002 0.305098 0.881788 0.408108 0.82311 0.0775883 -0.124501 -0.323439 0.36909 -0.618956 -0.761963 -0.262985 -0.23132 0.261315 -0.680878 0.434174 -0.886007 0.994213 -0.244619 -0.00506242 -0.268545 -0.271247 0.0388829 -0.362816 0.788933 -0.17242 -0.281956 0.612328 0.48838 0.0158884 -0.342221 0.242075 0.274569 -0.275773 -0.271747 -0.947694 -0.418921 -0.492686 -0.703289 -0.372804 0.608777 -1.13422 0.151723 -0.644799 -0.0587579 0.495373 -0.743537 0.916187 0.882364 0.622494 -0.524019 0.0779104 -0.174241 -0.489041 0.367731 0.312917 0.0362982 -0.915575 -0.130085 -0.156814 0.092528 0.255578 -0.417506 -0.0163874 0.201007 -0.85053 0.930899 0.559806 0.309761 0.101098 0.184275 -0.0807941 -0.335702 0.143721 -0.0302216 0.396779 0.35657 -0.156431 0.117034 0.357539 -0.192065 -0.0510486 -0.401164 -0.192102 0.0260813 0.130527 -0.0985114 0.269728 0.0999202 0.170256 0.203036 0.0717466 0.295294 -0.551678 -0.0567858 0.321831 0.11767 -0.26749 0.115032 0.195391 0.401568 -0.0514662 -0.758612 -0.232085 -0.0817929 0.461699 -0.24206 -0.0967791 0.462052 -0.432713 -0.167651 0.126611 -0.147006 0.822935 0.525599 0.393797 0.937579 0.809357 0.0225897 -0.862042 -0.0867977 0.284301 -0.960434 0.0178707 -0.363296 -0.504589 -0.621009 0.540092 0.0178113 -0.246769 -0.553377 -0.127146 -0.690713 -0.215982 -0.461261 0.308287 -0.655949 0.288462 -0.22433 0.281491 -0.114264 -0.4108 -0.205974 -0.226412 0.0726374 -0.299695 0.516136 -0.306064 -0.094569 0.754657 -0.595459 -0.386446 0.312322 0.979227 -0.206788 0.64089 0.115709 0.00422132 -0.30805 0.157746 0.408303 0.853543 -0.294504 0.644782 -0.0336332 0.501099 0.0177767 -0.0946247 -0.828965 -0.593847 0.232571 -0.727008 0.175651 -0.463912 -0.212012 0.205312 -0.615663 -0.506021 0.357375 0.32863 -0.233959 -0.286521 -0.181481 0.25795 0.243503 -0.266599 -0.108365 0.632308 0.157735 -0.420135 0.305763 0.245029 -0.452703 0.639604 0.223395 -0.380291 -0.909278 -0.145888 0.503094 0.14003 0.274205 -0.658096 0.568514 0.284005 0.146459 -0.459821 -0.528911 -0.0829031 0.127696 -0.168289 -0.332868 -0.410211 -0.0184872 -0.803086 0.454602 0.371036 0.197367 0.473139 -0.642385 -1.303 -0.533708 -0.0676712 0.0384067 -0.835201 0.323156 -0.301068 0.276294 0.440579 -0.0397226 -0.270858 0.690517 0.72719 -0.102007 0.113113 0.12467 0.606151 -0.77772 -0.585021 0.814431 0.275269 0.245309 0.185502 0.522615 -0.693072 0.616266 0.440987 -0.468208 0.309796 0.332667 0.331903 0.468668 -0.249501 0.9135 -0.810827 0.213204 0.608799 0.198894 -0.0166921 -0.452839 0.251739 0.838144 0.0997008 0.0407299 -0.0695283 0.44533 -0.0341868 0.111886 -0.0877066 -0.251921 -0.307205 0.296518 -0.107289 -0.345045 0.0538677 0.680245 0.158639 -0.123885 0.140031 -0.494068 -0.821432 -0.0903995 0.106451 -0.363267 0.323781 0.153524 -0.280826 -0.377574 -0.142407 -0.144336 0.0135353 0.460232 -0.456666 -0.327929 -0.164269 -0.29026 0.293264 -0.283609 0.493951 -0.429859 0.0387721 0.285628 0.182658 -0.43927 -0.0439258 -0.0014618 -0.132466 0.564625 -0.024547 -0.683025 0.583186 0.431284 -0.387405 0.324813 0.352238 0.913098 0.563709 -0.105621 0.0801578 -0.122158 0.794786 -1.21875 0.338261 0.556112 -0.182011 -0.212526 -0.31516 0.0766816 -0.172249 0.510339 0.0858278 0.00621966 -0.374081 -1.43844 0.472248 0.325425 0.352705 0.252268 0.250424 -0.414376 -0.857325 0.00423538 -0.745261 -0.727044 0.834848 0.187625 0.22252 -0.171329 0.173236 -0.215862 -0.0469111 0.714327 0.131594 -0.912779 0.460411 -0.0800184 -0.0690798 -0.595933 -0.246544 -0.101377 -0.31881 -0.226305 0.11007 0.247244 1.01294 -0.174976 0.321519 0.328202 -0.589287 -0.284579 -0.245933 -0.543548 0.0522828 0.564344 -0.491363 0.929403 0.48378 -0.623986 -0.0182086 0.267471 -0.733166 -0.425038 -0.163919 0.132347 -0.021856 -0.746561 -0.0166452 -0.440708 -0.0961903 -0.138591 0.381803 -0.0636309 0.219545 -0.475027 0.0572803 -0.0292881 0.77327 -0.487852 -0.207419 0.0294821 -0.288774 0.288369 -0.395679 -0.19985 0.39606 -0.69025 -0.261627 0.469783 0.332875 0.400374 0.22262 0.29671 0.154958 -0.822626 -0.181167 -0.264231 -0.105566 -0.00818801 0.448634 0.719089 -0.654172 0.722363 0.213723 1.08922 -0.0757804 -0.819126 -0.112306 -0.403347 0.112133 -0.984774 0.508087 -0.848832 0.138957 -0.211372 -0.133929 0.174922 0.746644 0.405478 -0.505962 0.313392 -0.150737 0.362166 -0.0136244 0.645738 0.107358 0.391317 -0.0204417 0.576708 -0.0494887 0.414278 0.185574 0.0153624 0.362244 -0.228508 -0.358397 -0.287745 0.230162 0.462381 -0.471684 -0.484551 -0.267195 0.451981 -0.126386 0.516229 0.0253924 -0.0728059 0.343874 -0.224876 -1.10608 -0.303653 -0.181558 0.236894 -0.409819 -0.141619 -0.401666 -0.38329 -0.484424 0.332961 -0.230971 -0.516055 0.412321 0.803833 -0.760665 -0.313721 -0.689317 -0.102696 0.148044 -0.105307 -0.236568 -0.0597998 -0.363096 -0.0620256 -0.730572 0.422919 -0.595135 0.480681 -0.0424919 0.188331 -1.2337 -0.103275 -0.708156 0.623527 0.370677 -0.152726 0.126317 -0.405244 0.322103 -0.104664 -0.40569 -0.169958 0.485042 -0.432357 -0.015358 -0.214326 0.308013 -0.54136 -0.102779 -0.509328 -0.457921 0.357126 -1.17663 0.106214 -0.0155148 -0.259862 0.766725 -0.0623676 -0.161564 1.0134 -0.611166 -0.727967 -0.398821 -0.347561 -0.23168 0.0397691 0.136362 -0.142237 -0.0611894 -0.452474 0.242264 0.190753 0.687422 -0.213247 0.255005 0.445662 0.263122 -0.807827 0.0987634 0.149234 0.481172 0.0761937 0.260954 -0.439295 -0.365539 -0.390853 0.318916 -0.0230573 -0.642027 -0.0561726 -0.638685 0.336953 -0.246827 -0.465743 0.727734 0.471512 0.155231 0.496823 1.19221 -0.336686 0.192997 -1.05761 0.0400645 0.590222 -0.1725 -0.220557 -0.410786 0.0622985 -0.109686 -0.00858031 0.0251586 -0.0960727 0.262355 -0.00572703 -0.0270896 -0.23084 -0.00485243 -0.0252754 0.0500053 -0.0557018 0.145948 -0.0648923 0.044833 0.186326 0.103273 0.000538938 -0.043851 0.139143 -0.0346355 -0.00297059 -0.0231189 0.0659805 0.0365169 0.0680096 -0.231649 -0.0385126 0.220777 0.0587802 -0.124765 0.0856893 0.11255 0.0320953 -0.0446014 0.154259 0.162868 -0.0960528 0.211521 -0.170776 0.217398 -0.0125445 -0.0171888 -0.0666761 0.102673 0.149623 -0.0267871 -0.0334537 0.0594037 -0.0224694 -0.00326819 -0.075262 0.0233235 -0.0376611 -0.0491503 -0.0677931 -0.0639626 -0.0744683 0.0164836 0.131675 -0.0836469 -0.175851 0.0443313 0.095334 0.227545 0.115947 -0.00455438 0.0193828 -0.16293 0.134513 -0.105487 -0.105721 0.0787064 0.132164 0.13498 -0.119006 0.0180854 -0.0056833 -0.0967028 -0.1473 0.158425 0.196236 0.162294 0.02848 -0.014692 -0.0243366 -0.140112 -0.0396718 0.0942331 -0.05234 -0.0834539 -0.0897215 0.0369115 -0.130576 0.249582 0.0249581 0.0188953 -0.0087552 -0.0296765 0.110873 0.0254433 -0.0361486 0.0165092 0.157446 -0.183755 -0.0109149 -0.0300864 -0.0644085 -0.106886 -0.0834362 -0.0776562 0.102509 0.115522 -0.0716847 -0.0788362 0.0676019 -0.0896404 -0.0627218 -0.0780578 -0.0790633 0.0487065 -0.00573191 -0.142181 0.0140544 -0.0578693 -0.0208704 -0.0722116 -0.0785661 -0.114069 0.00426131 -0.060777 0.0149296 0.0364916 0.0453046 -0.0947164 0.0963604 -0.0216905 -0.179156 0.24654 -0.0256799 0.0301577 -0.0668108 0.0871714 -0.0695755 0.164613 -0.00882633 -0.0681299 -0.0541271 0.0702718 0.100829 0.0583795 0.098746 0.0610816 0.218601 -0.207406 0.140774 -0.18713 0.0253878 -0.0797108 -0.00520519 -0.00723251 -0.0266964 0.0932869 0.0606718 0.107059 0.0656359 -0.0511537 -0.0991388 0.0688177 0.0926162 0.00947412 -0.123281 -0.120927 -0.0539277 0.00799622 0.0185283 -0.019796 -0.0964129 0.098657 -0.142629 -0.0656288 -0.28949 0.054771 -0.040017 0.206336 -0.0976903 -0.0563922 -0.123878 -0.128181 -0.0821589 -0.148189 0.0585093 -0.122319 0.0833477 -0.249307 0.119 -0.0543779 -0.24864 0.104121 0.0230254 -0.0509606 -0.226835 0.184124 0.0931097 0.107472 0.118066 0.223854 0.161141 -0.136525 -0.0424699 0.0123515 0.269011 0.0261877 0.121648 0.0168927 0.0185583 -0.0644992 -0.108754 0.0211079 -0.0596641 -0.0756099 0.273625 0.018999 -0.0618218 0.176275 0.122794 -0.137008 0.0180301 -0.0539128 -0.0712399 0.0921301 -0.0694015 0.0938079 -0.0294504 0.00158561 0.0289473 0.107723 0.0226087 0.0783619 0.116407 -0.0308017 -0.0110666 -0.168727 0.194778 -0.127816 -0.0844081 0.0364524 -0.165635 0.0737144 0.115242 -0.0348326 -0.0546067 -0.0732514 0.220472 0.197033 0.0321266 -0.0641146 -0.235002 -0.0835417 0.0141342 0.132733 -0.149555 -0.0228317 -0.232569 0.0743233 0.0127616 0.206526 -0.119795 -0.00342656 0.0996646 0.075358 -0.00280276 0.0541239 -0.244161 0.0382211 -0.0512705 0.0127108 0.14966 0.0735955 -0.0177227 -0.0843017 -0.012783 -0.0655085 -0.0502878 0.10558 -0.0977103 -0.0583725 -0.093203 0.0622598 0.197243 -0.0428037 -0.00658348 -0.154862 -0.0527501 -0.135312 0.0741596 -0.0273522 -0.0468779 -0.0164324 -0.0328572 0.0148214 0.0961667 -0.0946071 0.113752 -0.0254006 0.0425841 -0.0150288 -0.0182157 0.0316613 -0.181479 -0.0824099 -0.11959 0.049043 0.104669 0.224516 0.104954 0.0779495 0.0524356 -0.0491211 -0.0380059 -0.062127 -0.106199 0.150269 0.0799861 0.115261 0.0652317 0.0970665 -0.0103472 0.0722786 -0.101352 0.192882 0.0898641 -0.0166543 -0.194225 0.0198494 -0.0534135 -0.0987827 0.0242711 -0.0279949 0.00319278 0.00645383 -0.177306 0.168 -0.0109441 0.0282687 0.0121544 0.0765141 -0.114187 0.0798205 0.044234 0.0774833 -0.106938 -0.136283 -0.0163645 -0.164807 -0.0398101 0.0109806 0.114637 0.0275146 -0.191617 0.111675 -0.12997 0.086046 0.138657 0.030642 -0.0508052 0.0208444 -0.0994558 -0.301444 -0.00279471 -0.0713757 -0.10923 0.143194 -0.149794 0.112706 -0.0152952 -0.0393154 0.0216847 -0.0623202 -0.050406 -0.0456887 0.0927447 0.0221538 -0.0119636 -0.0560347 -0.0532991 -0.27304 0.100185 -0.103459 -0.0111427 0.0431652 0.0663457 0.092437 0.0628793 0.0806669 0.0861742 -0.108689 -0.00416933 -0.143056 0.116084 -0.0862218 -0.127606 -0.0531821 -0.0498904 0.015481 -0.0543583 -0.0396935 -0.090409 -0.0468844 -0.111237 0.110703 -0.024732 0.132017 -0.0106433 0.126577 -0.0649634 -0.163863 -0.101804 0.00643072 -0.0355041 0.0688373 0.117183 -0.0601966 -0.0645479 -0.0505898 -0.0011965 -0.0378046 0.0932949 0.0369691 0.130763 0.195556 0.200588 0.214048 0.0438701 0.114883 0.107047 -0.0712922 0.131786 -0.079825 -0.00268167 -0.0372482 0.107282 -0.0611033 0.0945429 -0.0084497 0.0357583 0.119586 0.0245125 0.0633622 0.072483 0.00738183 0.119546 0.114135 0.022787 -0.0277008 0.00838854 0.00648545 0.214174 0.0716274 0.0306328 0.04957 0.0505237 -0.127912 -0.098687 -0.00654412 0.0383328 0.133381 -0.0322721 0.0140041 0.0906427 -0.128635 0.0899941 -0.0106272 0.0123635 -0.0584029 -0.0158737 -0.141389 0.0119544 0.0829413 -0.165231 -0.120825 -0.0145935 0.195178 0.0771388 0.124266 0.0502666 0.107614 0.027822 -0.00488262 -0.116457 0.0111966 -0.138911 -0.0633236 -0.173319 -0.0274255 -0.0247698 0.110656 -0.00832799 0.0364114 -0.0831113 0.154233 0.0466126 0.00409892 0.0312819 -0.00474658 0.148373 0.0366429 0.0745658 0.123144 -0.0634395 0.159223 0.00698098 -0.134235 0.072895 0.173236 -0.0836254 0.0189446 -0.164525 -0.0522846 -0.00617997 -0.0480769 -0.0889322 0.0515512 0.0412176 -0.0433657 0.134392 0.0632817 0.155539 0.0263588 -0.0328867 -0.0352027 0.0960901 0.11686 0.0739558 0.0821341 -0.085999 0.0621163 -0.03074 0.100723 0.0787334 -0.105228 0.109644 -0.0149088 -0.0284751 -0.0375009 0.119668 0.0668324 -0.118275 -0.0105259 -0.0494333 -0.0735698 0.1188 -0.083818 0.192459 0.0672495 -0.101131 -0.0641272 -0.0580684 0.101255 0.121875 0.0493206 0.00225359 0.0659485 -0.125437 -0.133731 0.129194 0.00311797 -0.116939 -0.0706656 0.200816 -0.117649 -0.082725 0.0815946 0.0426437 0.219756 -0.0903934 0.0591377 -0.136162 0.151879 0.173269 -0.0252015 0.150461 -0.0571394 -0.126427 0.072934 0.105356 0.0853989 0.166339 0.267042 0.0997176 -0.0449663 -0.140737 0.0507137 -0.0601114 -0.0674666 0.189706 -0.104567 0.0087066 -0.0244942 0.0913397 -0.0659545 -0.16725 0.0723686 0.0580152 0.00847503 -0.0271514 0.0337136 -0.225118 0.0140781 0.268261 -0.0389623 -0.0154016 -0.145078 0.0234861 0.0856319 -0.069979 -0.138064 0.0298778 -0.142836 0.036426 0.081339 -0.143942 -0.0315156 -0.032186 0.043541 -0.101994 -0.0854569 0.0462462 -0.0444245 0.0670133 0.0434336 0.0625461 0.116422 0.01922 -0.0234481 -0.0614504 -0.0830151 0.155585 -0.037351 -0.106675 0.132689 0.0501597 0.0820324 0.0238765 -0.238328 0.0901599 0.00135152 -0.250469 0.0936369 -0.0536438 -0.00680714 0.094482 0.116067 0.0189398 0.0540276 0.000456054 0.0704879 0.0308003 0.0672525 0.0887795 0.0405078 0.0560233 -0.175426 -0.0726283 0.0888519 -0.121526 -0.124987 0.144169 0.109023 -0.0318907 0.0818694 -0.0524103 -0.00368606 0.105168 -0.0519024 -0.214487 -0.0156005 0.0312515 -0.0763106 -0.0800524 -0.297163 0.0473521 -0.0104764 -0.0283996 0.123394 0.128921 -0.0576488 0.143501 -0.0723041 -0.0144785 -0.073061 0.172249 -0.00878959 -0.240553 -0.0356188 -0.113995 -0.148297 0.0304524 -0.0908394 -0.111043 -0.159516 -0.0965812 -0.163925 0.119093 -0.065278 -0.0571454 -0.0155499 -0.119704 -0.0183069 0.0932254 -0.0570345 -0.170488 -0.114243 -0.0278118 -0.114303 0.148899 0.047435 -0.182064 0.0215082 0.125639 -0.0354188 0.00155144 0.142708 -0.121291 0.013083 0.12001 0.0268606 -0.022975 -0.0853824 0.108782 0.0723233 0.0338005 0.000683904 -0.0129263 0.0442262 -0.10545 0.0781945 0.180666 0.0500343 0.0989436 0.0502771 0.0239815 -0.0408396 0.0668926 -0.0326141 0.0469902 0.0466223 0.0508721 -0.0461052 0.0377147 0.0226643 0.06508 -0.138191 0.109823 0.110367 0.0798565 0.250044 0.14025 -0.0948681 -0.102948 -0.0638324 0.178373 0.20693 -0.0723494 -0.0941765 -0.122759 0.192803 -0.0831465 0.0350579 0.0110381 -0.0669506 0.0883433 -0.00853677 0.102137 0.116948 0.0937488 -0.0373001 -0.0237955 0.174431 0.131104 0.0479425 -0.166174 -0.0104727 -0.132926 0.0502067 0.0332589 0.175809 -0.0517667 -0.0779948 0.114694 0.0665654 0.0286523 -0.0435998 0.127651 0.340626 0.0351183 0.0908107 0.0402648 -0.0249952 0.11276 0.0122796 -0.19357 0.126367 -0.0496556 0.0218862 0.143196 0.154093 0.0583258 -0.0912589 0.0849059 0.0683115 0.048734 -0.107273 0.0704649 0.0765498 -0.0716598 -0.0954752 -0.00103162 0.044087 0.235345 -0.0335383 0.00614441 -0.121519 -0.0972085 0.0843172 -0.0153842 0.201037 0.0907192 0.102716 -0.0261214 0.00729394 0.136803 -0.0632833 -0.187363 0.0421489 -0.182298 0.0846556 0.0742489 0.0226094 0.0433673 0.121226 -0.0457564 -0.0749041 -0.0513356 -0.103752 -0.162023 -0.0306425 0.149313 -0.0283761 -0.0871891 0.0891364 -0.0529552 0.0915693 -0.0730918 0.175527 -0.132781 -0.0427011 0.0285757 -0.0958979 0.0851717 -0.0230506 0.0498485 -0.134734 0.00800092 -0.0124804 -0.050826 -0.00323608 -0.0310338 0.00468227 -0.0392551 0.00923051 -0.0223179 -0.0320162 -0.0604226 0.0501243 -0.0421067 -0.0526662 -0.128051 0.0210256 0.115087 0.0954564 0.0536127 -0.00308977 0.178375 0.00915372 0.0171891 0.00635976 0.0336164 0.101173 0.184892 -0.12622 -0.0125997 -0.0784209 -0.121479 0.0870845 0.0323877 -0.0485056 -0.0115329 0.0582552 0.00269895 -0.044883 0.0265968 -0.0175411 0.0697783 -0.019328 -0.110528 -0.0212794 0.0128987 -0.0266854 -0.0291615 0.13144 -0.131237 0.0043059 -0.177119 0.0217464 -0.0292195 -0.125967 0.0495431 0.10657 -0.0571311 -0.289578 0.100317 0.00058693 -0.0637158 -0.0792588 0.0847556 -0.0457821 -0.0328793 0.0810727 0.12701 0.102542 0.0482541 -0.117885 -0.100411 -0.0305746 0.0729836 0.172833 0.0335302 -0.194023 0.0289734 -0.0918114 -0.00390945 0.101903 -0.0408978 -0.0242911 -0.00340049 0.0697772 -0.00309672 -0.0301227 0.0461732 0.0743041 -0.157795 0.00163305 -0.0187494 0.0969202 0.0931652 0.0363972 -0.0473842 0.0829228 -0.0511153 0.107293 -0.0779528 -0.137325 0.0787364 0.0179813 0.0194878 0.246769 0.0923496 0.107087 0.0933196 0.113941 0.0207141 0.0262614 0.0691125 0.0424247 0.0246358 -0.0942224 0.0424634 -0.0660399 -0.150429 -0.0224026 0.0756305 0.0270314 -4.02599e-006 -0.0509105 -0.224293 -0.195763 0.0927917 -0.0788326 0.0304685 0.126862 9.09344e-005 -0.0846394 -0.101526 0.00147316 0.0475986 0.110627 0.0638792 -0.0318173 -0.12185 -0.0790792 -0.141057 0.143757 0.00359759 0.10189 -0.020023 0.157786 0.115774 0.0634513 0.081946 -0.00205965 0.0815139 0.0745229 0.0424285 -0.00774593 -0.16757 -0.148008 -0.0806831 -0.00761871 0.0183552 0.0264173 -0.0539864 -0.0203236 -0.063416 -0.178144 0.0451565 0.159288 0.0564257 -0.0423999 -0.0564313 0.104871 -0.0149905 0.076879 0.071567 0.00463858 -0.0893109 0.0559684 -0.222535 -0.143765 0.044302 0.0966488 -0.046605 -0.0639586 -0.00318629 0.107791 -0.0450875 0.00745572 0.013591 0.152117 -0.0687623 0.104659 -0.05801 -0.172178 -0.00710432 -0.0997781 -0.0696103 0.137828 -0.030372 0.120112 0.0461234 0.0475951 -0.0768402 -0.0648144 -0.0895102 -0.0194466 0.0290403 -0.073225 0.00590711 -0.0301438 -0.0774131 -0.226596 0.0212507 0.037626 0.131962 0.0614644 0.0170572 -0.0017805 0.0757882 0.118973 -0.083543 -0.187618 -0.0757891 0.0815625 -0.201785 -0.0163322 -0.0988543 0.0337481 0.0214619 -0.196215 7.66921e-005 -0.123681 0.0870392 -0.0608516 0.0147877 -0.0540921 0.113074 0.0494118 -0.082943 -0.0376591 0.0649342 0.0950756 -0.0193795 -0.078833 -0.0883676 -0.0102484 0.0268029 -0.176604 0.166862 -0.0959079 0.0575631 -0.0225505 -0.0184912 0.00921332 0.183141 0.0722366 0.170309 0.034858 -0.0188656 -0.125999 -0.062051 0.0987513 -0.260573 0.0475496 0.206038 -0.0485802 -0.0231743 0.0237568 -0.0847378 -0.00299202 0.0554885 -0.0953051 -0.1536 -0.0570196 0.0734057 -0.0449797 0.0365781 -0.124317 -0.0398174 -0.0205298 0.0333518 0.0493189 0.204167 -0.0860734 -0.300954 0.0992326 -0.0339521 0.0925208 0.0746432 0.16519 -0.145921 -0.115127 -0.0649289 -0.179966 -0.0825993 0.0128196 0.144302 -0.121114 0.0272351 0.178539 0.0387889 0.153898 -0.06774 -0.00125576 -0.021858 0.0837865 0.108034 0.0153781 0.178114 -0.0840029 -0.0985405 -0.0468801 0.0367017 -0.0408858 0.0331354 -0.0918099 0.0675049 0.0996925 0.145952 -0.0432156 -0.119149 0.0155268 0.0263843 -0.102714 -0.0631203 0.0175266 -0.0560921 0.052134 0.13031 -0.159903 0.171116 -0.0316244 -0.058291 0.106748 -0.0700295 -0.0739455 0.0519712 -0.0684145 -0.0374705 -0.0762174 0.035367 0.139687 0.105814 0.121269 -0.136878 -0.00659141 0.16732 0.0159072 -0.121297 -0.0693397 0.116298 -0.13351 0.00755768 -0.0580457 0.163373 0.00712227 -0.117519 -0.0735962 -0.084402 0.029886 -0.0893775 -0.000894116 0.28688 -0.0633657 0.0581109 0.127482 -0.0937733 -0.0687628 -0.0369255 -0.247455 -0.0755011 -0.111511 0.042454 -0.0660441 -0.17662 -0.0162451 -0.117952 0.005822 -0.014684 -0.0593545 -0.161291 -0.212298 0.0967945 -0.14266 -0.139327 -0.137024 0.035071 0.21745 0.0636036 -0.0887688 -0.0356518 0.0635042 0.135219 0.121938 0.133873 0.0534688 0.0266682 -0.0363247 0.0734281 -0.0388567 -0.0233312 -0.0367129 0.00772149 0.174221 0.0898102 0.126257 -0.0692688 0.00179369 0.129348 -0.0405019 0.201564 0.0907415 0.0336688 0.19196 0.0497209 -0.0231845 -0.0947211 0.0346576 -0.111987 0.0498521 0.0729743 -0.175697 0.00739411 -0.106987 -0.0421017 0.00706949 -0.109358 0.049842 -0.0835883 -0.0501635 0.139561 0.030678 0.0656887 -0.0499362 0.0416121 -0.070169 -0.120552 -0.117769 -0.180557 0.00440078 -0.026546 0.172649 0.0548292 -0.0124841 0.0471693 0.0139644 0.0626383 0.23793 0.249789 0.0390884 0.0137413 -0.00545538 0.0793478 0.0663237 -0.142932 0.193959 0.0609059 -0.221196 -0.104062 -0.0218501 -0.0958653 -0.0158757 0.0792925 0.183812 0.168112 -0.0660203 0.137683 0.187202 -0.200541 -0.12155 -0.0740775 -0.0239887 -0.0307527 -0.045538 -0.029226 0.167085 0.0823106 0.105275 0.088495 0.0233807 -0.0789546 -0.0863377 -0.0638478 -0.0287854 -0.0126322 0.0924285 0.0356697 -0.00762307 -0.00966918 -0.0925273 -0.00798643 0.151539 -0.0196063 -0.03802 0.0604228 -0.0511327 0.0738643 -0.139881 0.193673 -0.0998834 -0.0202593 -0.0784746 -0.170101 -0.0415182 0.0723098 -0.116073 -0.0135612 0.0695774 0.232629 0.0296631 0.0488027 0.0511916 0.126693 0.17834 -0.0267319 0.264726 0.0170015 -0.0125974 0.00802453 -0.0143645 0.119862 -0.0322469 0.0650925 0.117866 -0.0857868 -0.0174077 -0.0679731 0.0343466 0.0195053 -0.0498847 -0.103122 0.0179048 0.00552262 0.0591687 0.129149 -0.032988 -0.0624922 0.0309306 -0.089083 0.0183627 0.00662962 -0.0984374 0.174974 0.0733996 0.0824592 0.0506914 0.0113379 -0.170396 0.0196111 -0.0445531 0.0365337 0.121065 -0.128106 0.000688461 0.131379 -0.20368 -0.0536936 -0.0309205 -0.142739 -0.0514084 -0.00636764 -0.116188 -0.0700196 -0.0758914 -0.102511 -0.0860811 0.0245546 -0.123179 -0.217361 -0.00496962 -0.0857577 -0.0438989 -0.057975 0.0753462 0.138328 -0.0269589 -0.124755 -0.10977 -0.059127 -0.120834 -0.188898 -0.0454016 -0.0105871 -0.207161 -0.0775273 -0.161081 0.0298406 0.189122 0.037797 -0.0144254 0.137841 0.0792699 -0.191826 -0.0433434 -0.000973126 -0.0215818 -0.0163621 -0.0258711 -0.137208 0.0138471 -0.0719718 -0.0291499 0.0829755 -0.00938971 0.104865 0.0894586 -0.130514 -0.0223998 -0.0105552 0.0090259 -0.0822586 -0.093513 -0.00610548 0.0454839 -0.0225069 0.218293 0.172435 0.026683 0.109634 -0.0543268 -0.116901 -0.00153085 0.0121815 -0.00641835 0.00439383 -0.179897 -0.0810578 0.0868158 0.109857 0.00224182 -0.118822 -0.121962 0.0695292 0.0256815 -0.0603494 0.132966 -0.0936422 0.12643 0.0854437 -0.0496521 -0.00547397 -0.000900245 0.0610535 -0.0180308 -0.0106516 -0.145278 0.118946 0.0827798 -0.058636 -0.212239 0.012453 -0.0683515 -0.0125037 0.0798275 0.0466179 0.108366 0.0321399 -0.03768 -0.143206 0.0278976 0.0282545 0.00676448 -0.022076 -0.107776 -0.0417717 0.0238599 0.115728 0.231594 -0.113757 -0.0903895 -0.0333342 -0.0830011 0.0220806 -0.0256063 -0.133754 -0.0831255 -0.0416943 -0.0110252 0.0748329 0.084802 0.00306529 0.0517475 0.100664 0.100329 -0.108935 0.122393 0.0292982 -0.0846509 0.0286999 -0.0179074 0.039912 0.134175 0.171973 0.0589589 0.0279177 0.179785 0.0189925 -0.0399176 -0.0657844 -0.0290165 0.00916255 -0.00259771 -0.0328957 0.00520784 0.0935456 0.288517 0.0359919 -0.23577 -0.0173145 0.0456735 0.0756823 0.0394802 0.115721 -0.0872861 -0.167194 0.0166869 -0.230684 -0.0462987 0.141491 -0.0308501 0.0847252 0.000241453 0.0399371 0.000761245 0.175531 -0.227884 0.18544 -0.0283396 0.00531696 0.109308 0.0343179 -0.059052 -0.0815766 -0.0606237 0.0993386 0.0344412 -0.0801635 -0.0965205 -0.080243 0.0478995 -0.136211 0.0792772 0.127259 0.0846159 -0.0174711 -0.00090508 -0.0392963 -0.0410299 -0.123597 -0.0561027 0.071733 -0.0530664 -0.00950172 0.00495577 -0.126722 0.0171426 0.0782881 -0.142313 -0.0952573 -0.0939777 0.0291969 0.1602 0.219906 -0.0537645 -0.038007 -0.0727257 -0.0469962 -0.206873 0.00737516 0.100184 -0.15611 0.0579863 -0.0657303 0.00566432 0.139262 0.0214121 0.149758 -0.170893 0.162831 -0.0355079 -0.0481982 0.0291876 -0.137948 -0.101009 0.128878 0.118119 -0.0479555 -0.0306259 -0.0577411 0.19378 0.0584644 -0.0504262 0.163029 -0.121645 -0.0382601 -0.0116633 0.0173152 0.0267103 0.136309 -0.0253445 0.181447 0.185506 -0.150144 0.104774 0.0346398 0.0123973 -0.0219291 -0.170479 -0.0147902 -0.030773 -0.0843199 0.00943615 0.0445559 0.0451214 0.0462785 0.040711 0.0310887 0.065546 0.112601 0.0720458 -0.0428156 0.0873082 -0.17409 0.099913 0.00567411 -0.064932 0.014931 -0.0216016 -0.0257668 -0.130772 0.0122674 0.0642686 0.0378415 0.0986249 -0.0367317 0.0733258 0.0407047 -0.0187668 0.0985638 -0.168939 0.0110325 -0.103814 -0.105885 -0.195864 0.016953 0.192986 -0.00029736 0.112025 0.195322 -0.20205 0.163192 0.107872 0.0263192 -0.0581111 -0.0770854 0.0733308 0.0725579 -0.131653 0.105003 0.163147 0.123484 0.172408 -0.00261478 0.0911444 0.100388 -0.0218004 -0.049074 0.0597265 0.0220065 0.0900444 -0.0331885 0.024975 0.0788627 -0.124113 0.00931533 0.191377 0.0475175 0.0812584 0.0644857 0.0637812 -0.142999 0.0372265 0.0808079 -0.0416897 -0.23235 -0.120262 -0.042227 0.0226863 0.0373465 0.0355574 -0.0788487 -0.104415 0.113634 0.0205347 -0.146659 -0.0803732 -0.0485091 -0.217943 -0.060098 -0.0192565 -0.0729296 -0.000710866 0.0674887 -0.0652546 -0.1915 0.24171 0.0582802 0.00325021 0.0587064 -0.145538 -0.0780745 -0.0852211 -0.0024739 -0.0134945 0.209424 -0.15797 0.121686 -0.145612 -0.00866872 -0.0650415 0.279217 0.0780842 -0.219021 0.0642573 -0.0225522 -0.0138439 -0.0128125 -0.113152 0.000791982 -0.00504476 -0.0263203 -0.0914335 0.0331286 -0.00807306 0.0595729 -0.108301 -0.043219 0.0126564 -0.144804 -0.0726764 -0.06657 -0.0677992 -0.0971225 -0.120158 -0.0347628 0.0484657 0.00483445 -0.0138826 -0.0157928 -0.0606701 -0.000871473 -0.0358867 0.00380365 0.105589 0.0251404 0.0430233 0.0888443 0.0212629 -0.0853025 -0.159491 -0.134741 0.110583 0.0596646 -0.058635 0.0864458 0.0744083 0.140091 -0.0687125 -0.00370267 -0.0531635 -0.0743253 0.155235 0.0410351 -0.0375444 -0.0611164 -0.170674 0.136948 0.214494 -0.239149 -0.00475222 0.0954252 0.0556001 0.101379 -0.00482538 -0.0363831 -0.00220671 -0.023813 0.0908253 0.0854758 0.0411266 -0.0490048 -0.141275 0.0588532 -0.0725683 -0.187901 -0.152402 0.0583766 -0.034014 -0.0508612 -0.0235379 -0.0318987 0.013692 0.0487084 0.171774 0.184095 0.0762733 0.250814 0.186329 0.0864518 0.0667435 -0.0927365 -0.12082 -0.135692 -0.0901805 -0.00304142 0.0766612 0.118013 -0.0452742 -0.0101129 -0.135189 -0.169671 -0.0118855 -0.0603101 0.152913 -0.245581 0.0227666 -0.0395993 0.150486 0.0237194 -0.125478 0.0267332 0.100601 -0.0998468 -0.0702608 0.157413 -0.0685044 -0.014514 -0.000448177 0.0530686 0.116143 0.042992 0.0748316 0.0589833 0.0562818 0.203586 0.165052 0.0358344 0.0725561 0.126918 0.0352464 -0.0881246 -0.0908209 0.0376916 0.139849 0.000286373 0.0547696 0.0453355 -0.0396374 -0.0487303 -0.11889 0.052371 0.062583 -0.0912361 -0.0359492 0.00095207 0.0955255 0.122783 0.00655314 -0.0508175 -0.0456062 -0.0470856 0.119886 0.166988 0.00644145 -0.0707366 0.166144 0.0561959 0.0614305 -0.0112396 0.0580341 0.0757844 -0.030967 0.124433 0.064062 -0.188041 -0.0110278 0.0613378 -0.0146343 0.00645151 0.0394562 -0.116324 -0.117644 -0.00118623 0.0459404 -0.0759991 0.00546134 -0.190196 0.0119666 0.0836793 0.0937976 0.00733371 -0.0815314 -0.243379 -0.0596474 0.0870336 -0.0955103 0.0849719 0.0361554 -0.0457999 -0.0333933 -0.109708 0.121993 0.135147 -0.179593 0.0597022 0.00193481 0.00649984 -0.143136 -0.0723723 -0.187377 0.173207 -0.0539993 0.24123 0.050358 0.0608088 -0.0702586 0.0277493 -0.150608 -0.00888368 0.064506 0.0755882 -0.134086 -0.0575821 -0.0799042 0.108455 -0.0614536 -0.0270703 -0.15564 0.00874965 0.0397918 -0.0468833 0.103543 -0.0943295 -0.0432586 -0.126254 -0.0716307 -0.188931 -0.040642 0.0530647 0.0207066 0.0491565 0.0682061 0.202216 -0.126917 -0.0382986 0.182149 -0.179133 0.0360719 -0.146987 0.0534862 0.0242262 -0.0611463 0.252547 0.0796039 -0.183707 -0.130561 0.0137399 0.0325662 -0.018694 0.00308835 0.168553 0.111617 0.0219779 0.026261 0.0649546 0.0501162 0.0182707 0.135162 0.0562532 -0.159036 0.111201 -0.10012 0.0926379 -0.0866131 0.0778928 -0.108278 0.0962641 -0.117721 -0.0264846 0.0877278 -0.17921 0.125326 0.192617 0.0630461 -0.0446693 -0.115822 0.101788 -0.041452 -0.0515963 -0.179534 -0.0643038 0.0992466 0.0899674 -0.0371119 0.180995 0.00483152 -0.0263038 -0.152301 -0.115242 0.144554 0.0482001 -0.0852697 0.0116739 0.189917 -0.0701232 -0.00410938 0.0942706 0.0224279 -0.0689641 0.118076 -0.0593872 0.0371151 0.147117 0.0521973 -0.092444 -0.0301445 0.0278442 -0.00976635 0.151164 -0.208457 0.0503741 -0.0424701 -0.0281909 0.193686 -0.00545296 -0.0865068 -0.0937744 -0.00272324 0.0420647 0.243362 -0.0784353 0.109578 0.0770367 -0.163969 -0.0608692 -0.0467196 0.017889 0.118038 -0.111522 -0.21636 0.164644 -0.0470148 0.0575855 -0.0252465 -0.00378787 -0.109342 0.107074 -0.0236499 0.0909595 0.0107475 0.0095399 -0.047417 0.0520049 0.212417 0.0851769 0.143822 -0.00275468 0.0481864 0.0186295 0.0659792 -0.162192 -0.0984026 0.103548 0.112573 0.161085 0.0540873 0.00904844 -0.0406203 0.0682052 0.0989387 0.0717747 0.235716 -0.0631554 -0.0210887 -0.132984 0.0250562 0.0579689 -0.130981 0.205211 -0.0406052 0.059856 0.0173675 0.0284013 0.114992 -0.207516 -0.0450247 0.1524 -0.0256277 0.0310879 -0.219533 -0.051168 -0.132263 0.138941 -0.185295 0.102978 0.0324944 0.142307 -0.09948 -0.0952723 -0.0165368 0.0216891 -0.102392 0.0580679 0.0355894 0.005752 0.00360098 0.109434 0.0800167 -0.0138621 -0.159784 -0.0145455 0.0213175 0.058925 -0.117725 0.0348272 0.0069121 0.0214107 -0.0433619 -0.00428797 0.0148136 0.118096 0.0317828 -0.0787993 -0.0245462 -0.0168048 0.147029 0.0497756 0.154774 -0.00673448 -0.00173377 0.116633 -0.187526 0.0155285 0.143645 -0.0620283 0.0785912 -0.0536643 0.139231 0.0169107 0.0456839 0.0477789 -0.102448 0.041926 0.169703 0.0911179 0.0121089 0.14353 0.0766993 -0.00505517 0.197239 0.0330506 -0.00645858 -0.0473854 0.0636499 -0.0675227 0.04405 0.0770511 0.047432 -0.0475138 -0.100929 -0.194125 -0.0602173 0.192957 0.0277923 -0.0195029 -0.0878997 0.070595 -0.0328853 -0.103081 0.00144807 -0.0110785 0.0245663 -0.0849724 0.0855222 -0.00826348 -0.0684208 -0.0662052 -0.0355995 0.163154 0.0917667 0.153743 0.0519622 0.0145097 0.0401799 0.113002 -0.0403461 0.0205587 -0.0804758 -0.0472411 -0.145332 0.00302656 0.0647417 -0.0592188 0.173047 -0.0129893 -0.158098 0.0151873 -0.018144 0.1112 0.160818 0.0375607 -0.095636 0.0310221 -0.036514 0.0220991 -0.113107 -0.0785731 -0.137546 -0.182181 0.0303961 0.110159 0.0458116 -0.103039 0.0157351 0.190118 0.163961 -0.0145842 -0.126676 0.0164459 0.10113 0.0106057 0.168812 0.0880197 -0.088599 -0.181006 0.266889 0.062246 -0.0214136 -0.201598 -0.0143466 0.270512 -0.0717076 -0.146399 0.0477845 0.170753 0.0487583 0.0283479 -0.166558 0.0271123 -0.0484054 -0.0281448 -0.0952942 -0.0322253 0.0302914 -0.0987016 -0.0541016 0.0187952 0.0321342 -0.135916 0.13388 0.11029 -0.209529 -0.0597849 -0.0604769 -0.294495 -0.150818 -0.0069676 -0.03096 0.0724712 0.0159844 -0.129498 0.0604555 0.0443229 0.149175 -0.0926722 -0.0899368 0.1032 -0.0158813 -0.0905066 -0.136666 -0.0837514 -0.0377893 -0.00815416 0.068467 0.0703261 0.00819089 -0.082813 -0.0712359 0.0174151 -0.144838 -0.168513 0.225657 0.100022 0.0126733 -0.0426325 0.0610243 0.111101 0.163441 0.10387 0.142144 -0.0357501 0.0387415 0.0570013 0.0794065 -0.10078 -0.0820653 -0.0724806 0.062078 -0.116962 0.205117 0.236422 0.0126546 -0.1321 -0.144046 -0.0579871 0.0503769 0.152963 0.0242481 0.103794 0.0624094 -0.0245503 0.0957312 0.0707915 0.323326 -0.00561238 0.0248107 -0.0704317 -0.209928 -0.103086 -0.0649452 0.111192 0.101428 0.0907703 -0.0895506 0.0293497 -0.0648651 -0.0367736 0.0386834 0.0268988 0.0101721 -0.0120258 -0.131045 -0.0727494 0.188289 -0.181813 -0.0719597 0.0204382 -0.142266 -0.061814 0.0455317 -0.102637 -0.0670125 0.00474466 0.00107007 -0.104975 -0.132928 0.0199558 0.0979405 -0.121505 -0.0241126 -0.195102 0.0864581 0.0519814 -0.249836 -0.0659236 -0.0210375 -0.120826 0.0386414 0.0480625 0.074251 0.0115163 -0.0713582 0.0367093 0.000502212 0.0117997 -0.254678 0.0247467 0.0751637 0.113794 0.235165 -0.00230963 -0.145576 0.0132997 -0.0196797 0.160544 0.0594089 -0.0795198 -0.127438 -0.146622 -0.0803365 0.029898 0.134239 -0.0756365 -0.120018 -0.0543802 0.0773365 -0.0491223 0.205116 0.0887107 0.00620318 -0.0287104 0.0791521 -0.116888 -0.033913 0.0027251 -0.0553358 -0.0690768 -0.0991098 -0.0605164 -0.217894 -0.0865482 -0.112771 0.00716861 0.132405 0.103484 0.124347 -0.0774102 -0.0741319 0.11647 0.0338083 -0.0555514 0.0915024 -0.152032 0.00766519 -0.15552 -0.0870745 0.0726515 0.153023 0.0250149 -0.0408036 -0.257123 -0.103369 -0.163824 -0.0901014 -0.0748008 -0.208374 0.0326811 0.0821847 0.0814207 0.0627006 0.0457657 -0.0967414 -0.0550267 0.0879643 -0.0847848 0.057515 0.118582 0.157188 -0.0533475 -0.129004 -0.0427336 0.00453345 -0.149503 -0.0418251 0.102257 0.112922 0.155635 -0.00208225 -0.101335 -0.0148341 0.12026 -0.140632 -0.131317 0.14308 -0.0144767 -0.155329 0.00562732 0.0102003 0.0126744 -0.0053245 -0.132899 0.016863 0.0384131 -0.072254 -0.156105 0.0406237 0.109326 -0.126638 0.00554356 0.0224504 -0.173998 0.0394594 0.0728103 -0.124136 0.121778 0.106132 -0.0368889 -0.0309755 -0.127449 0.104934 0.0764251 -0.0263823 0.177994 0.0057789 0.0608878 0.0305003 -0.208238 -0.0712699 0.0476266 -0.18588 -0.0508461 -0.151135 -0.0456735 0.0243742 0.0698422 0.0833042 0.0756385 -0.0951637 -0.123523 0.0715009 0.244233 0.064424 0.0135136 -0.047704 -0.00685978 -0.071912 0.0116615 -0.0705109 0.0600733 0.0173595 -0.144856 -0.0268044 -0.173236 -0.142991 -0.0560672 -0.125101 -0.10108 -0.188412 -0.120608 0.139339 -0.0666593 -0.106456 0.0110826 0.146541 -0.0705417 0.173485 0.0462706 0.132103 0.160623 0.0645436 -0.0576213 0.23631 -0.119118 0.00834395 -0.0949584 -0.0662499 0.135842 -0.0312009 0.0139869 0.0670657 -0.0274876 0.155757 0.112852 0.0701167 -0.274469 -0.00665002 0.0145017 0.000855229 -0.11406 0.102474 -0.0808307 -0.106422 0.0579905 0.0297074 -0.0505595 0.156741 -0.147444 0.102474 -6.97711e-005 0.240781 0.198821 0.0720736 0.0175744 -0.0303666 -0.205731 0.0231137 0.0443557 0.103447 -0.106016 -0.12768 -0.071236 -0.0821946 0.0447104 0.120709 -0.0815638 -0.0259908 0.0317632 0.010119 -0.0869461 -0.148321 -0.0670213 0.0746246 0.0896597 -0.102067 0.123969 0.00894877 0.116361 -0.0292495 -0.106516 0.260428 -0.0786494 -0.171436 -0.121738 -0.18667 0.305085 0.236162 -0.0896879 0.239589 0.0385007 -0.0441479 -0.0425907 -0.0223365 0.152592 0.103534 -0.0104127 0.0506161 0.0590633 0.0455702 -0.0635024 0.014206 -0.109005 -0.0996452 -0.0791727 -0.0543464 0.16618 0.150002 -0.085538 0.0637624 0.0266299 0.104309 0.123044 -0.0810299 -0.00312726 -0.14898 0.0482464 0.0152333 0.0621684 0.0803024 -0.0202474 0.0496748 0.0837311 -0.0333754 0.0988379 0.026563 0.160702 0.0318081 -0.0443745 0.120707 -0.137363 0.086537 -0.0145274 -0.0455261 -0.160694 0.0752783 -0.0370612 0.111241 0.0147138 0.227086 0.00746306 -0.0907167 0.0181165 0.01409 -0.120912 0.0846254 0.1816 0.0222928 0.111531 -0.103818 0.0102032 -0.0185874 0.267473 -0.0232079 -0.0262887 0.190571 -0.177385 -0.143936 -0.0321901 0.0594386 0.0142266 -0.0234924 -0.0194147 0.00278115 -0.0545985 0.0397808 -0.104076 -0.0913024 -0.00747379 0.0393815 -0.114546 0.1402 0.14122 -0.0231022 -0.0479229 -0.109552 0.145572 -0.0136292 0.0736439 0.044775 -0.0114054 -0.10003 -0.0327092 -0.0451962 0.0590798 -0.00215718 -0.0381899 -0.169769 0.0324295 0.0363098 0.0621219 0.212454 -0.115257 -0.024159 0.0941609 -0.130586 -0.0829686 -0.148481 -0.116273 0.0914211 -0.150462 0.0567054 0.182118 0.0175525 0.0517961 0.147521 0.062281 0.188294 0.0720131 0.0753015 -0.0323371 0.0579366 0.117383 0.0841636 0.00352206 -0.0932718 -0.0314735 0.0675165 0.0996318 -0.112985 0.234182 -0.0346696 -0.214519 -0.0295285 -0.00622066 -0.0574304 0.154537 0.0209235 0.128436 -0.0448148 -0.084284 0.16542 0.0705159 0.314967 -0.0409102 0.024603 -0.0662463 -0.0408747 -0.0591716 0.0327254 0.138782 0.0312785 -0.12583 0.083146 0.0665375 0.104616 -0.176829 -0.0113941 0.0755753 0.106831 -0.0776935 0.147537 -0.186963 0.205856 0.139127 0.0514617 0.186174 0.0931006 0.0544672 -0.0566694 -0.0311309 0.113565 -0.0304772 0.144371 -0.0247795 0.125511 -0.00953608 -0.141154 -0.071449 0.0209905 -0.135824 -0.0447806 -0.0124728 -0.0296323 0.0378262 0.0767881 0.0173225 0.161297 0.0127366 -0.0503226 0.0322615 0.0510735 -0.0263248 0.128748 0.0276931 0.0221941 0.0671752 -0.011604 0.0590233 0.024292 -0.0832225 0.187237 -0.0281556 0.0533484 0.0732879 -0.0214908 0.0492862 0.0672227 -0.000641519 -0.0206327 0.222959 -0.051184 0.0495219 -0.056504 0.179765 0.126138 0.0300639 0.0671277 -0.146587 0.0935577 0.116318 0.0382172 -0.150767 0.0313644 0.214094 0.0230081 -0.127687 -0.157907 0.111722 0.0994362 0.0265853 -0.102263 -0.137232 0.00282413 0.108596 0.181046 -0.143744 0.240858 -0.204916 0.00728591 -0.0323476 -0.00121184 0.0637891 0.113643 -0.144755 -0.0356554 0.0334537 -0.0924798 -0.123012 -0.0640679 -0.0966592 0.175781 -0.0423612 -0.0364228 0.0496093 -0.00540658 0.0236669 0.0578849 0.101363 -0.0456069 0.0757839 -0.101091 -0.0936219 0.0850585 0.0941796 0.150894 0.0703562 -0.155485 -0.0349472 -0.120227 0.0971611 0.0487273 0.0415309 -0.0603476 -0.129968 -0.118388 0.0771042 0.0667556 0.0425855 -0.0228241 -0.0256246 0.188562 -0.11721 0.0941694 0.167671 -0.186792 0.0766221 0.012686 -0.219318 -0.187456 -0.0389663 -0.120175 0.119552 0.0440124 0.0804614 0.0310434 0.0564239 0.113493 0.07013 -0.0130261 -0.00723754 -0.00947097 0.0888381 -0.126925 0.108783 -0.103997 -0.0453166 -0.0509548 0.157119 0.0871431 -0.00819409 0.0485163 0.105133 -0.020811 0.0747513 -0.0298713 -0.11155 0.00170788 0.0601081 0.0731325 -0.0275603 0.255213 0.0981052 -0.0647519 -0.0873958 -4.19764e-005 -0.108372 0.080523 0.13284 0.0223552 0.105894 -0.108941 -0.0239352 0.0804541 -0.144664 0.0804605 -0.0658217 0.0104285 -0.0356246 -0.0580919 0.100069 -0.0288234 0.0180918 0.0130323 -0.0919785 0.140985 -0.217795 -0.0184738 0.0768032 -0.0371855 -0.0418706 -0.028808 0.144712 0.165145 0.0152472 -0.19086 -0.207281 0.128443 0.0778241 -0.08498 0.00357592 0.00221029 -0.0563458 -0.0531836 -0.0788553 -0.0895836 -0.246119 0.0870487 0.0122217 0.00118517 -0.0361796 -0.0029978 -0.0291372 0.114017 0.124075 0.0776739 0.0761409 0.020305 -0.00344581 -0.102179 -0.0435954 -0.100374 -0.177755 0.122574 0.132197 0.0190624 0.00367555 -0.0396855 -0.036582 0.0680182 0.111888 0.029104 0.080603 0.104586 0.165224 -0.0248198 -0.0645163 0.119329 -0.00123044 0.0217417 0.120846 -0.0604404 0.111169 -0.0771586 -0.0163238 0.0255767 0.00259127 -0.253652 0.277169 0.0262001 0.0926838 0.00911504 -0.0463115 -0.0678915 0.124439 0.101038 -0.100923 -0.141849 -0.0994006 0.0542273 -0.120634 0.137725 0.202943 0.129749 0.0809335 0.208649 0.19573 -0.142531 0.0473616 0.0228405 0.186049 -0.0978123 -0.0609757 0.129665 -0.0978348 -0.0381181 0.00761801 0.00871334 0.0939281 -0.123402 -0.0619342 0.0559742 0.0435686 0.0291929 -0.153907 0.0619598 0.190405 -0.0264567 0.0598895 -0.00207509 -0.154617 -0.0447012 0.00148324 0.0138567 -0.0729014 -0.052727 -0.0064903 0.046509 -0.10343 0.0450504 0.0461957 0.050223 -0.036043 -0.143985 0.00211133 -0.0463566 0.0353824 -0.0390745 0.0475402 0.0604368 0.120339 -0.077487 0.108206 0.186117 0.142408 0.143547 -0.0725831 -0.128427 -0.0416605 -0.132524 -0.187659 -0.0898331 -0.14518 0.151317 0.161649 -0.0331193 0.131368 -0.0540184 0.100541 -0.214774 -0.078619 0.00780008 -0.0152239 -0.12577 -0.116948 0.126094 -0.0489861 0.119306 -0.0898189 -0.0801133 -0.157716 0.148665 0.0312286 0.0465488 -0.000952672 -0.0257544 0.0665355 0.012613 0.108602 0.0898345 0.0439276 0.0851253 0.0260458 0.021451 0.0152672 -0.0208217 0.0380223 0.132158 -0.164667 -0.160806 0.0323435 -0.177911 -0.0199884 -0.0667983 0.153378 -0.0405327 -0.177934 0.0205874 -0.157223 0.100227 -0.0462561 -0.0309328 -0.00914614 -0.0182486 0.0872894 -0.0328433 -0.119547 -0.0701582 0.0529556 0.12176 -0.0174476 -0.0621909 0.138261 0.0345733 -0.0874979 -0.0768196 -0.0353181 -0.139633 -0.0850064 0.0215518 -0.0157647 0.0554419 -0.129756 0.0842528 -0.0458396 0.17657 0.0629189 0.165119 0.17808 -0.0408526 -0.0612858 -0.198897 0.0449732 0.124886 -0.110897 -0.165935 0.0967676 0.0695727 -0.0711091 0.0639726 0.0700777 0.17563 -0.0274993 0.0779792 0.0169052 0.0499798 -0.0776457 -0.14826 0.189595 0.193386 -0.0473544 -0.0721234 -0.0134439 -0.0556975 0.060501 0.150197 0.0735325 -0.138443 -0.0301583 0.112181 0.0821813 0.161221 -0.0849904 0.0860567 -0.0241725 -0.00712352 -0.175388 0.0205166 -0.153555 -0.0346975 0.202113 0.184122 0.0300462 0.0565632 0.0140529 0.0730667 -0.0644453 -0.107019 -0.0308987 0.00168361 -0.104638 0.0999119 -0.133107 0.0943392 0.0244484 -0.0266209 0.0286493 0.0570678 -0.0100867 -0.0112741 -0.151089 -0.0526257 0.122487 0.145876 0.155176 0.0845305 0.020179 -0.0465781 0.0269752 0.0190368 -0.0405969 -0.167619 -0.026419 0.0835278 0.11751 0.00429193 -0.0197579 0.0199899 0.106591 -0.0905933 -0.0536199 0.0319652 0.0526776 -0.0963786 -0.145148 -0.0731664 0.0115446 0.0111051 0.0291942 0.13609 0.0446403 0.0654419 -0.0313243 -0.0563949 -0.11694 -0.0605631 0.15408 0.0474868 -0.0407311 -0.0908925 0.0125759 -0.0295088 0.0214972 0.200407 -0.0527038 0.0176615 -0.217848 0.00146161 0.0596543 0.0667898 -0.155978 -0.0241086 0.06176 -0.0348097 -0.0229723 -0.174146 -0.120825 0.0380762 0.0891512 0.163063 -0.0608333 0.0602896 -0.0324468 -0.00701954 -0.0448064 -0.0911879 -0.102672 0.0110293 -0.00494232 -0.078577 -0.191665 -0.00559206 0.156767 0.0610655 -0.114216 -0.0696933 0.104773 0.0438891 0.072112 0.059013 0.0537609 0.00423856 -0.0143307 0.0420944 -0.0173445 -0.14794 -0.0712919 -0.00837119 0.105018 -0.0103498 -0.0525477 0.0348927 -0.0653003 0.165537 0.134128 -0.00927514 -0.128096 -0.053631 0.122983 0.0959543 0.0637976 -0.0417019 0.0695263 0.137922 -0.0136708 -0.078368 0.0190106 0.0656962 0.0277234 0.176376 -0.143034 -0.0569346 0.0105263 -0.0187273 -0.0489953 -0.0267499 0.0786865 -0.0167954 0.117481 0.0666017 0.0810155 0.157227 -0.0652249 -0.113568 0.0555317 -0.147304 -0.0134563 0.0234043 0.134236 0.120677 0.0585778 -0.171456 0.0988385 0.0148266 -0.0289316 0.116805 -0.0296004 0.247532 -0.0192893 -0.00612136 0.0337879 -0.0185837 -0.085465 0.179368 -0.0420878 -0.201113 0.0270306 -0.240745 0.128019 -0.0500972 -0.0922192 -0.0216233 -0.140997 -0.0200504 0.122008 0.0157672 -0.108507 0.0233139 -0.00442638 -0.00668888 -0.117239 0.0861363 -0.0931495 -0.00605272 -0.0814478 0.0956016 0.00575596 0.110942 0.0511668 -0.118517 0.0639781 -0.11143 -0.0582289 -0.0845953 0.117172 -0.0609473 0.054037 0.0971506 -0.108009 0.0570973 -0.0261022 0.134446 0.0568064 -0.0238325 -0.0483322 -0.129678 -0.0246576 -0.0687329 0.00654826 0.210851 -0.0325129 -0.0276527 0.203673 0.28314 -0.129778 0.0972785 -0.139911 -0.00284374 0.15886 -0.113714 0.0100289 -0.0891178 -0.261255 0.0281628 0.0512758 -0.0543676 -0.0447872 -0.0224126 -0.0729685 0.0809197 -0.00808209 -0.0836579 -0.00134448 -0.0462468 0.0452159 -0.0138309 0.138996 -0.0454752 -0.0576416 -0.0497422 -0.0783571 0.169058 0.0177746 -0.138279 0.0217681 -0.0675531 -0.0187651 -0.164056 0.0240541 0.0547023 0.14453 0.0144794 0.0116923 0.120914 0.0172698 -0.0302936 -0.0352046 0.051622 -0.174977 -0.0193636 -0.132824 0.0540863 0.199474 0.00361635 -0.0442935 0.0607881 -0.0551327 0.0646031 -0.0760095 0.0630202 0.00652627 0.185913 0.243672 0.00841489 -0.033091 0.010271 -0.142659 0.0771845 0.0716824 -0.199181 0.0427724 -0.0111169 0.0907277 -0.0638115 0.142876 -0.135302 -0.0934661 -0.00190191 0.0070499 -0.13414 -0.0278193 0.00838761 0.0412983 0.0748735 -0.0675754 -0.0561781 -0.0642879 -0.0566028 0.169872 0.166975 0.191498 -0.162711 -0.131785 -0.0789925 -0.0389561 -0.0845208 -0.089729 0.0177723 -0.10359 0.22238 -0.000984714 0.195744 -0.0779593 0.0454032 -0.186861 0.03877 -0.0140781 0.0721138 0.123105 0.0206427 -0.0368776 -0.153832 0.006815 0.106505 -0.0220202 -0.00279401 -0.217875 -0.138547 0.0413327 -0.215715 -0.010083 0.0435742 0.0181061 0.00527265 -0.0677034 0.116757 0.0722715 0.067901 -0.0785209 0.078019 -0.0605741 -0.178822 0.118939 0.197976 -0.0732658 0.109442 -0.0583561 0.0984561 0.10522 -0.0878554 -0.156089 -0.0818888 -0.099467 0.0513119 -0.206517 -0.0541682 -0.0496774 0.0161765 0.0759354 0.0887913 0.236884 0.129914 -0.0722423 -0.081415 0.0123256 -0.0409975 -0.0690854 0.140772 -0.16107 0.0516573 0.149077 0.0385807 -0.0747712 0.0976855 -0.117023 0.025642 0.0347388 -0.198676 -0.0302067 0.0782249 0.0139355 0.0178607 0.0614057 -0.107457 0.00660323 0.130973 -0.00394938 0.0896892 -0.0778788 0.068553 -0.0239511 0.148303 0.191976 0.10066 0.0204165 -0.0845484 -0.0941366 -0.00884529 -0.0528886 0.219075 -0.0738962 0.0505624 -0.0512315 0.131092 0.143954 -0.00202251 0.0403043 -0.0480117 0.0557926 0.00537362 -0.0155402 0.00241372 0.0193365 0.000432038 0.159086 -0.0120179 0.0226227 -0.216303 0.00712195 -0.199417 -0.21274 -0.143424 0.0173694 -0.0571877 -0.125191 0.0684328 -0.166078 0.0191885 0.0825729 0.0352492 0.110853 -0.256697 -0.00346704 0.0216367 -0.064321 -0.0627952 0.0378049 -0.0279529 -0.0691072 -0.00984159 -0.0552428 0.0133805 -0.0254746 -0.0971078 -0.134922 -0.107357 -0.0345667 -0.0679575 0.155411 -0.0602897 0.072692 -0.0448063 0.147857 0.0595164 0.00931163 -0.0299779 -0.158554 0.0397624 -0.0837134 0.0182719 0.0270501 0.177302 -0.196458 -0.117031 0.0541945 0.095546 -0.0174138 0.0765961 0.0718761 -0.084383 0.0880565 0.0662562 0.2891 -0.171266 -0.203888 0.0549607 -0.00439056 -0.174234 0.0728265 0.0675842 -0.12361 0.0525131 -0.110039 0.109127 -0.057115 -0.185512 0.00433402 -0.0716108 0.121388 0.0411211 -0.00805906 0.167531 -0.0401001 -0.0960942 0.0372634 0.187756 -0.0691258 0.00867676 0.0231732 -0.141113 0.00206408 0.0300615 0.0883303 -0.0646064 0.159451 -0.210546 0.085915 0.0057335 -0.130533 0.115562 -0.00919376 0.0538966 0.0913218 0.0134292 0.0399398 -0.183192 -0.0188017 -0.0683437 -0.105419 -0.157009 -0.00223826 0.00410589 -0.0659845 -0.228943 0.0694611 -0.053483 0.0450253 -0.0607072 -0.111056 -0.0407978 -0.0562929 0.0178109 -0.00679688 0.119345 0.219087 0.0642105 0.015736 0.103174 -0.0742182 -0.0284645 -0.108995 0.235223 0.127006 -0.00175417 0.0458518 -0.0574994 0.0469739 0.0544811 0.0997272 0.0582966 -0.078302 0.0371117 0.0628283 0.162683 -0.146556 -0.0991144 0.0399853 -0.0917557 0.0506279 0.0346262 0.0834361 -0.0982231 -0.0470186 0.0285108 -0.0583267 0.00775932 0.0658446 -0.0306303 -0.0300809 -0.149289 -0.0468631 -0.281246 -0.160407 -0.0017432 -0.00607884 -0.11232 -0.0987169 -0.0170184 -0.0286911 -0.159617 -0.116498 -0.205648 -0.038286 -0.051927 -0.100177 -0.0734053 -0.0656157 0.0874073 -0.0468366 -0.157743 -0.0327875 0.0246074 0.0573929 -0.0681922 -0.00182089 0.0527313 -0.0305396 -0.0626893 -0.304076 -0.0119303 -0.065079 0.0300886 -0.0834689 0.0773783 0.05933 -0.100077 0.326471 -0.0482713 0.0272231 0.00668656 0.0840373 0.0634688 -0.0441878 -0.14377 -0.103047 0.0918804 0.00311483 -0.13916 0.129467 -0.0268751 0.0618026 0.0959023 0.040694 0.0532128 0.268863 0.105061 0.0161118 -0.212227 0.185614 -0.136876 0.0494564 0.0395279 0.137699 -0.122471 0.194618 -0.0490834 -0.0872444 -0.0264235 -0.156912 -0.104517 0.0255364 -0.0311028 0.0953595 -0.0597189 -0.121913 0.104888 0.00327973 -0.0893422 -0.209886 -0.0630048 0.0820562 -0.0374873 0.0339334 0.00706507 -0.0362479 -0.109422 0.0448219 0.243751 -0.0462772 -0.0494568 0.00111049 -0.0397662 -0.0391395 -0.0316458 0.0968513 0.0618204 -0.194346 -0.0029867 0.190922 0.049639 -0.103762 -0.0349211 -0.054741 0.103896 -0.0514044 -0.153608 0.0227559 -0.136451 0.0534318 0.00779655 -0.0569224 -0.0724379 -0.108501 -0.0177867 -0.19041 0.138276 -0.0311724 0.0355936 0.18557 -0.173545 0.0158652 -0.00103064 -0.00689752 -0.0571163 0.0981417 0.073576 0.0824257 -0.0304699 -0.0158545 -0.0432714 0.00356002 -0.0671651 -0.110301 0.0057172 -0.0559264 0.118154 0.148065 -0.0135378 0.075757 0.0817073 0.144517 -0.157219 -0.128681 0.158383 -0.00540736 -0.0148483 0.173254 -0.154226 0.0860675 0.0812593 0.205041 -0.196973 0.0312371 -0.040941 0.0547018 0.0213365 -0.0184553 0.0366765 -0.068025 -0.0553056 -0.177251 -0.170618 0.0773377 -0.119633 0.199638 -0.0417208 -0.0189252 0.118411 0.0394531 -0.224422 0.0971158 0.0430856 0.0823236 -0.253087 -0.013397 -0.0483636 0.0144125 0.119979 0.152012 -0.0993102 -0.0175225 -0.0630772 -0.000936756 -0.0878937 0.106296 -0.0129165 -0.0885242 -0.0349493 0.0834486 -0.0855726 0.0502608 -0.0421999 0.0445997 -0.0577364 0.0493644 0.0239041 -0.0972715 -0.0867835 0.153815 0.00764379 -0.108516 0.104335 -0.0290207 0.0548091 0.0708209 0.0539896 -0.0895755 0.0947639 -0.147455 -0.00378721 -0.0327099 -0.173103 0.196432 -0.0178737 0.0418574 -0.0172622 -0.0115594 -0.0405284 -0.0863363 0.0945401 -0.119852 0.0454802 0.12415 0.00228674 0.00270387 0.0290064 0.0402742 -0.0542695 -0.0353802 0.0870841 0.260352 -0.0540198 -0.0773986 -0.0939035 0.0314535 -0.0287439 -0.0898585 0.00501878 0.212763 0.220427 0.115608 0.0405795 0.0360674 0.079192 0.0719087 0.0784142 0.00725951 -0.0325381 0.0481511 -0.139442 -0.0715582 0.0800394 0.036697 -0.0149974 0.0461669 0.149188 -0.0474904 -0.0388025 -0.121522 0.000669658 0.0305976 0.043249 0.0265645 0.00871427 -0.138376 0.183062 -0.0150406 0.0439626 0.0507185 0.0963744 0.0392224 0.243923 0.056655 0.111557 0.110084 0.0667071 0.0763332 -0.0492653 -0.0902096 -0.0164359 0.16506 0.0840573 -0.119743 -0.0692831 0.0297771 -0.0394471 0.213331 -0.157301 0.117903 0.0840808 0.000363262 0.138245 -0.0371091 0.00192356 0.0502309 0.0173864 0.0192342 -0.0548152 0.17302 0.147013 -0.046766 0.0209885 0.0300233 0.140876 0.0193676 -0.124549 -0.0421204 0.00355086 -0.0146166 0.0276741 0.0328709 0.0404373 0.174081 0.0514 -0.244364 0.0593219 -0.0611861 0.14539 -0.147767 -0.224745 -0.0293915 0.179346 0.155098 0.170808 0.0459707 -0.022836 0.0975318 -0.0177467 -0.00229972 -0.0245014 0.0162051 0.0834846 -0.0176751 -0.121344 -0.00459105 0.112928 0.0501828 0.00778884 0.087358 0.142087 -0.0233703 -0.00848099 -0.0240185 -0.0112065 0.0524956 -0.00638583 -0.136903 -0.0209001 -0.0527659 -0.00125357 -0.0448837 0.0234587 0.0820326 -0.0503156 0.0255249 -0.00738093 0.000949745 -0.105093 -0.0336112 0.136911 0.189202 0.0143061 -0.0336304 -0.0032589 0.0588813 -0.124541 0.0657237 -0.0604725 -0.0196576 -0.00976505 0.108286 0.00482149 0.0223619 0.0539817 -0.023582 0.252734 -0.0290556 -0.0650927 -0.119291 0.0733352 -0.0861192 0.0802256 0.0630794 -0.113363 -0.0685539 -0.0649163 -0.0783432 0.032801 -0.0127742 -0.127249 -0.115578 -0.145546 -0.117126 0.0337522 -0.120676 0.0680658 0.190766 0.0878649 0.095108 -0.136953 0.0674363 -0.0387871 0.123471 0.0334455 -0.035111 0.140732 0.208863 0.110813 -0.00284047 -0.128426 -0.0453242 -0.0662819 0.0352529 0.098528 -0.030936 0.110269 0.106112 -0.122964 -0.0499813 -0.120646 0.0680952 0.100133 -0.123344 0.0505858 -0.108035 -0.0139077 -0.0525327 -0.14024 0.0680254 0.0929966 -0.0192874 0.0675406 0.11129 -0.0427285 -0.021478 -0.0525763 -0.000791326 -0.0701985 0.0390428 -0.0222823 0.0418742 0.0743698 -0.212038 -0.0748525 -0.05614 -0.0487571 -0.0486558 0.128109 0.0194385 -0.178192 0.00301994 0.00864789 -0.0369117 0.0559588 -0.138383 0.0289578 -0.0758036 0.155886 0.0328914 0.0507165 -0.000974892 -0.142525 -0.0708084 -0.151389 0.0789382 0.206002 -0.0155348 0.125668 -0.00119866 0.010582 -0.139428 0.023525 -0.00125856 -0.152258 0.0175044 -0.0307317 -0.157474 0.0387743 0.109789 0.108514 0.0626821 0.124373 0.158792 -0.0493498 0.0742536 -0.0561661 0.163177 0.142753 -0.0817802 -0.223934 -0.0502299 -0.0895928 0.0606627 -0.00886201 0.0378194 0.0785517 0.0123244 0.0780716 0.0217645 -0.064695 -0.110477 0.119553 0.109145 -0.135625 0.0870166 -0.0443517 -0.0569442 0.132005 -0.167392 0.0132014 0.0394418 -0.0050998 -0.0670205 -0.09892 0.0178908 0.0403502 -0.0639461 0.114985 -0.104638 0.128357 -0.0196217 0.113752 -0.04129 -0.101327 0.0496695 0.0802475 0.0129551 -0.0541572 -0.00744414 -0.111823 0.0825036 -0.0548468 -0.0163563 -0.176833 0.133849 0.190253 0.0260765 0.0899998 0.0676696 0.029919 0.191251 -0.0122397 0.0498745 -0.0779369 0.222148 -0.0578769 -0.018742 -0.22079 0.0038658 0.0663768 -0.135461 -0.0106903 -0.0265619 0.0660604 0.0128027 -0.0762395 -0.0170634 0.0889643 0.00588621 -0.0208981 -0.121407 0.0642739 -0.0749227 0.0281915 -0.11077 0.0242693 -0.0478394 0.0161794 0.205026 -0.045514 0.0959209 -0.176848 0.161156 -0.220158 0.10266 -0.0310208 -0.0561403 -0.0545311 0.0475905 -0.0562817 0.162757 0.147193 0.193788 0.0297688 -0.126656 -0.132574 0.00684278 0.0646368 -0.0564174 -0.150969 -0.0740737 -0.0302621 0.00854905 -0.083958 -0.0526349 0.067528 -0.138383 0.155653 0.025238 0.112588 -0.0708142 0.0976433 -0.118398 0.036304 0.0648085 0.14118 -0.088167 -0.00654911 0.0554747 0.0594704 -0.122261 0.0948728 0.233775 0.00987175 -0.0231858 -0.0895649 -0.13622 -0.0864115 0.0879015 0.0360149 0.129078 -0.146694 0.0133477 -0.28923 0.241753 -0.0694319 0.218273 -0.0883668 -0.120394 -0.0514285 -0.0308918 0.0129753 -0.00668645 0.131128 -0.112226 -0.0358783 -0.0756919 -0.0503044 -0.231301 -0.144774 0.0649711 0.101101 0.0687577 -0.053818 0.158722 0.0591658 0.105897 -0.0222683 0.21629 0.00795959 -0.128087 0.191564 0.0556265 0.164552 0.0414004 0.00257138 0.051019 -0.0607784 -0.0301464 0.114761 -0.0516152 -0.0888582 0.158567 -0.0894431 -0.0730126 0.054989 -0.0872031 0.159821 0.160655 0.153109 -0.0953231 0.103373 0.126318 -0.0753509 0.0828883 -0.0287092 0.0608804 -0.219137 0.0275306 0.00770009 0.0349991 0.0753439 0.129048 0.100262 0.0838887 0.0392678 -0.29324 0.0204771 0.0111134 -0.138212 -0.141709 0.031772 -0.0430499 0.121745 0.0592784 0.00383286 -0.0848849 0.178873 -0.0539669 0.0458051 -0.0244636 -0.0758246 -0.00423531 0.0736619 0.154447 -0.114961 0.0648391 0.017923 -0.00420299 -0.0378474 -0.0769134 0.0783917 0.145876 -0.0795133 0.0398344 0.0451744 -0.0865573 -0.0293377 0.101717 -0.217098 0.0014503 0.0361523 -0.00882466 -0.0740507 -0.0288495 -0.101284 0.0316918 -0.147723 -0.00583759 -0.0562433 -0.127597 -0.122737 -0.0347744 0.0621991 0.011005 -0.00981909 -0.0247576 -0.0087304 0.241895 -0.00791716 -0.171405 -0.0949403 -0.0606745 -0.13752 0.0258889 -0.126625 0.16222 -0.145039 -0.12851 -0.0154164 -0.104816 -0.083325 -0.0239501 0.115169 0.000757462 -0.0384001 -2.81638e-005 0.00980546 0.0168058 0.135744 -0.0795346 -0.0336867 -0.0761645 -0.0227733 0.0572343 0.029083 0.0423827 -0.0406103 -0.0737337 -0.0159088 0.152928 0.0102174 -0.0603993 -0.0106748 0.165406 0.0552061 -0.00598132 0.00652469 0.127765 -0.135745 0.0438058 -0.0482858 -0.183374 0.026218 0.0897901 0.0399254 -0.0589261 -0.0791597 -0.0796674 -0.00516792 -0.00997129 -0.0422956 -0.00532806 -0.0169394 0.0071358 0.0533815 0.0725982 -0.0486692 0.104368 -0.0532614 -0.00370156 0.127574 0.00231911 -0.0407992 0.117954 -0.121703 -0.0186746 0.039277 0.0543386 0.027647 0.140492 -0.0850802 -0.0333176 -0.0352179 -0.100489 -0.078784 -0.111826 0.038329 -0.250065 0.0546717 0.0216645 -0.06895 -0.0272025 0.255684 -0.179155 0.0615797 0.123101 0.101089 -0.158514 0.137023 -0.0458613 0.0355111 -0.139091 0.126623 0.227544 0.150282 0.110765 -0.000704295 -0.00518696 0.0290426 -0.110405 -0.147878 0.084442 0.203462 -0.129693 0.117336 0.0143662 -0.0949032 -0.118267 0.0521097 0.0222739 0.0749743 0.000168508 -0.0507802 -0.0852209 0.0865413 0.177968 0.106505 -0.0673499 0.0915846 0.0331907 -0.0550062 0.038679 0.0296606 0.0964008 0.0239426 0.0114618 -0.0674712 -0.0254965 0.109218 0.0950886 0.16792 -0.121412 -0.0539554 -0.0772279 0.0237877 -0.222525 0.116069 -0.0823587 0.0265123 -0.201856 -0.112464 0.131908 0.069572 -0.153953 -0.0462688 -0.0256097 0.0522941 -0.166452 0.125161 0.0059835 0.0303525 0.0527291 0.0137566 -0.0386468 0.0200696 -0.139233 0.0725882 0.173783 -0.125313 -0.0500914 0.0639506 -0.121493 0.0285296 0.0457463 0.0303478 -0.0929489 0.0749818 -0.110427 -0.00217465 -0.0677052 -0.0494147 -0.0483111 0.155683 -0.0816417 0.118278 0.0197324 -0.08883 -0.0583207 0.0032573 0.0491429 0.0712565 -0.08832 0.08237 -0.172496 -0.101565 -0.0271019 0.0203699 -0.0465632 0.0194115 0.0368012 0.160233 -0.0920741 0.062828 0.140145 0.0299183 -0.0377181 0.0224519 0.138102 0.159017 0.0129035 0.0394806 -0.202431 0.206868 -0.0274027 -0.178073 -0.214413 0.0493266 -0.0733464 -0.104748 -0.0226692 0.115186 0.210779 -0.142652 -0.0012973 0.114132 0.00405044 -0.0155296 0.0377031 -0.11594 0.0624016 -0.0556602 -0.181786 0.0261079 -0.194233 -0.0675976 0.0635035 0.045828 0.147648 -0.0202819 0.0343381 0.0859227 -0.0665094 -0.121047 -0.106497 0.0441197 -0.0225219 -0.0942308 -0.0934136 0.0856903 -0.0044431 -0.0272826 0.087941 0.0343521 -0.0531305 0.144643 0.000145404 0.0417239 -0.0143168 0.0374906 0.0351045 -0.0935313 -0.0223737 -0.0186817 -0.010506 -0.0596448 -0.0346698 -0.0147857 0.114495 0.152377 -0.0900208 -0.111893 -0.0844252 0.110842 0.112237 0.00735507 -0.0389762 -0.0758199 -0.154448 0.0567529 0.113834 -0.091782 0.0671039 0.115417 0.0274789 0.0058203 -0.231014 0.134898 0.0440453 -0.0628658 -0.0115905 -0.0678254 0.0743511 0.0144699 0.0175869 0.0533626 -0.19644 -0.0298684 -0.145075 -0.0686485 0.0377722 -0.037881 -0.116678 -0.0755343 -0.0255753 -0.0587139 -0.252787 -0.078479 -0.0983276 0.197929 0.106864 0.0506696 -0.104478 -0.059335 0.0338746 0.0899528 0.00258079 -0.0210033 0.0708891 -0.0994214 -0.0532788 -0.0191128 0.0139125 -0.0793837 -0.0757988 0.0271385 -0.133037 0.0344496 0.0670054 0.0198683 0.0108855 0.091463 0.00174043 -0.234357 0.176654 0.0684127 -0.0117705 -0.000658192 -0.200694 0.00228127 -0.0999698 0.0853362 -0.104363 0.0246294 -0.133392 0.0379247 0.163205 0.106207 0.0172945 -0.0786676 -0.0343526 0.115029 0.012898 -0.0640319 0.0495629 0.157722 -0.0133407 0.0828178 -0.0684951 -0.00625812 0.0621667 0.159752 0.0496846 -0.14279 -0.073984 -0.0766942 -0.0967695 0.0876641 0.169943 0.110131 0.0314106 -0.0559803 -0.099786 0.112477 0.0134238 -0.079932 -0.0571969 0.0386954 -0.104488 -0.167313 0.0834148 -0.125094 0.0600985 -0.050826 0.00272558 -0.137626 0.0250793 0.067848 0.00554317 0.140608 -0.0405345 0.145157 0.0233317 -0.170655 -0.0756059 -0.00636905 -0.253628 0.135347 0.0792105 0.17053 0.0104908 -0.174764 -0.065541 0.175735 -0.048723 -0.0073724 0.0420064 0.14268 0.168357 -0.0373628 0.118848 -0.0401369 0.0289382 0.150608 0.0104235 0.0628129 0.112387 0.181989 -0.063774 -0.152651 0.211264 -0.0795935 -0.0526475 0.0410303 -0.156422 -0.103741 0.0233336 -0.110395 -0.0420859 -0.1559 0.0301864 0.0263286 0.172546 0.119542 0.196146 0.0461181 0.164989 0.0213609 -0.0926499 -0.177009 -0.255016 -0.0570154 -0.127134 0.0616957 0.0889382 0.0263892 0.200161 -0.0161518 0.0172127 0.0424351 0.0871062 -0.212741 -0.0831386 0.0160857 0.0542154 0.0314867 -0.222165 -0.187317 0.0801762 0.0993943 -0.0240891 0.0301172 0.0310277 -0.0325956 0.0929532 -0.0560903 -0.0910842 0.0463175 -0.0044619 -0.022443 0.0551768 -0.0922893 -0.0787718 0.130374 -0.171936 -0.126185 -0.0908129 0.0719602 -0.156911 0.0521107 0.0117932 -0.10465 0.042409 -0.0551892 -0.062736 -0.0112946 -0.0905343 0.0116802 0.0199002 0.0350949 0.162151 -0.0219578 -0.128177 -0.0753575 -0.0866784 0.0934981 -0.0266459 -0.0309031 0.0214522 0.0224516 0.0623023 -0.0687473 -0.0603045 -0.13198 0.0782054 -0.00485804 0.194186 -0.00194442 0.0942131 0.213751 -0.0227219 0.0434614 -0.108084 -0.0571028 0.0162081 -0.0164578 0.00479993 0.156681 0.0200081 0.0303429 0.121957 -0.216114 0.0895059 0.142753 0.107965 0.0175955 0.153581 0.0029626 0.143585 -0.0866076 0.0690444 -0.054957 -0.103281 -0.0539504 -0.260999 -0.158616 0.00543779 -0.00263722 -0.200654 0.186731 -0.0447307 -0.0125302 -0.183873 -0.160089 -0.116351 -0.0973721 -0.0124463 0.259642 0.0275611 -0.0550793 0.0799946 0.0306199 0.0226586 0.024577 -0.047782 -0.0441909 0.043622 0.23466 0.139044 -0.116307 -0.0827626 -0.043859 -0.126127 0.0417866 -0.0596759 0.0891895 -0.0963965 -0.0790149 0.0383792 0.0485848 0.110445 -0.00769536 -0.0272431 0.0249444 -0.020302 0.0380671 0.145018 -0.0494259 0.15956 0.0137841 -0.0511428 0.0992575 0.0353085 -0.0802823 0.109606 0.100548 0.00795635 -0.0673447 0.0247071 -0.00913426 -0.0598167 -0.00427984 0.102347 0.192975 0.0746517 -0.0223879 -0.0401128 0.0181312 -0.00316363 0.162848 -0.112204 0.014873 0.0466922 0.0895503 -0.0406378 0.0338553 -0.141479 -0.10993 -0.0232881 0.0505099 0.00932698 0.0966351 0.0921191 0.034215 0.0692307 0.120053 -0.160126 -0.128649 -0.0556446 -0.010893 0.0625838 -0.0946767 -0.11923 -0.0362883 0.0115887 0.0311277 -0.126931 -0.0952366 -0.108382 0.0364875 0.0183493 0.0549452 -0.130185 0.00874078 -0.061755 0.0652273 -0.142033 -0.0251327 -0.116831 0.0781926 0.0803681 0.114886 -0.102209 -0.185937 0.00893794 0.0567027 -0.0241764 -0.106631 -0.136857 0.139325 -0.135071 0.0413696 -0.0235697 0.0386101 0.119694 0.0370644 -0.0215606 -0.0238333 -0.175463 0.111015 0.0779171 0.177026 0.0583473 -0.153039 -0.0540867 0.181786 0.19289 -0.0241728 -0.21556 -0.00901451 6.478e-005 -0.0231809 -0.0748915 0.0295266 0.134801 0.0662004 -0.032581 0.109468 0.0418453 0.023705 0.0321723 0.0262242 0.0156034 -0.0116282 0.0511062 -0.0738198 0.147706 -0.134427 0.00418791 -0.00315892 -0.209264 -0.186124 0.0424263 -0.0362547 0.101152 0.0345088 -0.067213 -0.0443406 -0.0592403 -0.037354 -0.0405666 0.0157404 0.0718888 -0.0615565 -0.175092 0.101705 -0.0685019 0.0575945 0.217575 0.0540017 -0.122078 -0.0381192 -0.169653 0.0685122 0.0455129 -0.169395 -0.108209 0.0908773 -0.0845561 -0.107206 -0.0480947 -0.142385 0.00379125 0.0313508 -0.0567228 0.0326846 -0.0271919 0.0949375 -0.0392045 0.0406663 0.0768396 -0.0305432 -0.0611498 -0.0566032 -0.0326408 -0.00194621 -0.0861866 -0.0335331 -0.0371576 0.100109 0.0561232 0.208175 0.02384 0.295403 -0.0675217 0.0802836 0.104809 0.00856093 0.0714026 -0.00381684 -0.0166419 -0.00568724 -0.172617 0.0165704 0.00929606 -0.0766358 0.251955 0.142881 0.159483 -0.0603463 0.167086 -0.184874 0.0674531 0.0461943 0.105794 0.0110153 -0.0692826 -0.0320115 -0.0875468 -0.0291489 -0.0264499 -0.0133064 0.0952066 -0.0814967 0.114935 0.0556145 -0.0871507 0.14139 0.127906 -0.0109124 -0.0453362 -0.0121334 -0.148814 0.164996 -0.202198 -0.139743 0.0450138 -0.0454181 -0.0256984 -0.0307802 0.165879 0.115757 0.0264819 0.0151997 0.0213652 0.00810163 0.0127937 0.119984 -0.10746 0.0319035 -0.0266111 0.00521455 0.183081 0.0176439 0.124853 0.143298 -0.106393 0.0555788 -0.0501785 -0.0494256 -0.186054 0.0894619 0.0785321 0.0576667 0.136208 -0.0202576 -0.0220878 0.150576 -0.127562 0.084009 -0.149475 0.0410861 -0.088537 0.0508006 0.00159229 0.0235832 0.0835829 -0.0717185 0.159477 0.0952681 0.249687 -0.168263 -0.0165854 0.112102 -0.0985863 0.103896 -0.0370431 -0.142997 0.126617 -0.0139983 0.228333 -0.122437 0.126845 -0.142608 0.143531 -0.244478 -0.0212607 -0.0134939 0.0358219 0.0316715 0.0112563 0.192477 -0.169523 -0.227167 -0.0134906 0.118411 0.0368394 0.101451 -0.0834299 0.0322764 0.0814639 -0.054233 0.0884054 -0.0228121 0.0380311 0.0253431 -0.207759 0.0882379 -0.0593799 -0.022708 -0.0858941 0.161804 0.310672 -0.124999 0.0107075 0.121599 -0.0224523 0.118619 -0.228329 0.0567704 0.0605768 -0.0594221 -0.117248 -0.0523262 0.0833895 0.0202138 0.120524 -0.0179673 0.0122886 0.0568603 0.0562905 -0.0326235 -0.0677932 -0.0178082 -0.0179821 -0.133187 0.0561575 -0.0319537 0.13246 0.019146 -0.0335389 0.0291648 -0.0451078 -0.132565 0.0622809 -0.285543 -0.103985 0.00808468 -0.00348648 -0.0538825 0.209137 0.027627 -0.0166928 0.0725888 0.05604 0.0487512 0.0299196 0.027673 0.116131 0.0247188 -0.0128086 0.123157 -0.193867 -0.0365056 0.01004 -0.221835 -0.00631201 -0.109417 0.10816 -0.11123 0.0482455 -0.0409887 0.00870196 -0.00544491 0.104378 0.0571717 -0.0445533 -0.051341 0.00533917 -0.000578567 -0.107828 0.0116312 -0.0297814 0.0206394 -0.11267 -0.0168564 -0.02845 -0.0891071 -0.00455227 -0.0276839 0.120672 0.0376722 -0.0240341 0.106067 0.00227098 0.0253891 0.111988 -0.108819 -0.160705 -0.132613 0.04947 0.0674479 0.121061 0.0307459 -0.146723 -0.022535 0.0446534 -0.0500554 0.133531 -0.171839 -0.00431062 -0.0233199 0.0804061 -0.000562685 0.00841855 0.126467 0.00674154 0.0626138 0.11014 0.160621 0.0127877 -0.16025 -0.00436197 0.0292633 -0.00591323 -0.194186 -0.0262787 -0.0433106 0.0593098 -0.0501795 0.0612071 0.0395552 -0.00236983 -0.0110045 -0.0514388 0.144057 0.0584205 0.0220367 0.0557113 -0.0585815 0.0390409 0.231604 0.0842889 -0.0961206 -0.167959 0.0393569 -0.140522 -0.170768 -0.128519 -0.134817 0.00192045 0.0292636 0.0874361 -0.0546338 -0.120798 0.0357763 0.022198 -0.0750025 0.0280033 0.0585214 0.0337119 -0.0229947 -0.156678 -0.000229634 -0.0204102 0.0192624 0.0230584 0.110834 0.000582454 -0.0125856 0.0904407 -0.138226 -0.131455 -0.0356199 -0.0681171 0.0233096 0.0999763 0.0392039 -0.00170421 -0.100186 -0.000619266 0.157169 -0.0397839 0.0540455 -0.150818 -0.119302 0.0746952 -0.0705524 0.0595176 0.133397 0.109261 -0.102982 0.0171824 -0.0279331 0.0578332 0.0956101 0.0628661 -0.0264565 -0.064633 -0.17562 0.0352533 0.0552168 0.116429 0.31655 -0.0409545 0.0633072 0.0862587 0.0432786 -0.0692876 0.078002 0.0579393 -0.0922029 0.0658848 -0.149989 0.0872196 -0.0457107 -0.210406 -0.147363 0.0863064 7.94449e-006 -0.0260728 -0.0986983 -0.0738031 0.0297168 -0.039982 0.0744737 0.0326821 0.0163537 0.219153 0.0788789 -0.120769 -0.0176013 0.0380126 0.100743 -0.234385 -0.0940281 -0.14407 -0.0520962 -0.0242057 -0.0266582 0.0368439 0.101845 0.0662415 0.121526 -0.0792948 0.114429 -0.0109226 0.0701727 0.05713 -0.0436107 -0.0630886 -0.121387 -0.0187359 -0.124879 0.160438 0.0936604 0.122661 -0.148641 0.0828066 -0.0972774 0.116848 -0.0421576 0.0362399 -0.0598025 0.0236203 -0.0650073 0.0359013 -0.0211066 0.0340043 0.118233 0.057132 -0.130078 -0.0178291 -0.0188814 -0.0825359 0.0627115 0.0729018 0.0154922 0.0565313 0.0602035 0.0432377 0.107051 0.045938 0.168361 -0.0160848 0.0596057 0.0747893 0.120065 0.0538569 0.0369876 -0.109726 0.0921454 0.175259 -0.0151639 -0.0616128 0.000485342 0.0280769 0.186896 -0.213502 0.03785 0.0377402 -0.137663 -0.154604 0.0553975 -0.155842 -0.14301 0.14451 0.00983606 0.00207865 0.00456583 -0.234032 0.104324 -0.0148409 0.122539 0.16332 -0.00526269 -0.0599188 -0.147681 -0.126788 0.237666 -0.162616 -0.0893594 -0.116404 -0.0536698 -0.021966 -0.0731325 -0.111423 0.140977 0.000743705 -0.10149 -0.0226242 -0.0400776 0.0307755 0.171972 -0.0266635 -0.0375985 -0.0359409 0.0576147 0.0459997 0.0934335 0.130533 0.0360772 -0.0010126 -0.00149002 -0.0196174 0.15701 0.111091 -0.0498169 0.00291493 0.111691 0.0562587 -0.0707838 0.0945496 -0.083858 0.0859362 -0.226803 -0.022915 -0.034766 0.0677504 0.0354924 0.0636525 0.136349 -0.0795328 0.039006 0.069423 0.105115 0.0253129 -0.104567 -0.0166453 -0.0168546 0.0074839 -0.167774 -0.0726294 0.0681303 -0.178005 0.0867163 -0.0257796 -0.0221902 0.115371 -0.108566 0.057259 -0.11815 -0.076322 -0.0548908 0.163588 0.137548 0.121065 -0.126912 -0.0374642 -0.0291604 0.0922715 0.0663723 0.125942 -0.0700494 -0.0529829 -0.0491795 -0.0389373 0.0271705 -0.0671478 0.0711118 -0.0611924 -0.0349272 -0.0338041 0.014539 0.106733 -0.0303355 -0.0659494 -0.00937471 0.0710796 -0.101685 -0.0320308 0.191908 0.170873 -0.0413683 0.0539905 0.0202956 -0.0190238 0.0462829 -0.0173809 -0.101867 -0.180792 0.0981434 0.0566338 0.107225 0.127494 0.0951159 0.126559 0.00345776 -0.166187 -0.0504338 0.168409 -0.245425 0.0959177 0.0264684 -0.0353435 -0.00322033 0.243785 -0.156375 0.0868843 0.0179321 -0.102021 -0.023256 0.0851492 0.0237676 0.0783635 0.048047 -0.166258 0.227093 -0.0546729 0.163634 -0.0860572 0.0423486 0.0576518 0.148266 0.114502 -0.216845 0.0132826 0.150264 -0.0858745 -0.0648534 0.0530846 0.00403193 0.0642914 0.078345 0.0886958 -0.071056 -0.0273355 0.069853 0.0121435 0.0682871 0.19924 -0.0771899 -0.0266916 0.110104 0.0856187 0.0521502 0.017584 0.137984 -0.219254 -0.105052 -0.295009 -0.19525 0.153773 -0.041265 0.0308919 0.209815 0.0457702 -0.0364511 0.101669 -0.153793 0.0399474 0.0767992 -0.0947228 -0.145 -0.0722674 0.0131472 -0.0254601 0.0825685 0.150944 0.076089 0.0513662 0.0870999 -0.00305763 0.101921 -0.119419 0.0629628 -0.108068 -0.0228866 0.013074 0.0687896 -0.00356703 0.127587 -0.143916 0.0183799 -0.02256 -0.0802021 -0.00114197 0.219828 0.000740818 0.201987 0.0394798 -0.0340043 0.0773371 -0.0181511 -0.00703904 0.126902 0.0997423 -0.114278 -0.00128682 0.128609 -0.0376585 -0.0306541 -0.0153526 0.0307607 0.129064 0.0190778 0.102984 0.123384 0.128439 -0.024796 0.0640784 0.0464694 0.0309818 0.0416601 -0.0844429 0.122193 -0.107871 0.0205632 0.126596 0.0412855 0.0815174 0.121268 0.0588249 0.0145434 0.0174165 0.0453513 0.0256075 0.0780315 -0.0636434 -0.135401 -0.131217 0.015324 0.00918055 -0.00278174 -0.0422687 0.151943 -0.132808 0.0111107 0.107771 0.0382792 -0.0568658 0.0484692 0.203195 0.153179 0.198977 0.169753 -0.0584405 0.206245 -0.157782 0.060874 -0.150855 -0.113107 0.0982202 0.109585 -0.0991378 0.0125589 0.0867256 0.142212 -0.00398479 0.148676 0.0435281 0.0039999 -0.169223 0.0752532 -0.120096 0.00499783 -0.233679 -0.167261 -0.0611376 -0.143136 0.0752586 0.155625 0.0220526 -0.00416118 0.0430979 -0.0489974 -0.173977 0.0172326 0.0404486 0.0763193 0.0335406 0.174039 -0.106229 0.0175357 -0.0822164 0.182354 0.198523 -0.0948068 0.0898627 0.000437903 0.0227925 0.0746823 0.142539 0.0889052 0.181794 0.135295 0.0925706 -0.0326516 0.0218437 0.156104 0.018956 0.14355 -0.0208761 0.231563 0.0219584 0.149167 -0.0941485 0.101096 0.0230579 -0.105699 -0.00343114 0.0828006 0.0529799 0.0661459 0.087297 0.0266994 0.158136 -0.163042 -0.00889341 0.00345508 -0.0872443 0.221475 0.105752 -0.0936441 -0.135082 -0.108889 -0.0254179 0.0394332 -0.143695 0.101036 0.15962 -0.088793 -0.0663007 -0.172474 -0.108199 0.184449 -0.0490824 0.147339 -0.0476044 -0.0454696 0.0810307 -0.0836769 0.139707 0.14736 -0.19503 0.103241 0.0125286 0.135532 -0.0904134 -0.0199918 0.0536004 0.0992321 -0.114905 0.0554968 0.0650178 0.0951723 -0.00791574 -0.0486453 0.145032 -0.0352628 -0.0652794 0.0765775 0.137179 -0.0990136 0.0348562 -0.0072261 -0.057141 -0.0375149 -0.0398397 0.163775 0.061919 0.0984082 0.0181679 -0.207398 -0.186796 0.0232442 0.0686929 -0.163437 -0.0286556 0.130985 0.0871979 0.0413997 0.185738 -0.10298 0.0465442 0.12716 0.114132 -0.0673846 -0.101234 -0.0102406 0.0348128 -0.164499 -0.0452019 -0.0792956 0.0586083 0.134822 0.118502 0.095128 0.135943 0.00818758 -0.106943 0.14359 -0.0911098 0.213538 0.097375 0.0306245 0.136249 -0.0213491 -0.0594809 0.0794691 0.150423 0.0843948 -0.0790764 0.115669 0.0560408 0.0246746 -0.0878916 -0.00123855 0.084886 0.0603826 0.0944865 -0.0286506 -0.202657 -0.102548 -0.0518348 0.0480978 0.0939217 0.00500268 0.0216235 0.0605889 -0.060226 0.130278 -0.0294512 0.100183 -0.0952251 -0.0620001 0.0333789 -0.0926048 -0.134078 0.000466074 0.110879 -0.0582396 -0.0886041 -0.165815 -0.14068 -0.00661317 0.0373682 0.130147 0.0276586 0.00476097 0.00288447 -0.12618 0.100317 -0.117223 0.0141149 -0.106795 0.140484 0.081746 0.0630533 0.00287044 -0.0816087 -0.00601964 -0.20354 0.0113936 -0.108408 0.00984643 0.142618 0.0791785 -0.142801 -0.159658 -0.00706877 -0.0273542 0.117106 0.0125572 0.109364 0.0194361 0.134122 0.0478492 0.0070066 -0.0743834 0.060878 0.0655486 -0.0839704 0.0056472 0.119563 -0.0240108 0.0532949 -0.0304041 -0.0702761 0.0829831 -0.0145007 -0.0188439 0.00574626 0.0848424 -0.0213222 -0.0386276 0.0188464 0.0281342 0.0661285 0.135909 0.185844 0.00628152 -0.144859 -0.0117648 0.143984 0.0152826 -0.145795 -0.0328442 0.0460131 -0.0893795 0.0665094 0.10058 -0.0250718 -0.0363829 -0.00206113 0.0938952 -0.116234 0.00273553 0.159467 0.0394402 -0.0644888 -0.112855 -0.0553743 0.00242999 -0.0198561 0.0857961 0.0701033 0.275496 -0.042578 -0.0476002 0.0351006 -0.0570116 0.0706892 -0.035058 0.0654657 -0.00533362 0.0580807 -0.104096 -0.0220979 -0.125395 0.142512 0.16228 0.0701416 0.201705 -0.00596388 -0.119742 0.0899103 -0.0226701 -0.134732 0.0152638 -0.0877329 -0.284593 0.144994 0.209909 0.122271 0.0647013 0.00893736 -0.0336601 -0.148153 0.13335 0.066652 -0.0888071 0.201273 0.016325 -0.0268836 -0.00796141 -0.185151 -0.084288 -0.231668 0.00277066 0.165897 0.117372 -0.179439 -0.00467213 0.126975 -0.103762 -0.116146 -0.14717 -0.0540035 -0.141726 -0.133927 -0.0342958 -0.0202088 0.00454613 0.0957588 -0.0249709 -0.00497239 0.0465492 0.0535535 0.0812424 0.0519492 0.0954567 -0.0693494 0.177633 0.0816136 -0.0846342 -0.138394 0.0330111 -0.0536164 0.00124323 -0.139122 -0.172552 -0.0804532 -0.047297 0.00472962 -0.139547 -0.0317176 0.0941937 0.104349 0.144433 -0.0312543 0.0236149 0.0537542 -0.0440085 -0.0355925 -0.10384 0.0306224 -0.0156129 0.0636499 0.0139627 0.0709705 -0.0382467 0.0299121 0.171499 -0.105314 0.176239 -0.195753 -0.0332644 -0.00560649 0.102485 -0.0345308 0.164839 -0.0849792 0.0279351 0.136861 -0.034732 0.039466 0.0975672 -0.10927 0.0504453 0.107337 -0.0368231 0.00362743 0.00668854 -0.0310232 -0.0652289 0.0328974 -0.115677 -0.082879 -0.095997 -0.0269186 0.0827597 -0.0492279 0.0438115 -0.0561477 -0.0860677 -0.10968 0.0529613 -0.208629 -0.0554933 -0.109024 -0.0495582 -0.0123691 -0.128846 -0.00148354 -0.0919919 -0.112987 -0.0256342 -0.00392766 -0.161989 -0.0593474 0.157743 0.182174 0.00597671 -0.017931 0.0883821 -0.144714 -0.173272 -0.0990152 -0.125392 0.00476438 -0.152142 -0.183473 -0.283854 0.0473727 0.0598261 -0.121194 0.0425642 -0.15076 -0.139143 -0.109265 -0.165525 0.154467 0.0459917 0.120473 0.109667 -0.0210726 0.0336289 0.000190055 0.157277 0.0146857 -0.0522124 -0.081935 0.0720814 0.112433 0.029166 0.179195 -0.0787877 -0.0557958 -0.10127 -0.0378258 -0.0756415 0.0233857 -0.15508 -0.125161 0.0945686 0.0773272 0.137237 -0.0306166 -0.0471234 -0.0245237 -0.168383 -0.12477 -0.00873699 -0.0410861 0.0252783 0.0196938 -0.0841559 0.147532 0.0821211 0.149049 -0.0384727 0.116939 -0.17999 -0.0121107 0.0331831 0.021005 -0.088012 -0.0348343 -0.16963 0.0823015 0.155512 -0.00450352 0.0987943 -0.0712139 0.0485414 -0.0347109 -0.0813229 -0.0213546 0.0179564 0.0957042 -0.217133 -0.0779968 0.000826482 0.0186338 0.185795 -0.112621 0.112942 0.142548 -0.211441 0.0933821 0.105588 -0.0341509 0.0721536 0.141221 -0.0824008 -0.118442 -0.0205469 0.107801 0.0521568 -0.0178844 -0.188279 -0.00812862 0.0407108 0.0400842 -0.0388439 -0.187144 0.0908617 -0.0983768 -0.192438 0.0647119 0.000271343 0.0892414 -0.0855142 -0.0126449 0.0306845 0.0789848 -0.0327474 0.0242599 -0.0886707 0.0777825 -0.175027 0.101781 0.0772858 0.0638612 0.0962655 -0.0369243 -0.0663888 0.11201 0.200007 0.0703189 -0.000949001 0.00711795 -0.0720629 0.232986 -0.131087 -0.00395833 0.0655429 -0.0993969 0.162072 0.0135481 0.131513 -0.103046 0.0392702 -0.0843142 -0.117798 0.124891 -0.0439999 -0.0846745 -0.103353 0.176395 0.0483265 -0.0125073 0.00727781 -0.0306418 -0.0955106 0.0210234 -0.159952 -0.124369 -0.066617 0.0678333 -0.0483931 0.0309276 0.0224637 0.0614378 0.050885 0.0601308 0.017925 -0.00011525 0.0472726 0.0231276 -0.108523 0.0240866 -0.0258446 -0.172148 0.0342076 -0.12372 -0.107317 0.205683 0.18249 0.0678222 0.0695338 0.130962 0.0458083 0.0148457 -0.0524189 -0.078383 0.0288693 0.0755709 -0.165026 -0.0169876 0.0389263 0.04399 -0.187838 0.0673462 0.266055 0.127147 -0.0719954 0.0778989 -0.0398237 -0.0946314 0.0114065 -0.14208 -0.0816142 0.142443 -0.060152 0.131251 0.0730075 0.00922027 0.0974819 0.0147961 -0.0519406 -0.0683236 0.113083 -0.0219058 -0.0668315 0.15924 -0.0393995 -0.0867562 -0.150153 0.0102685 0.203082 -0.103269 0.0710411 0.0139135 0.18315 0.0725059 -0.11092 -0.00842504 0.190734 0.227602 -0.0909903 0.171412 0.167543 0.0575702 -0.0758757 -0.113985 -0.0720577 -0.0994202 -0.119446 0.071777 -0.0911561 0.0977029 -0.0762675 0.0983861 0.0569223 0.0333857 0.0961852 0.0806551 0.0140172 0.0177945 -0.0768683 0.0517143 -0.0751505 0.140615 0.0363775 -0.0475075 0.0757896 -0.117728 0.0208612 -0.012335 -0.0449936 -0.163025 -0.0234264 0.180065 -0.0509384 -0.0489908 -0.0599684 0.039049 -0.0378576 -0.118088 -0.122192 -0.265169 0.154248 -0.0844274 -0.0042077 0.161965 0.127304 -0.125433 0.0386354 0.0708648 0.0620298 0.000305733 0.000948715 0.012047 -0.154637 0.110458 -0.00207614 0.121841 -0.108991 -0.0236866 -0.051782 -0.118631 -0.0277406 0.105704 0.10187 0.0380009 0.0140877 -0.128444 -0.0634863 -0.0142494 -0.0300167 -0.0441182 -0.0645853 -0.137317 0.00291315 -0.104907 -0.055565 0.111985 0.0527955 0.0749633 0.0261563 0.10959 -0.0839756 -0.0580656 0.0109124 0.220598 -0.0772829 0.0911113 -0.0867766 0.0130147 0.0944726 -0.0397771 -0.0268763 -0.416478 0.131098 -0.166599 -0.0236793 -0.0834809 -0.0591052 0.0149026 0.184977 -0.0676626 -0.0259806 0.0132906 0.014723 -0.0399231 -0.113401 0.153057 -0.132556 0.0917058 -0.0320218 -0.171308 0.0141813 -0.111083 -0.087371 0.0539209 -0.136725 0.0519692 0.022089 -0.149515 -0.0484972 0.0124127 -0.00301704 0.06234 0.171071 0.187884 0.0547357 0.0828475 0.153964 0.128316 0.122388 0.0930521 0.0334199 0.0614851 0.0881842 -0.0141916 0.129468 -0.0601574 0.012605 -0.0356772 -0.0675468 0.127848 0.0693681 -0.0249511 0.0149834 -0.100672 -0.0565778 -0.0644266 0.136653 -0.109867 0.0967102 0.124147 -0.0941536 -0.132148 -0.146619 0.1684 -0.0019174 0.0273561 -0.0692753 0.0916448 -0.0770577 -0.0573556 -0.0576813 0.0587323 0.16549 -0.126833 -0.147238 0.0516679 -0.00966136 -0.0879024 0.00728089 0.158284 0.196308 -0.0851955 0.0681137 0.152167 -0.0723893 0.0959721 0.194798 0.0173824 -0.0561158 0.141073 -0.0856701 0.00117353 -0.0698198 0.295873 0.00327038 -0.0448953 -0.000862229 0.00135847 0.103493 -0.0906987 -0.0835321 -0.0307026 -0.0987326 -0.0312013 0.000380641 -0.00249601 0.0335507 0.149896 0.0934575 -0.158616 0.0681646 -0.102587 0.049741 0.0037075 0.0394235 -0.0502845 0.139694 0.147945 0.121493 -0.120658 0.0801247 0.107022 0.0754009 -0.00784449 0.0847706 -0.112678 -0.00699449 0.061382 0.0440638 0.153687 0.0228039 -0.0961718 -0.0481039 -0.0288821 0.0032683 0.0785693 -0.147954 0.0770006 0.0361734 -0.0197952 0.129739 0.0615876 0.0827173 -0.191026 -0.114682 -0.0740458 0.015409 0.158474 -0.0956294 -0.11242 0.0995687 -0.0943691 0.0297633 0.103735 -0.014969 0.165746 0.0994795 -0.0525018 0.201898 0.00917944 0.0252928 0.0544418 -0.0768653 -0.0282921 -0.151904 -0.0771318 0.0664904 -0.0125127 0.152013 0.0251128 0.11669 -0.0385597 0.0176598 -0.0323223 0.111266 0.0580786 0.0479363 0.0147997 0.0293387 0.00228029 -0.107087 -0.12983 0.0561933 -0.129498 0.217824 0.0122871 0.0689862 0.0731421 0.0670665 0.0170468 0.0745003 0.118903 0.113246 0.110487 0.00810465 -0.0102194 0.119767 -0.0487627 -0.0994706 0.106653 -0.128164 0.0750096 0.0987312 -0.0268353 0.114943 0.253413 0.138015 0.0229594 -0.0134426 0.0606004 0.201011 -0.0400071 0.00950254 0.0071056 -0.150729 -0.0796149 -0.0394074 -0.013021 0.0358878 0.00231911 0.0164935 0.157675 0.0118245 -0.015352 -0.15484 0.0530707 -0.131912 0.0420454 0.0223421 0.0943631 -0.0138435 0.159565 0.0106291 -0.011458 -0.0625044 0.027724 0.0303262 0.203244 0.0752448 -0.0435849 0.0295585 0.0685504 -0.0225385 -0.067874 -0.0938047 -0.039959 0.0762904 -0.0456055 0.102312 0.0877773 0.0577078 -0.0453456 -0.0404477 0.126714 0.0195848 0.00309681 -0.00217815 0.012689 -0.0994777 0.0991855 0.00328961 -0.091374 0.161365 0.0445378 -0.006478 0.151463 0.134585 -0.0859591 -0.00916731 0.0697692 -0.157229 0.123166 0.0299914 0.0317632 0.0357998 0.174201 0.00714332 -0.0278551 0.193135 0.0905742 -0.00739972 -0.0451127 0.021847 0.0955595 -0.107985 0.00580677 -0.0355239 -0.0154381 -0.108782 0.0308197 0.0108759 0.0869944 -0.197138 -0.0652991 -0.113367 -0.151198 0.24593 0.191069 0.0451379 -0.189433 0.0609688 -0.0542377 -0.00986802 -0.123457 -0.0734595 0.0197007 -0.0876908 -0.149882 0.0301843 0.0994299 -0.0554714 -0.0879724 0.14317 -0.00160438 -0.0321334 0.0901485 0.155147 0.131791 0.0599457 -0.196412 0.168244 0.232217 0.00353764 0.0372357 -0.119973 -0.0219121 0.00289495 0.0585337 -0.00668418 0.0694911 -0.0285515 -0.0326476 0.11974 0.0203897 -0.0588977 -0.0898351 0.100756 0.0185437 0.059103 -0.0236319 0.0334343 0.226648 -0.145361 -0.0503177 -0.0368182 0.0721462 0.0199986 -0.13615 -0.0322105 -0.0318655 -0.044711 -0.143557 -0.0114164 -0.0208896 -0.0617698 -0.0673602 0.0212455 0.139845 0.151496 -0.0393225 0.193641 -0.0988007 0.00288761 -0.230605 0.0286288 -0.159107 -0.0230318 -0.0166484 0.15447 -0.151469 -0.02142 -0.16561 -0.0250291 0.165634 0.0163249 -0.115243 -0.0286896 -0.0142301 -0.411972 -0.090167 -0.058738 0.124878 -0.218747 0.0192506 -0.0642279 0.127199 -0.0101358 -0.0815704 0.237356 0.00415452 -0.0615689 -0.0495895 0.0294321 0.122205 -0.155269 0.0604374 0.217142 -0.00351305 -0.0419367 -0.0190499 0.0859856 0.17613 0.0419287 -0.177836 0.0731362 -0.110812 -0.0106479 -0.0733623 0.0684173 0.005148 -0.0378925 0.0350431 -0.000642181 -0.0814561 0.0690294 0.00670245 0.0247283 0.163971 0.0725266 0.222218 -0.0330537 0.0382848 0.0691819 -0.00847848 -0.171626 -0.0457735 -0.0251946 0.0976649 0.130021 0.0598368 0.0107322 0.0345007 -0.0474179 0.0818452 -0.0999951 -0.156612 0.0764569 0.0338324 -0.247688 0.0683189 -0.0172888 0.0758679 -0.043481 0.039756 -0.0660358 -0.0258158 0.168533 -0.0769447 0.0828804 -0.130761 -0.128532 -0.0171603 -0.0798906 0.00987786 -0.213877 0.176766 0.00033236 -0.174977 -0.0773961 -0.0304172 -0.0220565 -0.00964527 0.136202 -0.124391 0.0528665 0.0977639 -0.0943128 -0.0103447 0.100201 0.00770798 -0.0249831 0.0823787 -0.176862 -0.109689 0.00214556 -0.0561334 0.0250057 0.0498588 0.138748 -0.121336 0.0272098 0.0192641 0.0724197 0.13253 -0.0324926 0.0121495 0.00972806 -0.0309988 -0.00446118 -0.0481279 0.179209 0.134347 0.0564698 0.0537034 -0.0486008 -0.0700085 0.0186169 0.0986154 0.0981876 -0.0763806 0.0623413 0.111641 0.232785 0.00199099 -0.131243 0.332942 -0.0942918 0.0453217 0.0838672 -0.00279981 0.0911939 -0.134565 0.135394 -0.128187 -0.0913168 -0.106909 0.0814111 0.0323457 -0.0251059 -0.0824608 -0.198079 0.0884977 -0.125385 0.00218363 0.137338 0.0813626 0.0283944 0.139337 -0.0291541 -0.0976099 0.0709872 0.0721891 0.0933418 -0.0709403 -0.0440498 0.0507707 -0.136647 0.0985138 0.0927823 0.0599735 0.0268928 -0.0373352 -0.122698 0.116117 0.146303 0.0247987 0.0278529 0.020289 -0.117595 0.0526611 -0.0444251 0.0609865 -0.118864 0.183067 0.0279036 -0.088124 0.124346 0.133224 -0.0183956 -0.142173 0.0325364 0.0124962 0.306257 -0.0086779 -0.065077 -0.0695375 -0.134416 -0.107969 -0.100804 -0.07345 0.0860139 0.022462 0.101436 -0.0207345 -0.119657 -0.133204 -0.0175107 -0.0383979 0.127052 0.0774419 0.0155629 -0.0486304 0.130546 -0.0606836 -0.094107 -0.081109 0.0575304 -0.0193709 0.0664686 0.0639625 -0.0571759 -0.0519892 0.116551 0.0418454 -0.0945537 0.0669251 0.142016 0.0293334 -0.0187225 -0.15757 -0.0343285 -0.224424 0.0387304 0.134931 -0.013713 -0.022139 0.176655 0.170748 -0.0144122 -0.155269 0.0270893 0.103691 -0.0263242 -0.0117907 -0.140436 0.163539 0.0290846 0.10577 0.104053 0.0359854 -0.0191501 -0.173989 0.0481438 -0.0270385 0.0619754 -0.000148678 0.01122 -0.0071022 -0.0334282 0.16376 -0.140988 -0.0340778 -0.199829 0.0859828 -0.124196 -0.025325 0.0100222 0.0929076 0.109846 -0.0496796 -0.0628407 -0.064048 0.188451 0.00671268 -0.0972283 0.151327 0.0295121 0.0977268 0.110129 -0.0647587 0.0440659 0.0395514 0.105076 -0.185787 0.134536 -0.198204 0.001146 0.10215 0.155568 0.166013 0.221597 -0.214863 0.0340896 -0.0345096 -0.0284394 0.013023 0.178043 0.0500532 -0.0158191 0.192156 0.00229726 0.0514881 0.081532 0.0367076 -0.253118 -0.0815805 -0.136753 -0.236205 0.0460068 0.133117 -0.10887 0.204481 -0.13564 0.163688 -0.0950988 0.0153213 0.0243153 0.0911587 0.131365 0.0289724 0.00315785 -0.0262704 -0.00399183 -0.137361 0.0550222 -0.0824198 -0.0260439 0.0296641 -0.0785392 0.0623943 -0.10525 -0.0140983 -0.0677876 0.00255547 -0.0563361 0.0457295 0.0701392 0.0184802 0.0861124 -0.00726611 0.105113 0.0395395 0.0258484 0.0273067 -0.002611 -0.0992005 -0.0502515 -0.0736819 0.0985733 0.0138691 -0.162589 -0.0472989 -0.0907829 -0.161659 0.11701 -0.0301153 0.0993333 -0.192204 0.168633 -0.0318134 -0.0324508 -0.0670271 -0.0758646 0.025547 -0.219423 0.0756639 0.0108911 -0.0850813 -0.122327 0.136678 0.0855999 -0.0876277 -0.0343944 0.107893 0.100562 0.0865199 0.0809478 -0.0107419 -0.0916011 0.0962141 -0.00877287 0.0267894 0.0149863 -0.100504 0.0538026 0.125962 0.0356593 0.0104674 -0.154726 -0.0255321 0.00750399 0.176481 0.0266385 -0.0612987 -0.0245611 -0.0650835 0.021313 -0.0467525 -0.100827 -0.0674446 0.149978 0.0765565 0.038895 0.00742935 0.0645773 0.160817 -0.0740299 0.0330244 -0.0802808 -0.0374134 0.027572 -0.000904972 -0.0150129 0.025787 -0.0335172 0.0305282 -0.0445051 -0.0811261 -0.0190955 0.10844 -0.106372 0.0334702 0.00391734 -0.1191 -0.0883563 -0.0393717 -0.0892236 0.0179048 -0.0250968 -0.0486546 0.148738 -0.0777971 0.101668 -0.0196917 0.0834993 0.124527 -0.00450218 0.115628 0.22267 -0.153337 -0.072217 -0.067655 0.125251 0.144711 -0.179022 -0.05485 0.0970076 -0.00896113 -0.0134644 -0.0943527 -0.0615938 0.277286 -0.0332977 -0.0333791 0.0720258 -0.0701116 0.0671447 0.129736 0.0396754 -0.0315433 0.135834 0.0308545 -0.0360885 0.0551377 -0.0203858 -0.0360892 0.000656352 -0.155876 0.0297918 0.066791 0.0657339 -0.0105365 0.141643 0.070003 0.134937 0.0802157 -0.0437723 0.0641098 0.0948032 -0.0190406 0.054132 -0.0354647 -0.0762697 -0.148218 0.0870104 0.0605751 -0.102974 -0.134711 -0.00851544 -0.0290096 -0.398574 -0.102233 0.0107451 0.129874 0.092616 -0.117365 0.00955081 -0.109239 -0.0368969 0.160666 -0.0594839 0.189648 -0.112115 -0.0103974 0.192534 0.159342 -0.0246744 -0.0147404 0.12891 0.0522978 0.0132054 0.15887 0.0242602 -0.0486076 -0.114524 0.0141095 -0.13694 0.0530132 -0.179224 -0.0739883 0.0867277 0.0504891 0.137113 -0.126534 0.198252 -0.157728 0.0464622 0.149805 0.0399806 -0.10337 -0.0181023 0.0292592 -0.0453505 -0.0530584 -0.142205 -0.102826 -0.0157271 0.0233475 0.000647587 0.0964763 0.0919986 -0.00533673 -0.187753 0.0478366 -0.0759143 -0.0380607 0.160232 0.0585561 0.114588 0.0549257 -0.0746574 0.0180655 -0.0789714 0.179493 -0.218961 0.136608 -0.0464142 0.14364 -0.00888981 -0.131827 -0.0846111 0.0390619 -0.0729165 -0.0694666 0.0958166 -0.0780222 -0.137621 0.0442643 -0.0924664 0.0451637 0.0323824 0.000836852 -0.0561775 -0.064273 0.145164 -0.0367246 -0.0446905 -0.0975324 -0.115676 0.183951 0.030167 -0.0653209 0.141785 -0.0251915 -0.0350325 0.104904 -0.0496686 -0.1584 -0.0530047 0.0271345 -0.100029 -0.0358179 0.132683 -0.0807057 0.0447951 -0.0234934 0.111034 -0.0396106 -0.0528135 0.0444785 0.00155721 -0.00807005 -0.156177 0.0149919 -0.0574999 -0.131498 -0.00163206 -0.0207143 0.116183 0.0703974 -0.115517 -0.0707581 0.140985 -0.0843287 0.00149371 -0.102765 0.267588 0.150439 -0.16342 -0.156958 -0.00344952 0.122843 0.12747 -0.0109769 0.0696947 -0.0965458 -0.0282978 -0.0953311 0.066727 -0.0610159 0.103736 0.003895 -0.126892 0.098366 0.0439301 -0.124844 0.0813342 -0.129348 0.00434363 0.116073 -0.0999317 -0.00791736 0.102623 -0.0890957 0.0561745 0.0296554 -0.127528 0.1692 0.110578 0.156554 -0.0708182 0.239409 -0.0019704 -0.0102893 0.0413085 -0.0356853 -0.0571882 -0.0788889 0.298024 0.0360322 -0.0251707 -0.0831638 -0.121859 0.0543267 0.00468914 -0.0737722 0.119932 0.0288395 0.153554 -0.0769277 -0.137032 0.0434058 0.138914 -0.026512 0.026727 -0.0150075 0.0577765 0.0527051 -0.144708 -0.038026 0.00542615 0.0167048 -0.0382283 -0.105146 0.18497 0.0940679 0.0827517 -0.0348735 -0.135371 -0.0372119 -0.0614508 -0.132574 0.0685631 0.117864 0.0204615 0.0413846 0.0552742 0.0774 0.0136699 0.205247 -0.129995 0.0028457 0.0406497 -0.0589955 -0.0984821 -0.0554245 0.10196 0.109314 0.065042 0.0354836 -0.147458 -0.0683139 -0.0831956 0.0653074 0.208669 0.0192881 0.08202 0.0394381 0.0437514 -0.0685052 -0.12264 0.10764 -0.0963013 0.0396648 0.0457921 -0.00227926 -0.031007 -0.00409542 -0.21539 -0.0305563 -0.00413785 -0.0878146 -0.0342212 -0.066533 -0.0264877 -0.0359092 -0.144372 -0.126468 0.094913 -0.0950555 -0.179541 0.139016 -0.0284589 -0.0595973 -0.00945951 0.173254 0.165333 -0.0928422 0.215365 0.215448 -0.147161 0.246406 -0.0548989 -0.0345037 -0.00291514 -0.080659 0.19368 0.0756261 -0.100283 -0.106814 0.0156351 0.0121257 -0.110931 0.129425 -0.0298579 -0.0164185 -0.0191074 0.0134961 -0.120874 0.00257382 -0.00742031 -0.0891971 -0.12184 0.0983491 -0.0466443 -0.117544 0.011338 0.148077 -0.0236677 -0.143637 0.00992679 0.000124793 -0.20201 -0.140332 0.0201454 -0.0219971 0.204783 -0.156657 0.161347 -0.108828 0.391614 0.0799317 0.0630678 0.219678 -0.135958 0.124304 -0.0403755 0.00228066 -0.092129 0.0559947 0.0526237 0.00806037 0.0207711 -0.0679932 -0.0884466 -0.0696172 0.0804434 0.129896 0.0142698 -0.0355272 0.0244772 -0.138961 -0.114603 -0.152962 -0.0315753 0.025201 0.0725892 -0.231107 -0.0634138 -0.237537 0.00977599 -0.0650573 0.0859725 0.0680238 -0.0302544 -0.0628236 0.0677682 -0.0188224 -0.0507251 0.0537509 -0.103247 0.0446636 -0.019204 0.0198466 0.0550824 0.142795 -0.145332 0.113819 -0.0094342 -0.193807 -0.0115951 -0.0694038 0.00439475 0.0224073 0.0701164 -0.0627607 -0.0780654 -0.0735329 -0.121553 0.280703 -0.111969 -0.195792 -0.182427 0.0181034 -0.0229479 -0.066545 0.0237509 -0.15046 -0.0773381 0.167513 -0.107757 -0.0910721 -0.274864 0.164845 0.0304764 -0.0314056 0.127231 0.081642 -0.041488 0.184114 0.0921612 -0.121257 -0.231965 0.138923 -0.0915084 0.0660575 0.062345 0.0557951 0.0800651 0.0853068 -0.181913 0.119691 0.0672865 -0.0978099 0.0932104 0.267067 -0.124159 0.096831 -0.156551 -0.0935808 -0.0250352 -0.189978 -0.0753613 0.00118922 0.00172982 0.198534 -0.0136489 0.0138601 -0.0247236 0.0673381 0.0296357 0.0795107 0.0579971 0.156922 0.0689045 0.0299071 0.1727 -0.0178525 -0.0942869 0.0995275 0.0909073 0.0264486 -0.0403871 -0.114888 -0.0494467 -0.0797183 0.0606795 -0.0418716 -0.0209721 0.0029669 -0.153945 -0.0133215 -0.112049 -0.0875275 0.0376445 0.0838703 0.0667221 -0.113645 0.028619 -0.0102576 -0.141185 -0.11339 -0.0644155 0.0619559 -0.145029 -0.0115532 0.0366301 -0.0505743 -0.0147932 -0.0476276 0.0710194 0.140222 -0.15563 0.0804975 0.141816 -0.00636949 0.0957256 -0.00296228 -0.0162196 -0.0645197 0.0610396 0.0643131 0.0531772 -0.0424157 0.254311 -0.00286637 0.153606 0.019744 0.0631381 -0.237803 -0.0959927 -0.00129588 0.107286 0.0514118 -0.0705353 0.0818667 -0.164877 0.0756319 -0.156159 -0.0444687 0.134364 -0.0049037 -0.022849 -0.0708754 0.0642536 -0.0709106 0.117584 -0.140683 -0.0706082 -0.0565524 0.0268883 -0.101343 -0.113736 -0.0930707 -0.0179251 -0.080948 0.00948314 0.0255861 -0.160134 -0.0755073 -0.167341 0.0227122 0.263779 0.120132 0.0684313 -0.0053159 0.0439318 0.0699055 -0.0455845 0.0151598 -0.0335376 -0.00209824 0.237575 0.00309872 0.028267 -0.252423 0.0484938 0.0724683 0.230288 -0.061265 0.0825727 -0.0567626 0.159283 0.0610578 0.0764581 0.116586 0.0509681 -0.0528381 -0.0432397 -0.00170798 0.0390458 -0.0598387 -0.095372 -0.0344293 -0.0319853 0.115368 -0.0193139 0.208719 -0.175458 0.0563178 -0.0579729 0.0912009 0.178828 0.0804977 0.265047 -0.0101972 0.0976111 -0.115698 0.10285 -0.179666 0.101923 -0.0479728 0.191938 -0.115296 0.142434 0.173844 -0.0479041 -0.063161 