0.437398 0.11952 -0.0178406 0.328147 0.373919 -0.633429 -0.523043 0.457701 -0.172573 -0.303895 0.360024 0.826756 0.705397 0.159438 0.102346 0.286613 0.815249 0.569213 -0.380831 -0.696766 0.717069 0.163321 0.536955 -0.221121 0.0947895 0.300599 -0.414876 0.849831 0.625173 -0.172558 0.15259 0.202878 -1.06904 -0.705142 -0.0651278 -0.591937 -0.522788 -0.315116 0.310405 0.564755 0.108127 -0.590856 0.0171203 -0.576304 0.333657 -0.413727 0.208844 0.0124293 0.274032 0.46691 0.249932 -0.541851 -0.301405 0.344638 0.181316 -0.388542 0.609016 0.338602 0.752039 -0.567097 -0.538005 -0.581434 -0.155318 -0.732125 1.07259 -0.174598 -0.44019 0.123805 0.175992 0.590619 -0.274737 0.254136 -0.250072 -0.455069 -0.0833907 0.0824037 0.94901 0.117861 -0.25876 1.04166 0.614736 0.0651697 0.225465 -0.557733 -0.086871 0.463632 0.127562 0.170526 0.986951 0.0727064 -0.219175 -0.429439 -0.0901161 0.21616 0.460731 0.469903 0.649615 0.497267 -0.68698 0.818934 -0.287916 -0.85986 -0.0856483 0.0182926 -0.676723 -0.610398 -0.0461494 0.726601 -0.170592 -0.175239 -0.235715 0.477452 0.114173 -0.219591 -1.26231 0.0535131 -0.4801 0.174579 -0.172541 0.408796 -0.0536653 0.3167 0.893079 0.87916 -0.274507 0.500594 -0.331181 0.0559419 0.163064 -0.605269 -0.0324907 -0.157828 0.189657 -0.155919 0.238057 0.256531 1.04466 -0.172605 -0.0681318 0.0371996 0.664223 -0.403334 0.736805 0.181454 -0.348596 0.0506842 0.420354 0.0180603 -0.237613 0.702082 -0.19886 -0.134609 -0.82099 -0.238043 0.618027 -0.513223 -0.810387 0.217217 -0.211944 0.593295 -0.46344 -0.797484 0.3638 -0.053121 -0.448644 0.384779 0.325508 -0.00668258 0.479476 -0.262383 -0.340004 -0.489059 -0.667481 1.50798 -0.308784 -0.372876 -0.333543 0.10952 0.709052 0.964059 -0.0936997 0.649376 0.24953 -0.194033 0.240489 0.161669 -0.12487 -0.751881 0.372832 0.0210992 -0.0841523 -0.256752 0.0085494 -0.772654 0.43766 -0.685747 0.498838 1.11154 -1.06153 0.308162 -0.069763 -0.401686 -0.271855 -0.274778 -0.533439 -0.860802 0.165624 0.786772 0.260191 0.419996 -0.748682 0.316403 -0.0114911 0.0360306 0.197539 0.583636 0.322195 0.225998 0.152066 0.0707538 0.757309 0.365938 0.0224048 -0.819551 -0.115573 0.549283 -0.523771 -0.557346 0.22562 0.695315 -0.128066 -0.0550407 -1.14867 -0.421372 0.0587139 -0.0726239 -0.0120845 -0.283227 0.712895 -0.826336 -0.174124 -1.24911 -0.214056 -0.220325 0.683806 0.539886 0.215623 -0.173731 -0.0676139 0.244664 0.16716 1.39924 0.411621 -0.410795 0.191643 0.0836829 -0.468024 0.594299 0.82676 -0.361359 0.0695536 0.0274837 0.248734 0.142993 -0.590294 -0.573315 0.0682381 -0.106481 0.116014 -0.853035 0.231006 -0.0159748 -0.0617391 0.871319 0.462863 -0.105813 0.475759 -0.484049 -0.313964 0.806038 -0.0091479 0.685361 0.379467 0.176255 -0.569323 0.144659 0.182404 -0.241673 0.497018 -0.369219 0.453946 0.682067 1.30425 0.787344 0.477002 0.00982214 0.394924 -0.210225 1.10816 0.557797 0.724178 -0.0237737 0.411464 0.14851 -0.290681 0.846115 0.625279 -0.196012 1.0042 -0.259561 -0.415163 0.403408 0.892373 0.0115627 -0.244682 0.060558 0.19675 0.334764 -0.013054 0.662037 -0.614754 -1.5641 -0.206583 -0.365806 0.614886 0.0106765 -0.392294 -0.186461 -0.563849 0.361042 0.87112 -0.387333 -0.742538 0.608922 -0.954259 -0.792863 -0.149403 -0.0974193 0.490066 -0.0661018 0.250567 0.582014 -0.503227 0.000780047 -0.218543 0.220044 1.51138 0.420378 0.800327 -0.547576 -0.0552495 0.523899 -0.626293 -0.789739 -0.503004 -0.170469 0.0729552 -0.0419553 0.676135 -0.345773 0.391461 -0.522669 -0.436823 0.101521 -0.33099 0.568866 0.132786 -0.46229 -0.798705 -0.414381 0.333883 0.161267 1.2292 0.0627061 1.23073 -0.348683 -0.309013 0.406124 -0.409362 1.23134 0.294081 0.380223 -0.0607374 -0.403941 -0.280982 0.303438 -0.867975 -0.240603 0.412764 0.908716 0.367387 -0.165725 -0.726074 0.404753 -0.368793 -0.774325 -0.0307496 0.460235 0.550677 0.366553 0.569336 -1.01555 0.967096 -0.64928 0.0487047 0.208032 -0.292111 -0.0260235 -0.0529311 0.523224 -0.862908 0.616946 -0.149469 0.364966 0.531779 0.0964949 0.389952 0.0903764 -0.233731 0.0635977 -0.410955 0.0723852 0.549367 -0.459287 -0.0326762 0.343512 0.0339562 0.300862 1.63987 0.387096 -0.0673455 0.00719512 -0.278493 -0.0667205 0.356231 -0.180341 -0.489682 0.214897 0.0838555 -0.224596 -0.352386 0.0132939 -0.2084 0.279121 -0.490906 -0.193302 -0.462292 0.0466338 0.608825 -1.14009 -0.263713 -0.459474 -0.0738239 -0.600486 0.131569 0.1547 -0.169762 0.0693353 -1.17439 -0.207589 0.0344574 -0.599837 -0.268708 -0.211114 0.593286 0.244372 -0.397085 0.189945 -0.104953 1.11096 0.774961 0.190826 0.417048 0.107386 -0.0636069 0.582913 0.0775621 0.324478 -0.352582 -0.106874 -0.112493 -0.514672 0.21481 -0.358673 0.314497 -0.0275036 -0.420051 -0.282057 0.218839 0.00596156 0.164385 0.447554 0.574373 -0.924172 1.31236 0.388588 -0.681059 1.21662 0.433752 0.0275986 0.101227 0.236609 0.708642 -0.173936 -0.0759092 0.287807 1.04546 -0.416344 -0.122039 0.325957 0.180173 0.136631 0.712822 0.285611 0.339144 -0.0970665 0.980909 0.870908 -0.228263 0.0659895 0.0640941 -0.0431973 -0.15765 -0.116606 0.169132 -0.383986 0.720574 0.697005 -0.731781 -0.652151 0.350158 0.56162 -0.054971 -0.984463 0.292092 -0.715194 -0.148996 -0.476329 0.155288 0.224681 0.383018 -0.0396759 0.261173 -0.0100184 -0.344083 -0.505088 -0.904582 0.256021 -0.211771 0.636287 0.108537 -0.444918 -0.0613362 -0.356783 -0.0738742 0.462418 0.458285 0.0754951 1.23621 0.307503 0.598209 -0.801103 -0.607694 0.37592 -0.534776 0.584321 0.217296 0.114534 -0.418015 1.03526 -0.859711 0.574528 0.412252 0.236643 -0.500609 0.63467 -0.502263 0.273426 -0.0243214 0.374006 0.554767 -0.172528 0.117175 -0.0927472 0.209702 -0.0881553 -0.113603 -0.899591 0.741201 -0.381375 0.703283 0.371588 -0.14455 -0.000805417 -0.300136 -1.03771 0.64508 -0.00222996 0.223884 0.0808326 0.311798 0.267375 -0.0584446 -0.711867 1.16125 0.315093 -0.0650577 -0.553578 0.752757 -0.126912 0.568064 0.635152 -1.09172 0.580039 0.128717 -0.140935 1.15536 -0.90451 -0.874652 -0.765561 -0.0437951 0.299252 0.358697 0.171467 1.26246 0.457239 -0.415265 0.0680416 0.239399 0.350027 -0.0950837 -0.366704 0.351007 0.0600007 0.529002 -0.801807 0.193418 -0.398072 0.325724 -0.872113 -0.199755 0.19853 0.112825 0.0514159 0.108054 -0.0246435 0.452355 0.220832 0.0688544 -0.167179 -0.0998714 0.332748 -0.235607 0.97156 -0.312718 -0.0613339 1.29673 0.120345 0.128359 0.662429 0.385587 -0.62011 -0.34822 -0.421395 0.236453 0.78277 0.226949 -0.458849 0.13023 -0.111203 0.688088 -0.431525 -0.0327091 -0.147788 -0.469788 0.363827 0.39833 -0.528807 -0.67864 0.167333 0.356088 -1.03261 0.242493 0.334007 0.700345 -0.699362 -0.589292 -0.659617 -0.0331011 0.556852 -0.0312575 0.298656 -0.224579 0.0359529 0.592034 0.122365 -0.341651 -0.635421 0.286365 -0.492421 -0.362838 -0.391943 0.138577 -0.64349 0.592355 -0.458388 0.201281 -0.796494 0.340658 0.482646 0.244205 -0.66329 0.313591 0.290081 -0.159636 0.163523 0.0770983 -0.285239 0.538039 -0.00335271 0.823058 0.0401484 -0.649775 -0.474751 0.162191 0.696662 -0.575535 -0.0368195 0.108913 0.280227 -0.0478479 0.497219 -0.922254 -0.0169794 0.698198 -0.0238827 -0.121984 0.985219 -0.284095 -0.365353 -0.279444 0.442606 -0.182689 -0.0232694 -0.0597002 0.123402 0.315478 -0.208673 -0.406366 0.0304241 -0.627512 -0.199291 0.250807 -0.818999 0.572749 -0.266866 0.0794197 -0.440931 0.0393278 0.0383087 -0.403412 -0.502145 0.344769 0.197546 -0.0778093 -0.14547 0.282959 -0.13239 0.223808 0.283287 0.680224 0.248005 0.151018 0.467844 -0.622079 0.275856 0.0357343 -1.12233 0.567372 0.21086 -0.270066 0.461432 0.121514 -0.245061 0.144828 0.384001 1.06987 0.05813 0.166281 0.667645 0.310325 0.738796 0.139427 0.0821916 0.0964881 0.612775 -0.273441 0.463112 0.0231806 -0.101442 -0.346182 0.782758 0.638756 0.693412 -0.464533 0.567164 0.0688487 -0.320706 -0.168779 -0.206344 -0.740526 0.461111 0.296989 0.36354 -0.484474 0.218172 0.695285 0.315514 0.190187 0.426228 -0.205839 0.0135762 -0.697461 0.709479 0.138804 0.279167 -0.430037 0.0655496 0.073379 0.390433 -0.504362 0.354078 0.105411 -0.153772 -0.438336 -0.0852897 -0.734351 -0.475122 0.951648 -0.61044 -0.386091 -0.0393611 -0.690906 0.467261 0.362459 -0.114544 0.419079 -0.635916 0.573025 -0.549154 0.692001 -0.209572 -0.033511 0.891865 0.150688 0.381096 -0.134447 -1.35745 -0.0391699 -1.45317 -0.184141 -0.302738 0.483989 -0.0157345 0.213046 0.177799 -0.3614 -0.554326 -0.706599 0.0872439 0.692326 -0.740446 0.142294 -0.108288 -0.171587 -0.264425 0.246758 -1.18318 -0.353673 0.120655 -0.308539 -0.51352 0.271746 -0.762634 0.189145 -0.212651 0.449546 0.233621 -0.0593398 0.580374 0.21878 -0.275849 -0.162237 0.0865195 -0.0921875 0.324326 -0.501819 -0.557544 0.335056 0.347316 -0.472947 0.43075 -0.274172 0.573045 -0.355618 0.845149 0.0521856 -0.00916768 -1.02526 0.104004 -0.0632186 0.146112 -0.220919 0.30683 0.0367723 0.920179 0.34619 0.605691 -0.64487 0.888578 0.0312426 -0.0210603 -0.100964 0.175035 0.21451 -0.356244 0.032071 -0.285911 0.448433 0.182621 0.0846196 0.210585 0.364798 -0.314511 0.405155 0.388897 -0.040064 -0.560601 -0.183053 0.126518 0.0142648 -0.0989703 0.560033 1.02844 0.352714 -0.0871557 -0.0135297 0.243284 0.422657 0.457872 -0.132137 0.164242 0.503251 -0.151104 0.211482 -0.357892 -0.624781 -0.482672 0.189042 -0.105381 -0.0853882 -0.47683 -0.578265 0.318699 0.95952 -0.153533 -0.292145 -0.128299 1.13084 -0.173911 0.18234 0.767598 -0.0233025 -0.570326 -0.360047 0.0173364 1.09191 0.377744 -0.480848 -0.567727 -0.219102 0.259579 -0.419036 1.1373 0.581612 0.0135414 -1.4525 -0.383455 0.592481 0.563414 0.331857 0.0273135 -0.669773 0.279923 -0.0287423 -0.0855284 -0.535053 -0.103831 -0.525749 0.00468122 0.64883 -0.0927842 -0.10094 -0.0115103 0.408856 -0.210576 -0.441684 -0.648994 0.0691602 0.34066 -0.424376 0.119508 0.632053 1.05888 -0.400499 0.106583 -0.188252 0.100905 -0.367206 -0.144495 0.145375 -0.317781 0.189341 -0.970927 0.0707824 -0.399394 -0.238658 -0.00313368 0.228854 0.640035 -0.0963858 0.193524 0.0382239 -0.127776 -0.770989 -0.441296 -0.426184 -0.294646 -0.111084 0.476164 1.02846 -0.333412 0.893786 -0.49066 -0.147083 1.01016 -0.045909 -1.02819 -0.251864 -0.278602 0.510996 -1.00337 -0.310188 0.580606 -0.277383 -0.0160063 0.309909 -0.275789 -0.367891 0.668637 0.412821 -0.24915 0.0901515 -0.404547 -0.308447 0.0564328 0.0160919 0.741735 0.266998 0.0601078 0.388381 -0.0227727 0.26772 -0.796999 0.146812 -0.336906 0.0165773 -0.387766 0.0154026 -0.556399 -0.635919 -0.437462 0.172852 -0.427062 -0.248945 0.35682 -0.251785 -1.10937 0.0678889 0.818975 0.568197 -0.0909 0.3674 -0.654478 0.293545 -0.575725 0.606741 0.305892 0.365906 -0.0202399 -0.476489 -0.0322826 0.101324 0.136203 -0.104772 -0.0417201 0.252102 0.505374 0.0512477 0.235545 0.0608994 -0.377469 -0.201552 -0.286689 0.307064 -0.605807 -0.336588 -0.976331 -0.270974 0.147911 0.186063 0.309465 0.0627155 -0.0365209 -0.0262132 -0.292511 -0.372954 0.173454 -0.466013 -0.438178 -0.0548125 0.0500063 -0.144389 -0.439657 -0.0376107 -1.11778 0.488307 0.605989 -0.936126 -0.649337 0.304318 0.238731 -0.426794 0.813243 -0.730776 -0.342919 -0.0717825 -0.0451223 0.0778263 -0.294496 -0.756169 0.61952 -0.171424 1.05284 -0.138438 -0.115587 -0.240049 -0.820965 0.565721 0.180848 0.266027 -0.116736 0.249474 -0.0841325 -0.602316 -0.0528433 -0.423287 -0.478471 0.207144 0.687877 0.211453 -0.392671 0.979412 -0.571022 -0.124953 0.733567 0.542219 -0.000953939 0.154173 -0.100802 0.134932 0.217339 0.548142 0.664528 -0.0395741 0.591991 -0.773768 -0.0840116 -0.454491 0.375499 -0.609699 0.292064 0.410309 0.573717 -0.496084 0.337725 0.467129 -0.333486 0.0310505 0.0390363 0.350839 -0.542667 -0.42502 -0.559345 0.562465 0.39041 0.44266 0.151961 -0.470635 -0.448235 -0.38326 -0.501878 0.647168 0.20084 -0.325899 -0.68697 -0.214336 -0.114009 0.501272 0.40548 0.377647 -0.409976 -0.315003 0.205693 -0.0486049 -0.449042 0.161834 -0.201212 -0.346298 -0.767729 0.013584 0.466725 -0.633758 0.0527605 0.582415 -0.28087 0.150794 0.0687403 -1.11724 -0.694337 -0.634127 -0.433085 -0.523055 1.05138 -0.672589 -0.114964 0.830571 -0.684127 -0.301342 -0.879491 0.372747 0.153374 0.163026 -0.46813 0.0642314 -0.106863 -0.272581 -0.201132 8.56841e-005 0.372978 0.233642 -0.0479064 0.141156 0.682744 0.357174 0.187968 0.631218 -0.769728 -0.713062 0.54059 0.0136774 -0.8735 0.191925 0.875133 0.14234 0.21182 0.378263 0.662113 0.15647 -1.20198 -0.303011 -0.560568 -0.256487 0.497906 0.446702 0.469192 0.124226 0.0562093 -0.811533 -0.38419 0.178249 0.0101043 -0.117515 0.461584 -0.00718128 0.036397 0.196924 0.300358 0.432036 0.427381 -0.647848 -0.0195093 0.071213 0.364584 0.0756151 0.157593 -0.274351 -0.278192 -0.497763 0.40407 -0.145782 -0.561225 0.77782 0.332494 -0.152631 -0.978813 1.23829 -0.293645 0.969183 0.030798 0.630988 0.0500689 -0.636533 -0.330415 0.389382 -0.781391 -0.523971 -0.156154 -0.0358211 -0.30246 -0.989187 -0.587359 -0.138206 0.802169 0.0987529 -0.0968857 0.427225 0.513414 0.107319 0.547487 0.155972 0.153344 -0.0269573 1.13897 0.286109 0.255036 0.0853243 -0.0976695 0.0529626 0.257649 0.924878 -0.323656 -0.327198 0.442519 0.591715 0.530858 -1.17632 -0.850926 0.358394 0.733283 -0.929449 -0.155507 -0.346593 -0.0491697 -0.682453 0.0771964 -0.120941 -0.13078 0.30368 -0.236676 -0.781016 0.497143 0.459155 -0.616782 0.749922 0.0690013 0.230384 -0.604147 0.300927 -0.512649 -0.183819 0.221187 -0.00636472 0.565903 -0.550262 -0.0748542 -0.299357 1.09825 0.772258 -1.04493 0.637183 0.816989 -0.052679 -0.394478 0.376473 0.178898 0.378688 1.51631 -0.447577 0.197148 -0.21617 -0.0209451 -0.441278 -0.17249 0.20474 0.442104 0.567242 -1.18386 0.252039 -0.0330024 0.170306 0.345548 0.794644 -0.556479 0.802114 -0.370422 -0.38786 -0.511644 0.31419 0.395799 -0.100996 -0.83054 0.205818 -0.00932896 -0.405511 0.348666 -0.0781326 -0.0313271 -0.468854 0.137153 -0.0687282 -0.222014 0.763074 -0.112699 0.0165362 -0.119755 -0.151766 -0.280623 0.253246 0.142419 0.185628 0.388027 -0.711354 0.153206 0.479333 -0.325563 0.66378 0.443599 -0.312303 0.815576 -0.476967 0.756133 -0.468497 0.283111 0.0897167 0.157275 0.0882511 -0.31934 -0.280975 0.0542736 -0.208994 0.770524 0.57451 -0.37408 0.612797 -0.50869 -0.0768843 0.194048 0.142183 -0.0139974 0.327726 -0.0852772 -0.347514 0.0318817 -0.0468361 0.0287339 0.179904 -0.365748 0.217896 0.00671314 -0.351483 0.385088 -0.161383 -0.75204 0.511845 -0.768279 0.460505 -0.155003 0.32894 0.539101 -0.319202 0.662635 0.00457248 -0.594072 0.532427 0.275859 -0.166832 0.441373 -0.119448 0.572216 0.542904 0.569298 -0.407236 -0.0754792 0.489527 -0.351287 0.104827 0.196116 0.770008 0.794526 0.359834 -0.207944 0.701888 0.0764549 0.319351 0.463673 -0.505618 -0.432025 -0.283023 -0.607586 0.636855 -0.178919 -0.677074 -0.393153 -0.0190755 0.293261 0.230163 -0.377571 0.223581 -0.37391 -0.0338413 -0.524541 -0.936437 0.225479 0.0589428 -0.207649 -0.70626 -0.37201 -0.262683 -0.580808 -0.596567 -0.519707 -0.355352 0.808371 -0.811042 -0.219647 -0.256757 -0.176228 -0.0139408 0.451384 0.425437 -0.11466 0.0533463 -0.0570172 -0.293208 -0.0786028 0.777713 0.0589831 0.0305156 -0.784909 0.217024 0.371404 0.149526 0.0316222 0.044748 0.938363 -0.21802 -0.349641 0.182222 -0.161382 0.365964 -0.00548427 0.414721 -0.469712 0.32483 -0.34281 0.192388 0.602142 0.0625585 -0.138614 0.617723 0.387366 -0.673779 -0.739659 -1.02105 -0.648021 0.242862 0.183318 -0.137041 -0.330207 -0.293131 0.414208 0.410786 0.330997 -0.463815 -0.499342 0.0162049 -0.0236942 -0.365427 0.3522 0.231989 0.69181 -0.200839 0.136534 -0.491895 -0.641976 0.100114 -0.475103 -0.748791 1.06046 0.812066 0.639028 0.100165 0.303969 0.329861 -0.125173 0.144276 -0.293083 -0.794485 0.0451374 -0.41095 0.998089 0.168263 -0.25315 -0.865694 0.264609 0.0995661 -1.00139 -0.0403614 0.699007 0.0104649 -0.0804249 0.567321 -0.513692 0.0322393 -0.166512 -0.507112 0.370728 -0.851911 -0.602428 -0.462029 -1.10734 0.714423 -0.189593 0.348712 -0.631947 0.060768 -0.538066 -0.592835 -0.119615 -0.155736 -0.041648 -0.566279 0.133709 0.814331 -0.294385 -0.517278 -0.824194 0.544031 0.136299 -0.516572 1.48882 -0.592018 -0.390481 0.292326 -0.0110346 0.139216 -0.275621 0.0525976 0.355235 0.731343 -0.0363556 0.15942 -0.587656 0.265952 -0.267583 0.321882 -0.616816 -0.441817 0.101769 0.792779 0.212203 0.56623 -0.376422 -0.0274312 0.631821 0.564901 0.0631449 0.00267189 -0.0698354 -0.0230107 0.453281 -1.27104 0.095984 -0.0451266 0.176804 -0.310194 0.883793 0.39236 -0.232165 -0.096972 0.311819 0.217262 -0.215969 0.219084 -0.389196 -0.36226 -1.17534 0.00518835 0.667089 0.91035 0.0314873 -1.09131 0.999778 -0.447257 0.4346 0.411819 -0.141493 -0.508962 -0.307505 -0.567611 0.476034 -0.184273 0.697797 0.352943 0.276112 0.445557 0.0201729 0.476426 0.0922859 -0.0767203 0.290073 -0.498653 0.539097 0.081434 0.412286 0.843141 -0.321616 -0.323162 0.0382497 0.0164335 -0.365217 0.506814 -0.125585 -0.297871 -0.111796 0.373442 0.317998 -0.137428 0.598597 -0.514682 0.984648 -0.651912 0.159846 -0.00434814 -0.527658 -0.857104 -0.954391 0.54571 -0.0624903 0.240026 -0.331193 0.533562 0.401116 -0.513688 0.259487 -0.575163 -1.29633 -0.341609 0.814832 0.120964 0.473039 1.29828 -0.112446 0.47857 -0.459489 0.636043 -0.103163 0.211086 0.385806 -0.839616 0.210587 -0.844106 -0.868068 0.0414078 -0.277597 0.555689 0.828651 -0.371511 0.00860994 0.557477 0.366515 -0.349376 -0.441742 0.376791 -0.309849 -1.3808 -0.580028 -0.169117 -0.10308 -0.11597 -0.0264646 0.0192081 -0.120655 -0.0236066 -0.121339 0.0696835 -0.091042 0.0433756 0.0926947 0.0798349 -0.0723405 -0.0552576 0.0332622 0.0793589 0.0955203 -0.115551 0.0114876 -0.119617 -0.237634 0.0752071 0.0801712 0.219872 0.100927 -0.215371 0.0630981 0.150038 0.128201 0.0358831 0.022379 -0.0589757 -0.0220471 -0.0779938 -0.0259119 -0.110102 0.0152536 0.0431011 -0.178668 -0.0214074 -0.0179891 0.103801 -0.10887 0.0756355 -0.0603976 -0.0482253 0.177051 -0.00457602 0.0675322 -0.17887 -0.187959 0.019824 -0.153665 -0.0322312 -0.0123102 0.0193722 0.0243868 -0.281492 0.156993 -0.106788 0.0346223 0.162529 -0.0668495 0.0096436 -0.172627 -0.036756 -0.0717194 0.106135 -0.113402 -0.0799727 -0.0721486 -0.141875 0.0896522 -0.0191627 0.0559231 -0.0612753 0.172605 0.208865 0.0878689 0.135405 0.0480918 0.242065 0.0846189 0.0207589 0.0894003 0.128953 -0.0559923 0.0144801 0.0559352 -0.00414978 -0.0485376 0.0791439 -0.109836 -0.0630135 -0.0472517 0.0304856 0.00104331 -0.114861 0.222501 0.104092 0.0768719 0.0116087 0.0413221 -0.0527121 -0.0904163 0.0828273 0.0128803 -0.0120851 0.0845363 0.057761 -0.0197606 0.0839602 -0.0595006 0.0370252 -0.0541949 -0.0634934 -0.114976 -0.16375 -0.0776667 -0.0766153 0.105875 0.187751 0.164077 0.0260061 0.112897 -0.10535 -0.0393061 -0.0345275 -0.0365453 -0.0395563 -0.0210244 0.0903626 0.0535371 -0.072887 0.025794 0.0717185 -0.0858821 -0.00519521 0.0240497 -0.0240219 0.0229998 0.0886542 0.0528706 0.0810851 -0.0497298 0.0418229 -0.111921 0.0305312 0.21619 -0.035484 -0.0292251 0.162322 -0.0638751 0.0753464 0.137851 0.00307742 0.00108493 0.115184 0.0984234 0.0757727 0.0978114 0.10111 -0.029103 -0.107248 -0.019446 -0.0187333 -0.119798 -0.0369545 0.107118 0.140552 0.109657 0.141617 0.0868713 0.0409775 0.0822825 -0.0247469 0.128292 -0.00322421 -0.0484333 -0.0124008 6.0476e-006 0.0162028 0.0196058 -0.0787227 0.192498 0.0477159 0.0691556 0.164913 0.0498464 -0.00100037 -0.0156307 0.0512276 -0.153136 -0.0569407 -0.0747438 0.0603301 0.0285481 0.00648996 -0.00560798 0.0613613 0.0397153 -0.1608 -0.106524 0.0599257 0.142688 0.0902972 -0.0303003 -0.0323994 0.0157111 -0.0403647 -0.0670607 0.121857 0.168505 0.040779 0.0517048 0.0458174 0.120061 -0.0129425 0.0380069 -0.000398359 0.209982 -0.0357858 -0.125858 0.110154 0.0430746 0.00212811 0.0651631 0.0207892 -0.228842 0.00568894 -0.128817 0.0353829 -0.124784 -0.0426295 0.0399403 -0.243684 -0.151648 0.284009 -0.0667124 0.0514012 0.0554732 -0.0335048 -0.0435647 0.0590426 0.0240266 -0.0899125 0.00118349 0.0811279 0.0111666 -0.163703 0.120754 0.0116735 0.060371 0.174202 0.0998026 -0.0791946 -0.0492746 -0.137502 -0.0825638 -0.188352 0.07431 -0.179986 0.0666445 0.0965311 0.00584266 0.0534682 0.0148472 -0.0506811 0.136132 -0.0667412 -0.0826598 -0.0852774 -0.0634147 0.199445 -0.0429179 -0.121855 0.0276827 0.0120177 -0.0638713 -0.00977228 0.0371679 0.0125396 0.198076 0.191994 -0.0431534 0.265134 -0.14874 -0.162739 -0.0629427 0.11793 -0.0641688 0.0722733 -0.0326985 0.0791672 0.138307 0.0258553 0.0281944 -0.0215395 0.0395272 0.213667 0.152337 0.126466 -0.100188 0.0695821 0.0413625 -0.0898699 -0.080047 0.075113 -0.116459 0.0302199 0.0587041 -0.0967402 0.00686107 -0.0186237 -0.0174233 0.0888698 -0.150187 0.0458094 0.0679292 0.00881146 0.140777 -0.052831 -0.000446474 0.119187 0.0461916 -0.109951 0.0734214 0.0355152 -0.0282852 0.062832 -0.143914 0.0297589 0.0495751 0.0673976 -0.139566 0.0936585 -0.0391364 0.0767604 0.0846998 -0.236395 0.0129001 -0.0856934 0.102064 0.118814 0.216824 -0.0844016 -0.101365 0.0319644 -0.0176788 -0.0713618 0.0714391 0.0501894 0.127989 -0.141647 0.00775362 0.0281529 0.0708102 -0.0636964 0.144487 -0.0888126 -0.0816026 0.084998 0.0188837 0.0417271 0.013924 0.0595759 0.0644659 0.0532641 0.175129 -0.0394456 -0.0764742 -0.0185922 -0.030743 0.00471128 -0.0274693 -0.0230264 -0.0105276 -0.0131324 -0.0528296 -0.0649955 0.112102 0.156969 0.164153 0.171542 0.0776266 0.185288 -0.0770442 -0.0121136 0.0419695 0.0330272 -0.0646305 -0.0798908 -0.0874015 -0.0460166 0.0339829 0.110019 -0.0707594 -0.0358648 0.0135407 -0.188869 -0.221474 0.04296 -0.0561798 -0.0245174 0.24369 0.0802272 0.0369047 -0.0682399 0.0198286 0.0747178 -0.134007 -0.0328605 0.138696 0.160751 0.175178 0.0537008 -0.0657529 -0.0447002 -0.0646926 0.109188 -0.0959965 -0.104825 0.206441 -0.0700503 -0.0258376 -0.0221882 0.154173 -0.0294651 0.0387755 -0.109616 -0.116212 -0.0804517 -0.0166669 0.159628 0.0650119 -0.00652252 -0.0389373 0.123091 0.106459 -0.025111 0.104675 0.0198211 0.0504535 -0.0531399 0.131064 0.0617772 0.0718329 0.128159 0.0144276 -0.0226289 -0.00186825 0.0211471 -0.266647 -0.0482365 -0.00690672 0.0968124 0.31806 -0.0384964 -0.035303 -0.0433724 -0.0775612 -0.0863471 -0.0525151 0.164616 -0.0589831 -0.0354634 0.00738814 0.155726 0.0645238 0.1297 0.00398434 -0.0952576 0.195092 0.149624 0.0644923 0.0513716 0.0155515 0.0768432 -0.210057 0.0173196 0.0375539 -0.089574 0.0297058 -0.0705939 -0.0536061 0.0264684 -0.0327718 0.0934434 0.164735 -0.0685652 0.185127 0.0158695 -0.0736899 0.0724963 -0.0220938 -0.0554287 0.0286849 -0.0521163 -0.107475 -0.0367449 -0.0117327 -0.17237 -0.008081 -0.00820132 -0.00481431 0.167104 0.0551451 0.0521855 0.044142 0.188988 -0.00670722 -0.00621855 0.0488005 0.175594 0.0515761 -0.140951 0.119049 -0.0436096 -0.154853 0.161312 0.0120602 0.165498 -0.00463501 0.0662686 0.132359 -0.0911908 -0.084629 -0.0696961 0.0866474 -0.0231536 0.0919851 0.0252907 -0.139636 -0.105035 -0.0371866 -0.106987 0.0556368 0.0145458 0.0931174 0.0896156 -0.0821424 0.0235533 -0.161791 -0.0152185 0.00628049 -0.0420008 0.0183156 0.0260724 -0.000332479 -0.0150302 0.0800274 0.00966495 0.0539531 0.104047 -0.0171236 -0.0522804 -0.209915 -0.0480881 0.0892839 0.0592872 -0.0851872 -0.11366 -0.118628 0.0414974 0.0521919 0.145566 0.0701242 0.0992524 -0.0955323 0.0967127 0.0242851 0.177561 0.031908 0.144737 0.0106708 -0.130138 0.0810887 -0.0701472 -0.160168 0.0551257 -0.0920179 0.130894 -0.017491 -0.0286647 0.226776 -0.0884558 0.0387482 0.0779057 -0.117795 -0.000512936 0.0498545 0.0854655 0.0152512 0.158238 0.0984315 0.0480644 -0.00117758 -0.0571885 0.15992 -0.0378228 0.0436858 0.0519066 0.0693801 -0.0928 -0.109091 0.0174172 -0.158358 -0.0380115 -0.0591632 -0.0489449 0.0219703 0.0893722 -0.0733019 -0.262319 -0.0723639 0.00475506 0.0231252 0.0602228 -0.0480571 -0.160069 0.0444178 -0.0119774 -0.142501 0.166891 -0.0536014 0.0744904 0.0405168 0.0647712 -0.0236358 0.0794 -0.0620162 -0.192004 0.127455 0.0370892 0.0378558 -0.143702 0.00756821 -0.115439 -0.251113 -0.000520434 0.0474757 -0.0207517 -0.0136058 -0.0550859 0.0181169 0.0306994 0.10255 0.0388002 0.0972294 -0.076515 -0.127339 0.0298981 0.073399 -0.13991 0.124726 0.0399528 0.0431909 0.104072 0.0201051 0.051108 0.0967513 0.077825 -0.163283 -0.114682 -0.0828244 -0.026019 -0.0186113 0.0173788 0.000768694 -0.0387688 0.0363067 0.0660921 -0.1233 0.0781664 -0.0798766 -0.0183425 -0.00436357 -0.0488874 0.258454 -0.0903971 0.00911061 -0.0907848 -0.0943204 -0.0929558 -0.0437226 -0.0249593 -0.0278644 -0.0584639 -0.036724 0.0951654 0.137232 0.0164331 -0.101952 0.0805779 0.230776 0.0176233 0.0659623 -0.132249 0.102378 -0.071086 0.0421606 0.040081 -0.0781543 -0.30757 -0.0111997 0.323605 -0.0980746 0.051077 -0.0351628 0.0431813 0.0878926 0.0490525 0.0282397 0.0779185 0.00896109 0.0409311 -0.0430357 0.199454 -0.173505 -0.0199706 -0.0804601 0.00510837 -0.0343947 -0.0685975 -0.0187252 0.036096 -0.0366758 0.0712766 -0.082402 0.0271681 0.0178167 0.055648 -0.136906 0.0848376 0.00671482 -0.0774887 -0.0886996 -0.0453155 -0.0616768 -0.0105479 -0.0774387 0.206363 -0.0765214 0.0822479 -0.0711737 0.0216224 0.0990323 -0.0546282 -0.00924842 0.0941726 -0.000434503 -0.09861 0.00609131 0.0783835 0.0195567 -0.0329506 -0.0761115 -0.1299 0.0356197 0.121427 -0.11727 0.0242107 0.143714 0.0591623 0.0528004 -0.0449028 0.0971122 -0.0459774 -0.0381018 -0.0635894 -0.417774 0.0671006 0.0735136 -0.086331 -0.166892 -0.0981022 0.205119 0.0605826 0.0751031 -0.0915981 0.0470416 0.0645522 -0.172528 -0.227926 -0.106964 -0.154054 -0.0785724 -0.0860726 -0.073129 -0.143101 0.0821509 0.194226 -0.128283 0.056458 0.0525799 0.164183 -0.0333086 -0.0333935 -0.0404861 0.0643535 0.0573728 -0.0666105 0.0608563 0.146598 0.0397079 -0.0777379 0.012196 -0.128641 -0.0816419 -0.0599482 -0.127905 0.251076 0.0329705 0.127241 -0.0837027 -0.0271571 -0.138523 -0.0426743 0.158123 0.0572306 -0.111019 -0.0344351 -0.00827227 -0.104036 -0.145384 0.0346595 -0.0755668 -0.0412406 0.306957 -0.0627561 0.0155596 -0.0149114 -0.108452 0.00472556 0.0265269 -0.00800225 -0.0746737 0.0302953 0.145513 0.100422 0.0937252 0.137991 0.122464 -0.0091066 -0.0227866 0.00636754 -0.054841 -0.036495 0.0745117 -0.096699 0.112137 -0.167579 0.132115 0.0722339 0.08766 0.105551 0.0792599 0.100905 -0.0636929 -0.0258846 -0.0230366 -0.126274 0.120112 -0.151426 0.0457172 -0.159429 0.0511508 0.00237118 -0.0862555 0.00554261 0.0844737 0.0227562 -0.0674118 -0.00154863 -0.081254 -0.0681742 0.12814 -0.0959333 0.151004 0.0569286 -0.139293 -0.171362 0.031813 0.0301873 -0.0877784 0.10844 -0.163814 0.00722133 0.298914 -0.0596016 0.0249034 -0.0113335 -0.0147722 0.0315145 -0.09638 0.0113696 -0.0159553 0.0956861 0.143335 -0.0315185 -0.0759872 0.0205775 0.0628404 -0.133059 -0.0538191 0.202232 0.000811479 -0.00768476 0.0573584 -0.0391389 0.103496 0.0511457 0.012208 0.145605 0.115302 -0.0305983 0.143189 0.232489 0.11511 0.0073769 0.131667 0.101509 -0.188285 -0.0213509 -0.0405628 0.00819766 -0.0728636 -0.11085 -0.0609969 -0.0346831 0.0635017 -0.0717509 -0.0669791 -0.0802223 -0.203341 0.12175 -0.0576534 -0.00323335 0.0660998 -0.00621008 -0.039014 0.0931029 0.0591741 -0.0320604 0.162382 0.161662 0.165599 -0.0436431 -0.0687324 0.043651 -0.127221 0.0662702 -0.0912895 -0.125471 0.0571693 0.0436233 0.172857 -0.0401892 -0.204848 -0.0228374 -0.0409339 0.100763 -0.124283 0.00819859 0.0941126 0.14193 0.139067 -0.0616972 -0.00886839 -0.106099 0.0589643 0.295631 -0.154167 -0.0987859 -0.0560177 -0.0545475 -0.16892 -0.0894184 -0.115514 0.103694 0.0611905 -0.00430195 -0.120012 0.0012983 0.0302746 -0.0335678 0.114763 -0.175216 -0.112729 -0.0341014 -0.129717 -0.171705 0.0878162 0.0969322 -0.0364208 -0.0504484 0.0959914 0.0206142 0.0321183 0.122877 -0.0120182 0.0890953 0.152477 0.037921 -0.0165208 -0.00723419 -0.151149 0.146511 -0.0771928 -0.0243867 0.0353488 0.0876935 0.0923735 0.0640588 0.0939333 0.0493034 0.122531 -0.0015035 0.0852601 -0.138032 -0.0708976 0.136405 -0.187427 0.0842993 0.057769 0.00284519 -0.0965748 -0.0958889 -0.109623 0.0226616 -0.0617863 0.0589082 -0.0190063 -0.0477783 -0.153941 -0.0756777 0.0149498 -0.135959 0.00222318 -0.0213202 0.150745 0.07087 0.0551488 0.178609 0.128886 -0.0735195 0.0391712 -0.0203328 -0.0251753 -0.114289 0.00358068 -0.110945 0.0939923 -0.0808689 0.000417177 0.033407 -0.0531029 -0.106342 -0.0477403 -0.0441553 0.0193147 -0.101738 0.0499966 -0.0106366 -0.110805 -0.0394396 -0.167062 0.11837 -0.047925 -0.0865636 0.140489 -0.0102652 -0.0693292 -0.073838 -0.0269725 0.0451907 0.112699 -0.107821 -0.120332 0.0024332 0.0841153 -0.00676252 -0.00192856 0.0651584 0.110465 -0.0881047 -0.02455 -0.175133 0.150506 -0.0178872 -0.0381711 -0.112491 -0.0668271 0.0887378 0.0113696 0.0192705 -0.0757625 -0.0718486 -0.022565 0.147755 0.00462062 0.0220115 0.0362743 0.0594292 -0.143267 0.13578 0.106797 -0.206338 0.0389286 0.1208 -0.0568658 0.0787054 -0.000481111 -0.0864112 0.0463448 0.11762 -0.158851 0.183594 0.0117124 -0.0591213 -0.15011 -0.0925153 0.0261887 0.139382 -0.0489061 -0.0404376 0.1089 0.210787 0.197172 -0.0169391 0.147568 0.0430553 -0.135461 -0.0519908 -0.0908841 0.000811573 0.0292896 -0.142774 0.0274705 0.0852025 0.0288724 0.0706853 -0.137903 0.0507449 -0.00194638 -0.0946626 -0.0277777 0.0225577 0.0520224 -0.130241 0.0859029 0.16938 -0.0666678 -0.0485397 -0.0421998 -0.0912781 0.00565218 -0.0112866 -0.165474 0.170578 -0.222975 0.0402642 0.0255474 0.147631 0.0817688 0.055716 -0.0178384 -0.0370738 0.0676438 -0.0650115 0.229128 -0.0329984 0.0231472 -0.0882343 0.0216618 0.0789595 0.0616576 0.078643 0.141076 0.260974 0.0231801 -0.0621248 0.000783441 0.0904221 0.0242376 0.0591403 -0.11017 -0.0657276 -0.00815648 -0.0581447 0.145998 0.0028472 -0.0575722 0.0431547 0.0515944 0.101305 -0.0311579 -0.0615908 0.00427219 -0.0656255 0.297341 0.132424 0.0810549 -0.0530093 0.0240363 -0.0437507 0.037017 -0.0244604 -0.0243978 0.0643826 0.0686551 0.209283 -0.03726 0.098499 -0.164162 0.0552671 -0.0156398 0.0156744 0.166115 0.0472441 -0.104352 0.157695 0.151851 -0.0136157 -0.16535 0.128664 0.00258847 -0.0470212 0.11745 -0.00130254 -0.101608 0.0843311 -0.130771 0.100477 0.0146242 -0.0102326 0.114842 -0.017195 -0.0610286 0.191145 -0.0166559 0.00725266 0.231544 -0.0279836 0.0631708 -0.151243 0.0741975 -0.089111 -0.0395316 0.126597 0.107043 0.0383587 0.0677567 -0.137997 0.0861902 0.0587384 0.116598 -0.112171 0.135352 0.0335003 0.128327 -0.00469223 0.0887145 0.0323436 -0.162665 -0.0489424 -0.0393611 0.172592 0.202151 0.0192578 -0.0479595 -0.158291 0.0216486 0.244308 0.0151359 -0.0139984 -0.150822 -0.308703 0.0128645 -0.171732 -0.0490834 0.133119 0.146744 -0.0985112 0.150087 -0.173301 0.258969 -0.0511732 0.00474932 0.00721627 0.0980106 0.0513369 0.0398518 -0.05623 -0.0134794 -0.0419749 -0.0758042 0.131111 0.041328 0.142737 0.0734693 0.00183156 -0.119317 -0.0338124 -0.0837174 0.00520912 -0.025618 -0.060298 0.0239507 0.0521483 0.165286 -0.0973276 0.0779029 0.189265 0.0238995 0.0263067 0.0650589 -0.0945987 0.0479317 0.240896 0.340431 -0.0244573 -0.0753517 0.0334433 -0.0871678 -0.0413856 -0.0303287 0.00762091 0.00892707 0.049919 0.00771937 0.104941 0.0181138 -0.01837 0.0700676 -0.0222213 -0.318164 -0.0385729 0.0611615 -0.0159998 0.143279 -0.11629 0.105316 -0.0396394 -0.0816857 -0.0597859 0.0397974 -0.119663 -0.0502894 -0.113667 0.107976 -0.107592 -0.0510287 0.0801287 -0.0361753 0.0385366 0.0940618 0.00737576 -0.0683023 -0.062879 0.0783693 -0.039576 0.0302745 -0.0222437 -0.0281696 -0.0939738 0.0650758 0.102921 -0.0888663 -0.1883 -0.233578 0.090838 0.0212623 0.0606704 -0.00299966 0.144243 0.0155068 -0.0335259 -0.05933 0.058026 0.0576253 0.141833 -0.0948204 0.0843063 0.15358 0.0342671 -0.0696746 0.0186295 0.00783062 0.0779678 -0.0113331 0.0556884 0.0462062 -0.208353 0.0275761 -0.0688269 0.0162098 0.0310815 0.0215407 0.0352106 0.204014 0.0704241 0.103694 0.019223 0.142546 0.128438 0.129433 -0.00898793 0.0441437 0.062107 0.10181 -0.102364 0.0430961 0.0357565 0.0167726 0.120636 -0.100013 0.0693578 -0.316397 -0.0339179 0.111356 0.0278958 -0.0345697 0.0535769 0.177476 0.0701074 0.0170214 0.0476463 -0.052638 0.018102 -0.0136087 -0.0562737 0.107206 -0.0521143 0.108312 0.0992115 0.00855852 0.0478943 -0.000837231 -0.0674764 0.0315043 -0.00461712 0.0590384 -0.0594877 -0.13691 -0.101389 -0.028954 -0.0601719 0.00623893 -0.120216 -0.134028 -0.0682996 -0.0181417 -0.0695777 0.0463995 -0.00633185 0.114227 -0.0875852 -0.168168 -0.0175664 -0.0910376 -0.0555229 0.178373 -0.13128 0.137451 0.0663789 0.108948 0.0237659 0.102565 -0.0936433 -0.0546825 0.0518196 -0.0993271 0.00694457 -0.0734892 -0.209504 -0.0991931 0.0396685 0.0106002 0.0234276 0.0251489 0.17001 -0.00983554 0.0377563 0.154504 0.127721 0.0355794 -0.123264 0.233634 -0.0725073 -0.0243442 0.0106674 0.00903689 0.0876532 -0.0500906 -0.0117863 0.234296 -0.0596044 -0.0582112 -0.0315973 0.137268 0.0689954 -0.0369323 -0.153452 0.0674308 -0.0738823 0.076241 -0.116463 -0.0693721 -0.0613654 0.17161 0.0952351 -0.156854 -0.0164426 0.0308553 -0.00867433 0.0764555 0.0876501 -0.0215391 -0.0610941 0.201807 -0.0364565 0.0922082 -0.050908 0.0401066 0.1898 -0.0271511 0.0282204 -0.0850891 -0.0415959 -0.110196 -0.0532227 0.114431 0.0105298 0.0108102 -0.201906 0.226169 0.140926 0.1323 -0.0110999 0.0646138 -0.0552364 -0.106355 -0.037952 -0.125759 0.0637061 -0.0365304 0.171188 0.174303 -0.179918 -0.072251 0.116457 0.212836 -0.0572598 -0.11502 -0.0309467 -0.0343726 0.020849 -0.114373 0.0507002 0.116742 -0.156058 0.0495134 0.141924 -0.149014 -0.0238419 0.082648 0.00468689 -0.117227 -0.0305913 0.0407299 -0.0104576 0.145661 0.0480186 -0.0357563 -0.134341 -0.000457414 -0.15008 0.17394 -0.0264191 0.0738705 0.00457992 0.0650466 -0.0610358 0.00441206 -0.0184962 -0.0140019 -0.0361613 0.105238 -0.302743 0.0159809 0.0426225 -0.014972 -0.0533789 -0.0492471 0.0229632 0.101204 -0.0119584 0.0477592 -0.146704 0.0622419 -0.0195066 -0.0460674 0.0686534 -0.026935 -0.236906 0.0255965 -0.156474 -0.0635817 0.0728749 0.131583 0.0278677 0.0220072 0.0110322 0.0290394 -0.0526427 0.0604826 -0.0115099 -0.00955768 0.0668757 -0.118454 0.0634859 -0.142624 -0.022895 0.0318008 -0.0619179 -0.0501288 0.182404 -0.00315834 -0.0729989 0.096937 0.152191 -0.0495182 0.0809692 0.103027 -0.0718357 -0.0838561 -0.186476 -0.179148 0.108577 0.0919365 0.0700081 0.0621713 -0.146137 0.193385 -0.045878 -0.153253 0.0241052 -0.0538175 -0.00937259 0.277324 -0.104817 0.0653082 -0.0370084 0.0225008 -0.143953 -0.0138721 -0.13649 -0.10905 -0.116813 -0.0499171 0.000209779 -0.0348309 -0.126172 0.124816 -0.144861 -0.0239416 0.197403 0.00312651 0.107214 0.115297 0.0149334 -0.0584865 0.130255 0.0612752 0.145089 0.10676 -0.138468 0.0180444 0.000312892 -0.110123 -0.144931 -0.0705795 -0.00335405 0.0106405 -0.146899 -0.025927 -0.0298575 0.204687 -0.0443306 -0.15083 -0.181896 0.203379 0.00383116 -0.0609008 -0.0976795 0.111562 0.257198 -0.0744285 0.115328 -0.0217531 -0.18598 -0.0195772 0.103863 0.0928838 0.0931229 0.119518 0.0121663 0.0736484 0.316316 0.0362194 -0.025147 0.000745845 -0.100494 0.0540256 -0.0802544 -0.0435362 -0.0997385 -0.0249867 -0.0293884 0.00504119 0.0670465 0.106253 0.0476224 0.0193423 -0.18361 0.124477 -0.00501913 0.155359 0.106187 -0.008546 -0.145079 0.0283257 0.00779121 -0.0536735 0.0295333 0.0205161 0.0973689 -0.126117 -0.0923865 0.079001 -0.0429128 -0.0452631 -0.0579646 -0.00340325 -0.0242391 0.0766769 0.0465235 0.180059 0.0977122 0.0186992 0.127236 0.0960815 0.0908451 0.126465 0.0664752 -0.00373786 0.16382 -7.23573e-005 0.00809244 -0.0666042 -0.104458 -0.111471 0.103321 0.0468815 0.008005 -0.000213978 -0.0407396 -0.0817647 -0.138649 -0.114704 0.0636195 -0.0178587 -0.0987216 -0.155104 -0.0210389 -0.00131758 0.045001 -0.124489 0.0676624 0.144038 0.0346115 0.15142 0.104208 0.19362 0.016653 -0.0517624 0.166579 -0.0284129 -0.0367062 0.0522287 -0.0971488 -0.0141179 0.0363923 -0.0391272 0.00209363 0.0884699 0.0090704 -0.0926865 0.00708161 0.0331538 -0.104712 0.18036 0.00207096 0.111531 0.252776 -0.118785 0.100818 -0.145477 -0.211904 0.109618 -0.0132294 0.0594041 0.0374258 -0.027752 -0.019025 0.139909 -0.0916465 -0.051957 -0.166987 0.0461081 0.0670319 -0.137656 -0.0675962 0.0246525 -0.0362432 -0.0671075 0.032549 -0.066832 0.162984 0.0828707 -0.0390489 -0.0196893 0.201033 -0.0816235 -0.19981 0.16114 0.0433519 0.00091297 0.162442 -0.100343 0.244314 -0.0528237 0.0487962 0.0362839 -0.0292042 0.00357266 -0.08392 -0.0701036 -0.0638146 0.187855 -0.0308488 -0.106332 -0.0567968 -0.0906458 -0.0115736 -0.0578111 -0.029949 0.0619373 -0.0036429 -0.0793656 0.078192 0.152979 -0.0318977 0.00767773 0.0768718 0.0128312 -0.00321974 0.056251 -0.0552985 -0.0763228 -0.0182968 0.0220325 0.12952 -0.0915659 0.0784996 -0.0144968 -0.0650688 -0.102829 0.063134 -0.0446034 0.0287262 0.0678037 -0.11023 0.0348321 0.15114 -0.0388804 -0.0285337 -0.0636112 0.176593 -0.0787337 -0.137704 0.0919373 -0.0526522 -0.0602469 0.0864196 -0.107916 0.0485608 -0.116493 -0.0377194 0.0139667 0.023765 0.0486467 0.136178 -0.169006 0.123347 -0.0147021 0.0041501 0.0684112 -0.059965 -0.0142952 -0.0898343 0.172865 0.0214744 -0.136846 -0.105912 -0.0523268 -0.0335621 0.0279762 -0.0525014 0.0573975 -0.044114 0.0660492 0.0291098 -0.0557422 -0.0472585 0.181831 -0.0248235 0.00668115 0.0878153 -0.0974397 0.24486 0.00317671 0.172592 0.0129764 -0.0319394 0.00295717 -0.00597418 -0.0335938 0.150547 0.0686521 0.0246761 0.0464654 -0.0537875 0.00501973 -0.103916 0.0932129 -0.0882168 0.029272 0.048282 -0.106602 0.00697837 -0.0495178 0.139374 -0.0941259 -0.156273 -0.0534121 0.0170578 -0.0995944 -0.0285041 -0.274605 0.0952384 0.22373 0.0141154 0.0364865 0.0213094 -0.028509 -9.71243e-005 -0.12993 0.139183 -0.135428 -0.159048 -0.0535753 0.107916 0.080683 0.117703 -0.0700539 -0.0290613 0.0510488 -0.00274981 -0.046718 -0.164818 -0.0770474 0.113268 -0.0311857 0.0687625 0.032434 0.119882 0.00279395 -0.149052 -0.20883 -0.0678319 0.0047131 0.0100386 -0.0805365 -0.136367 -0.0932779 0.0495989 0.0477166 -0.112579 0.0335422 0.123048 -0.0692585 -0.0762535 -0.00100952 0.0350231 0.128512 0.136022 -0.0125303 0.0100528 0.00722881 -0.216016 -0.0842771 0.00344665 -0.124803 0.0411853 0.0304333 0.0981363 0.133605 -0.0120257 0.100603 -0.0219428 0.0173505 0.0780995 -0.160329 0.113425 -0.0240538 -0.0553838 0.00123801 -0.0438066 -0.0338321 -0.0602833 -0.00359333 0.0908015 0.0978423 -0.0134306 0.0607245 -0.0570218 -0.110144 -0.0382237 -0.14603 0.0763196 0.0231036 0.108822 0.0270812 0.0350162 -0.0267612 0.175848 0.0634065 -0.0966635 0.0874566 0.138686 -0.0933587 0.140875 -0.0082119 -0.0669848 -0.0429166 -0.00198625 0.198263 0.00179685 -0.20007 0.000632249 -0.0494072 -0.18868 0.176908 -0.0685039 0.0778634 -0.010669 0.00190024 -0.167155 -0.0758634 0.027868 0.0326282 -0.0653328 -0.163309 0.0288003 0.0553398 -0.0339708 -0.0403827 -0.0461137 0.0408251 -0.0862666 0.13665 -0.0846146 -0.0686602 0.0457895 -0.0818987 -0.0316453 0.0554209 -0.168933 -0.140149 -0.11158 -0.192597 -0.0260025 -0.0653816 -0.0725092 -0.126687 -0.0366429 -0.025428 -0.0362593 -0.1063 -0.047127 0.0439635 0.00452746 0.212155 0.139344 0.120335 0.111648 0.214949 -0.0214338 0.0139657 -0.173566 0.0129604 -0.0548185 -0.0239449 -0.0809854 0.00502203 -0.0272454 -0.0379256 -0.0673093 -0.141098 0.148316 -0.0691439 0.0115661 0.0771542 0.0774011 0.0197125 0.0206945 0.136152 -0.0736381 -0.129705 -0.00550667 -0.0217352 0.0374819 -0.0806789 -0.0217385 0.0565536 0.160186 0.00789924 0.179464 0.11231 0.123211 -0.184436 0.162144 0.0455287 -0.00625764 0.049545 0.0712727 -0.104093 -0.0322876 -0.0341968 0.0816521 0.0696846 -0.0370809 -0.046913 0.0686498 -0.206249 -0.13733 -0.0209643 -0.0756591 -0.00638012 -0.0556306 -0.0248579 -0.201062 -0.0490854 -0.0713025 -0.0897649 -0.166735 -0.00733669 0.0129425 0.00550766 0.131409 0.00513614 0.00108666 0.0203201 0.0505931 0.0980619 -0.119813 -0.0265191 -0.0259462 0.0605059 0.0278338 -0.0803534 0.0124079 0.0546682 -0.165521 0.104827 0.0085852 0.0100923 0.181536 -0.211867 0.116426 -0.0753606 0.0523347 0.0872744 -0.0897683 -0.193611 -0.130224 0.21208 -0.0770015 0.0211431 -0.00613708 -0.0408222 -0.0326187 0.0857583 0.0223334 0.0294667 0.00940012 -0.0043383 0.0574196 -0.0186077 0.0196936 -0.0325433 -0.041089 0.00531892 0.00347722 -0.122962 0.0821847 -0.0689045 -0.0880981 0.093783 0.0907833 -0.0656816 -0.0800026 0.177637 -0.0541555 0.0564393 0.0179464 0.0052678 0.0348305 0.0993095 -0.0406456 0.0320563 -0.055155 0.103735 0.00280626 -0.0731763 0.0139335 -0.00963902 -0.185605 0.0356156 -0.158747 0.0501592 0.101836 0.0361879 0.162484 -0.0408996 0.0122062 0.000256342 -0.0294987 0.106471 -0.0123155 -0.123632 0.059926 0.120275 0.0985874 0.0581085 -0.134109 0.101932 -0.115573 0.0988487 -0.235868 -0.0468609 -0.0316795 0.0158287 0.210702 0.0199506 -0.058602 0.116957 -0.0705846 -0.0203007 -0.0109252 -0.0130194 0.0359418 -0.0674097 -0.10108 -0.208265 -0.028336 0.00112995 -0.109158 0.121225 0.025162 0.127239 -0.150486 -0.00503512 0.141415 0.0618102 -0.0194828 0.00404136 -0.085756 0.0691087 0.0129717 0.0905585 0.0174305 0.0682113 0.02157 0.0528642 -0.0186874 -0.0580008 0.148391 -0.0477501 0.0450544 -0.0236408 0.0357197 -0.0194501 0.028744 0.0961785 -0.0572121 0.104638 0.0105149 0.0274141 -0.106315 0.00089553 -0.0285192 -0.120228 -0.0035671 0.053665 -0.0557943 -0.0463005 -0.033234 -0.213117 0.0355711 0.0902266 -0.0288334 0.0603052 -0.150145 -0.0985708 -0.00123431 0.0600136 0.173427 0.0377438 0.0493735 0.051612 -0.120049 -0.0866354 -0.0284614 0.216846 -0.0190989 -0.137931 -0.151301 0.0846694 -0.0561902 0.0607282 -0.0863858 -0.217362 -0.0388147 -0.100312 -0.117409 -0.157219 -0.00283645 0.0948863 -0.0820807 -0.0268326 0.0783899 0.176156 -0.099007 -0.211667 0.191484 0.0495416 -0.0927617 -0.00777796 0.109926 -0.0336055 0.0246903 -0.115225 -0.0497762 0.0143253 -0.220559 0.0946985 -0.037252 0.00686307 0.110352 -0.104068 0.0660984 0.0767184 -0.123554 0.0372038 -0.09432 -0.0694948 0.119893 -0.066969 0.0621513 -0.0671752 -0.0886923 -0.195967 0.202873 -0.0306652 0.117704 -0.0269468 0.220587 0.00563366 -0.0702892 -0.213254 -0.188452 -0.0648889 -0.0835021 -0.0148302 0.125623 0.0454793 0.148258 0.00306447 -0.25303 0.018538 -0.0813109 -0.0751634 0.00117181 0.166871 0.0637663 0.0716594 -0.0370941 0.0253422 0.219715 0.0332623 -0.00678827 -0.0050393 -0.00649065 -0.0054083 0.0270858 0.009263 -0.00150596 0.0718317 0.0545181 0.0534923 0.00380251 0.144209 -0.113205 0.0425422 -0.0681956 0.0542986 0.07974 -0.000325075 -0.087031 0.0687171 0.00807046 -0.0715202 0.00407125 0.138613 0.164562 0.206878 0.146536 0.00605141 -0.0801298 0.109082 0.106604 0.0258407 0.11945 -0.00712296 0.0294626 -0.0633236 0.0471652 -0.0463845 0.106576 0.0266957 -0.0659462 0.206366 -0.057918 -0.046431 0.0249597 -0.00640695 -0.0427369 -0.0543911 0.0586131 0.0264246 -0.156559 0.265049 -0.0606781 -0.117411 0.109654 -0.0516425 0.0659567 -0.100731 0.0446292 -0.00104275 0.00763844 0.0946496 0.112841 -0.0825944 -0.0702501 0.0186185 0.0695959 -0.133221 0.122872 0.261471 -0.108898 0.108466 0.0699797 -0.119 0.103414 0.0806513 -0.0357927 0.0654808 0.0075811 -0.121569 0.0086647 -0.030919 -0.120749 -0.081779 0.00366934 -0.150023 -0.0687682 0.0345684 -0.0789265 0.0563869 0.087428 0.175507 -0.00878141 0.0255835 -0.097107 -0.0995218 -0.0236557 0.321333 0.0149055 -0.285404 -0.172085 -0.0522044 -0.223054 -0.0310426 0.148013 0.0455196 0.067176 0.00105838 -0.00391479 -0.0192992 0.0882046 0.243044 0.044444 0.0842357 -0.0116857 -0.173861 0.0732294 -0.0237684 -0.0620385 -0.0228055 0.069336 0.170618 -0.20998 0.00646529 0.0125517 -0.0680065 0.0455133 -0.0674545 0.0750698 -0.12731 0.00441923 0.0561667 0.162491 -0.0389653 0.0395104 -0.0397249 -0.126792 -0.0576866 0.0201807 -0.0125329 0.0607456 0.118614 0.041038 -0.0743901 -0.0387832 0.0657126 0.0310199 0.161832 -0.0770522 -0.136074 0.0163749 0.104978 0.06318 -0.0233987 0.13825 -0.0928092 -0.029079 0.0195622 0.168671 -0.111437 0.143934 -0.0831764 0.0346432 0.0714269 0.0735757 -0.0628997 0.0630166 0.302623 -0.0752691 -0.00573144 -0.128285 0.0198349 -0.0813396 0.100995 -0.0686229 0.121769 0.0446486 -0.130614 -0.0470885 0.176166 0.0358323 0.0655097 0.0602521 -0.0925101 -0.112233 0.126071 0.0995635 0.0959854 0.078415 -0.0861269 0.0518559 0.00994185 0.0648789 -0.045876 0.0305704 0.144205 -0.0102387 0.0493297 -0.204248 0.0380368 0.189292 -0.0815106 0.188579 0.01873 -0.103129 0.00827153 0.0282416 -0.0594978 0.0700339 -0.07971 -0.124147 -0.0379217 0.00262008 -0.0949513 -0.0154814 0.00242836 -0.159268 -0.24824 0.0124032 -0.00892934 0.121362 0.14837 0.0343137 0.111041 -0.170287 0.0732877 0.120889 -0.0215798 0.0242163 0.126288 -0.0272334 0.215662 -0.167616 -0.0100444 0.0331614 0.00330473 0.0531305 -0.0221921 0.0139254 -0.0501179 -0.0389307 0.243924 -0.0881569 0.232429 0.0402949 -0.110747 0.130812 0.00257779 -0.0110313 -0.094042 0.0444441 0.0902286 0.12771 0.0736649 0.033838 -0.0633656 0.0331926 -0.195157 -0.0965887 0.197272 0.11647 -0.0516897 0.0763089 -0.0634876 0.0573387 -0.10504 0.115539 0.0847546 0.216991 0.0398856 0.0971867 -0.0597389 0.107965 0.0216193 0.0816243 -0.0416897 0.229614 -0.0795837 0.0708422 0.107779 0.0511313 0.131645 0.00532131 -0.0553491 0.139592 -0.0747007 0.0166015 0.160067 0.0673833 0.0382791 -0.063742 0.0624079 -0.0365447 -0.075346 -0.0863568 -0.0487082 0.0621409 0.0723583 -0.0219799 0.0376771 -0.0236395 -0.0497684 -0.0286671 -0.136178 0.175385 0.0105769 -0.0414107 -0.0597557 -0.0596661 0.0248092 0.0229038 -0.0560747 -0.0101679 0.00733855 -0.230384 -0.14072 -0.126297 -0.00579183 -0.0467526 -0.0850577 0.0206111 -0.00567159 0.132699 0.0148246 -0.0125425 0.111236 0.000218761 0.0533949 0.00814829 0.100545 -0.0661812 0.134738 0.0480476 0.0509398 0.0326088 0.0985595 0.0583745 -0.156435 0.0535275 -0.139663 -0.0319197 0.00753402 -0.00328316 -0.157816 0.102641 0.147169 0.174637 -0.0366579 0.037028 0.0386614 -0.0400821 0.142324 -0.0615911 0.0581731 0.0151173 -0.00229191 -0.0640559 -0.0197487 0.0895914 -0.0499205 -0.0591933 -0.122639 0.0206347 0.0408645 0.00256572 0.137026 0.0991969 -0.132275 -0.047583 0.123008 0.252537 -0.0107919 0.143649 -0.014732 -0.00703691 -0.124687 -0.00296588 0.00344813 0.0538434 -0.0462678 -0.0130286 -0.00709903 0.0697091 0.0572669 0.10464 0.0483837 0.125349 0.011421 0.14878 -0.0996046 0.0936853 -0.131975 -0.0288593 -0.00809138 -0.139994 0.0188713 -0.0549216 0.0319353 0.0464799 -0.0453121 0.00769871 0.0663481 0.154725 0.0218771 -0.0231716 -0.167235 -0.214385 0.0462189 0.00221052 -0.0814509 -0.229977 0.102411 0.186079 -0.0272263 -0.11375 0.0320919 -0.147785 0.00810775 -0.116215 -0.162543 0.139723 0.15461 0.033698 -0.100139 0.0925994 -0.102066 0.0731389 0.0193966 0.195136 -0.00190775 -0.115828 -0.18491 0.0335256 0.0448725 0.0312712 -0.0663574 0.0445245 0.0240285 0.0703758 -0.154558 0.0553047 0.162782 -0.0696809 -0.120912 -0.0910073 0.0636665 0.0571459 -0.0868982 -0.00380607 -0.0465168 0.173442 0.135691 0.0423447 -0.0442774 -0.224218 -0.0752472 0.0321758 0.0822517 0.171832 0.0491788 -0.175166 -0.0619588 0.0291451 -0.0108435 0.0985834 -0.0503957 -0.180056 -0.0830506 -0.0622937 0.0508983 0.0152143 -0.0569907 -0.0784986 0.0484235 -0.0499107 0.0916829 0.165884 -0.0336671 0.0457708 -0.034156 -0.0618886 0.0452264 0.174883 -0.0336022 0.187971 0.0543666 0.0962256 -0.133368 -0.0318594 0.186431 0.0190515 0.141419 -0.0432699 0.127881 0.0722334 0.0864097 -0.119759 0.174123 -0.0389018 0.043246 0.125556 0.136344 -0.141865 -0.0933019 0.110015 -0.000317819 0.156455 0.115071 -0.187586 -0.0357398 -0.0962202 -0.0821256 -0.0500798 0.166396 0.078928 -0.0241602 0.065966 -0.0871201 0.0922673 -0.00332216 -0.107127 -0.0319725 -0.0464207 -0.0563916 0.101277 0.00802526 0.142425 -0.0820332 -0.00155866 0.0446544 0.0255546 0.00713186 -0.119236 -0.00733204 -0.103372 -0.0806383 0.0324205 0.0719645 -0.00787748 -0.0407979 0.0517099 -0.147436 0.0734229 -0.0948758 -0.0929369 -0.0031354 -0.0570424 -0.147723 0.00715339 0.0349082 0.0787368 -0.0476337 0.0560452 0.100749 0.0215631 0.0837265 -0.0934978 0.143262 0.0894837 -0.151439 0.0912146 0.063838 0.0467973 0.151373 -0.0823319 0.203022 -0.0203008 -0.223519 0.0891316 -0.0836328 0.0972616 0.0651147 0.0448282 0.131581 -0.134027 0.194801 0.132714 0.0257271 -0.0492625 0.169469 -0.0808403 -0.0106254 -0.0210955 -0.103471 0.0588972 0.09874 0.0836903 0.0525577 0.0965514 0.0375672 0.0727231 0.124024 0.0653264 -0.0992311 -0.136003 0.152012 0.120252 -0.0617853 -0.208148 0.0398307 0.0695101 0.0425237 0.0545058 -0.0804088 0.131339 -0.0378931 0.0162788 0.0452768 0.0753539 -0.0291237 0.0333066 0.0592459 0.151437 -0.111492 -0.121564 0.0543673 0.0597217 0.017297 0.167722 0.068793 0.215572 -0.128951 0.0596669 0.047301 0.0872494 -0.169019 0.0822788 0.0250527 -0.0319161 0.200154 -0.0369492 0.147719 0.0905987 0.00751746 0.0119178 0.180221 0.0394297 0.0306091 -0.104575 0.187422 -0.145308 0.0169455 -0.199685 0.0504292 -0.0912262 -0.0427716 0.102252 0.0074289 0.0105134 0.123294 -0.0494767 -0.0174367 -0.19543 -0.107316 -0.0706346 -0.304813 0.0106698 0.0186968 -0.0407983 -0.0272758 -0.0105719 0.0192876 -0.0304209 -0.156627 0.112996 -0.0928671 0.100577 0.131908 0.0436346 -0.21194 0.0344267 -0.0749909 0.031083 -0.110371 0.0889773 0.10679 0.0888502 0.147009 -0.110658 -0.0319175 -0.169742 0.208086 0.0284145 -0.143268 -0.035538 -0.0707545 0.0123844 0.0251892 0.073069 0.0801233 0.11756 0.0926407 -0.0289292 -0.0383975 0.0638557 0.057321 0.067333 -0.021296 -0.167312 -0.0343132 -0.356575 -0.0613651 0.0637786 0.103212 0.0299902 0.1454 -0.101425 -0.104826 -0.0578936 0.0786868 -0.0273292 -0.165088 -0.110596 -0.00234416 -0.0234304 -0.114837 0.07177 -0.236115 -0.0864402 -0.0722317 0.121331 -0.118777 -0.107767 -0.173667 0.0518576 -0.0282892 0.0575657 -0.0953262 -0.0790981 -0.121045 0.106687 0.0475345 -0.0844321 0.039382 0.0215036 -0.123702 -0.000150503 -0.0443068 0.138843 -0.0569909 0.0723058 -0.0725244 0.0838642 0.0509488 -0.0625248 0.0477248 -0.0435752 0.0274286 -0.0723882 -0.0265615 -0.0420843 0.00361639 0.105227 0.0155683 -0.070655 0.150076 -0.0258217 0.0563871 -0.141541 -0.128784 0.115005 -0.0839681 0.0656038 -0.174936 0.0762652 -0.215608 -0.148782 -0.00300723 -0.261576 0.0153222 0.124295 -0.196346 0.0238157 0.0997447 -0.00199238 0.204534 0.0211254 -0.0224216 -0.0793124 0.0264155 0.0213757 0.171672 0.211142 -0.0272669 -0.0362495 0.0552805 -0.125072 0.0248012 0.123348 -0.0844968 0.086586 0.0796417 0.183318 -0.0673076 0.110205 -0.112063 -0.00862959 -0.233566 0.0365261 0.155877 -0.0760716 -0.0917862 -0.0476126 0.219159 -0.0270351 0.190673 -0.0164671 0.12864 0.111587 0.0728863 -0.0396566 -0.0104306 -0.0609959 -0.173249 0.0990297 0.054997 0.0289294 -0.0603308 -0.0183681 0.0175931 0.367563 -0.230083 0.0913143 0.0991112 0.104521 0.0703135 0.0660057 -0.108588 0.145138 -0.0111093 -0.0786228 -0.0255432 0.069281 0.00357262 0.0262095 -0.0113496 -0.0728927 -0.113707 0.115454 -0.0245223 0.0114041 -0.0210966 0.0427832 -0.196741 -0.0398612 -0.0185696 0.0499701 0.00093881 0.101029 0.0707365 0.245614 0.0119618 -0.16572 0.144356 -0.00212586 -0.0583979 -0.0666458 -0.0523561 -0.00187742 -0.064793 0.156834 0.0958839 -0.151161 0.118327 0.0750432 -0.123264 0.0776759 -0.00578869 0.0166472 -0.177403 -0.0371699 -0.211102 -0.152535 0.042523 0.00528903 0.0184671 0.107471 -0.201434 -0.0519805 0.0881595 -0.0365991 -0.267442 0.0429982 0.159891 0.157092 -0.0579578 -0.0271053 0.0141496 0.0520837 0.0225028 -0.0137115 -0.136913 0.0804263 -0.0200826 -0.0832902 0.155548 -0.0250964 -0.132008 0.00678827 -0.000281802 0.109372 0.0936124 0.0400041 0.0204297 -0.0732535 0.13985 -0.109472 -0.00214966 -0.0436752 0.159732 0.124154 -0.0735666 0.0812124 -0.0663263 -0.00218603 0.0680656 -0.0191422 -0.197984 0.241177 -0.0927039 -0.0505508 0.160715 0.0324833 0.013292 -0.110004 -0.121568 0.0993777 0.0752334 -0.0581924 -0.044676 -0.20375 -0.0815353 0.129811 0.0173487 -0.176243 -0.172932 0.14455 0.0690342 -0.0498729 0.00248956 -0.12247 -0.0115498 0.00635934 0.0474175 0.109752 -0.0476855 -0.0844322 0.0294079 0.0544741 0.0708324 0.00929568 0.0738703 -0.0451401 -0.174257 -0.0487177 0.0593069 0.0156648 0.0522312 -0.181989 -0.0490751 -0.137344 0.0516269 0.0135563 0.0891445 0.00224937 0.0641126 0.120971 0.0831753 0.161522 -0.129512 0.00136837 -0.13101 0.0407538 0.100528 -0.0203387 -0.182247 -0.182568 0.0334337 -0.161646 -0.164302 -0.0259483 0.0456792 -0.0984046 -0.000875339 -0.107641 -0.0115 -0.122973 0.0590626 0.0530288 -0.11615 0.210094 -0.0851515 -0.266871 0.059807 -0.0607343 0.0466662 -0.0513312 -0.0592739 0.10765 0.118688 -0.131918 0.0581822 -0.112809 0.142331 -0.053521 -0.0807127 -0.110179 -0.0275676 -0.0692664 0.145656 0.0186689 -0.0367505 0.0588719 -0.0565765 0.0504192 0.166619 -0.16679 0.0316786 0.0797812 -0.00646782 -0.0350487 0.0134878 -0.168128 0.198895 0.0225407 0.0133599 -0.0704729 -0.0360149 -0.103588 0.163414 0.134639 -0.0602196 -0.0347431 -0.00103944 -0.0920168 -0.0597774 0.0904812 -0.0710672 -0.0197906 -0.196324 -0.132729 -0.0394023 0.17101 0.0575114 0.0902352 -0.0160134 0.0265171 0.0142732 -0.010145 0.00352483 0.0628062 -0.163978 0.0440757 -0.0438468 0.0671494 0.0197037 -0.0447582 -0.0572946 -0.00501662 0.0612536 -0.102405 0.0932523 -0.0822214 0.0866829 0.0149399 -0.150171 -0.12666 -0.189216 0.173359 -0.10876 0.0524978 -0.024336 0.122693 0.0741764 -0.0368922 0.0489011 -0.0737525 -0.0742547 -0.141977 0.133306 -0.0661738 0.0237716 0.0532843 0.100996 0.227952 -0.0142212 0.260198 -0.00513255 0.101735 -0.0241442 -0.0300283 -0.0152212 -0.0489705 0.0683493 -0.0435139 -0.246713 0.0264297 0.139489 -0.0229418 0.0884891 -0.135741 -0.0217116 0.0053614 0.029047 0.0165156 -0.0335539 0.0262735 0.0426157 -0.00688968 0.14175 -0.100854 0.0400852 -0.0367282 -0.0924557 -0.0636602 -0.0903335 -0.0570514 0.0394043 -0.0439663 -0.129781 -0.0872614 0.0477345 0.0104418 0.124951 -0.00600673 0.170559 -0.0492056 0.0148607 0.00470549 0.0100736 0.205485 0.200589 0.112769 0.0940669 0.0743447 -0.0769425 -0.0391273 0.0597619 0.0950531 0.113832 -0.0352407 -0.0183128 -0.0878012 0.1764 0.0285094 0.0252914 0.0147199 -0.143027 -0.036761 -0.0584007 0.0606189 -0.0662841 -0.103775 0.072255 0.0311503 0.06054 0.0658016 0.102614 -0.169606 -0.091761 -0.186275 -0.00366195 0.0540107 -0.028933 0.0135014 0.0432897 -0.052214 0.0505653 -0.130247 0.117683 0.0340288 0.0237211 -0.202777 -0.0150066 -0.064918 -0.123701 -0.0384968 -0.0873354 0.0779913 0.00944435 -0.0580959 0.0576769 -0.175028 0.203544 -0.0632733 -0.0457477 -0.075317 0.0580212 0.0485013 0.0114183 0.0998683 -0.0988436 0.0654992 -0.102152 -0.023441 0.143312 -0.0904007 0.0732059 -0.106625 0.0106172 0.123525 -0.014407 0.0876893 0.00543107 0.0396553 -0.00184545 -0.00310001 0.104624 -0.10928 0.115485 0.123606 -0.216913 -0.0504665 0.0193692 0.0298698 0.0559378 0.115442 -0.0720866 0.184246 0.0533085 -0.130505 0.0925083 -0.0696943 -0.0529414 -0.0165079 -0.00629845 -0.116082 -0.14111 0.030518 0.0449898 -0.0434395 0.0887252 -0.0186821 -0.229725 -0.113736 -0.140942 -0.039097 -0.0828433 0.0218253 -0.0620772 -0.06912 -0.0561326 -0.135379 -0.0456355 0.0738094 -0.011116 0.0423938 0.141427 0.137256 0.0819593 0.0663948 0.0409744 -0.0726316 0.0325482 -0.0600526 0.0976441 -0.120351 0.0838206 -0.0652344 0.0697325 -0.0859034 0.0203182 0.0760432 0.00450138 -0.0155882 0.031217 0.0247681 0.100092 0.0661741 0.0403252 0.0591785 -0.0247583 0.0332378 0.223227 0.0304044 0.0917979 0.00508142 -0.134858 -0.0737948 -0.0798175 -0.174479 0.18133 -0.127893 0.000998659 0.126982 -0.119726 0.0481114 -0.0948367 0.0352779 -0.0248011 -0.136924 -0.055247 -0.0681799 0.0196155 0.00850247 -0.0783485 -0.0722984 0.211085 -0.0141523 -0.0603877 -0.0125249 0.0342572 0.0397459 0.0155446 -0.0926876 0.0318749 0.162404 0.0419347 0.0169749 -0.00683828 0.125781 -0.0039619 -0.0223228 0.137017 -0.0130386 0.0236874 0.0834911 0.106168 0.0703649 0.0423625 0.272045 -0.107484 0.15982 0.0260579 0.0184129 0.123578 0.118698 0.00708556 -0.154996 -0.129581 0.0546387 0.121101 -0.101608 0.0239488 0.0638848 -0.0195124 -0.0276804 -0.166697 -0.121978 -0.0460814 0.0650717 -0.0630985 -0.0250356 0.0605869 -0.0536769 -0.0861594 0.241032 0.159727 -0.0284407 0.00406436 0.146191 0.0220079 -0.100804 0.0301696 -0.0759688 0.218169 -0.0617821 -0.0608475 -0.274999 0.113177 -0.0427649 -0.0983014 0.0445374 0.0613788 0.100711 0.0654526 0.0642713 -0.090765 -0.0175182 0.202068 0.0293657 -0.0914767 0.267679 -0.0142336 0.033968 -0.0340983 -0.138766 0.0907675 0.0323275 -0.019683 0.120159 0.0581949 0.0942051 -0.186435 0.165814 0.0621836 0.0371519 0.0213498 -0.0775 -0.0754158 -0.0404768 0.181686 -0.0972222 -0.0362415 0.147796 0.0671113 0.144338 -0.172463 -0.0192267 -0.0759663 -0.139155 0.127338 0.00284158 -0.137887 0.217182 0.217576 0.112236 -0.00718925 0.0349369 -0.0716612 -0.198869 0.0626984 -0.0856655 -0.179576 0.047349 -0.0139647 0.0863848 0.00783574 -0.125331 0.17948 0.0943687 0.232116 0.0446096 0.0894447 -0.137269 -0.0576564 -0.198564 -0.0989318 0.213335 -0.0786446 -0.115144 -0.155169 0.0570757 -0.0489863 0.089694 -0.0210635 -0.0590132 -0.0177161 -0.0780925 0.0727772 0.0585393 -0.0764434 -0.0191398 -0.0529616 0.0502779 -0.115159 0.194882 -0.111566 0.04254 -0.0302069 0.0875355 -0.104341 -0.0773479 -0.0403424 -0.0523729 -0.0863344 -0.0352986 -0.0563994 0.166 0.0598546 -0.0279016 -0.195629 0.0463718 0.0221821 0.0606652 -0.10101 -0.366785 0.0605272 0.0174172 0.0906609 0.106117 -0.0709947 0.0528962 -0.0534348 0.212673 -0.0575354 0.136171 0.00423049 0.0905617 -0.115064 -0.0596837 0.0495374 0.0960162 0.0572739 0.113965 -0.00200603 -0.0901248 -0.0684717 -0.00294622 -0.287547 -0.166073 -0.00116924 0.132847 0.114858 0.168077 0.0716708 0.220379 -0.18341 0.178047 -0.146708 0.0701268 9.91176e-005 -0.0614739 0.0254331 0.0225873 -0.115304 -0.131805 0.15304 -0.207617 0.00221808 0.10347 -0.0709548 0.0786852 -0.103152 -0.0379426 -0.0276204 -0.107715 0.00784177 -0.193026 0.0452312 -0.176007 0.0509134 -0.0681708 -0.0822533 -0.088257 -0.0177639 -0.0853398 0.146237 -0.0241781 0.208399 -0.0571997 0.0456205 0.00371043 -0.0152899 -0.0249074 -0.055899 0.145539 -0.0526491 0.0304065 0.116003 -0.218879 0.0585106 -0.024658 0.0821738 -0.0118169 -0.0861098 -0.0291025 0.13922 -0.109107 0.0894283 -0.228067 0.0714503 -0.0130285 0.173601 -0.00559551 -0.0410915 0.0170747 0.0646067 0.0786629 0.241138 -0.0219196 -0.026239 -0.10427 -0.0399355 0.0536315 -0.223584 0.0769763 -0.0492323 0.0771784 -0.172061 -0.0467213 0.120564 -0.0745509 -0.0575068 -0.0559595 0.0981982 0.00172491 0.0727239 0.0900451 -0.0788217 0.166877 -0.089456 0.123766 -0.0504892 -0.0222514 -0.0119195 0.113842 -0.0388122 0.0275351 -0.0215144 -0.00378273 0.172943 -0.0367946 -0.0194439 -0.00530436 0.0271169 -0.0719026 0.00849964 -0.0885673 -0.0524902 -0.111829 -0.00732196 -0.101927 0.195687 -0.17811 -0.0917967 0.0930896 -0.172684 0.000809272 0.164609 -0.111382 0.0470983 0.181177 -0.0419665 -0.0121688 0.0548129 -0.0299502 0.0572155 0.056865 0.0921957 -0.000781014 0.196972 0.193447 0.0167617 0.0857915 0.0699255 -0.144657 0.0776593 0.00699694 0.0635535 0.0277225 -0.100061 0.0531806 -0.0906677 0.0981717 -0.0525692 -0.14271 -0.12628 -0.0537403 0.104212 0.0726653 0.108658 -0.0998561 0.0427397 -0.179036 -0.0286565 -0.0266465 -0.107192 0.0083644 0.113316 -0.141065 -0.0181259 0.119191 -0.124468 0.143852 -0.12944 -0.0222548 0.197112 0.00301117 0.157471 -0.000171999 0.0104012 -0.00476491 -0.0533503 0.15521 -0.0301753 0.0521734 0.0875079 0.0857711 0.123296 -0.100492 0.0502791 -0.037922 0.0274026 -0.0673416 -0.188861 0.0974038 -0.00186443 0.0138367 -0.0859327 -0.0527263 0.180544 0.107696 0.0394969 -0.101239 -0.046233 0.203668 0.0554892 0.030028 -0.042468 -0.036771 0.165153 -0.0318489 -0.0156305 -0.0582798 0.0552115 0.153959 -0.00989832 -0.0269264 0.112759 0.0124274 -0.176112 -0.260569 0.0334234 0.102882 -0.112942 0.0493014 -0.199478 0.0233649 -0.0396239 -0.0649671 0.0262615 -0.00375 -0.213574 -0.0380498 0.0893948 -0.236959 -0.0122026 0.00440035 -0.0671807 0.0126417 0.0586974 -0.0865412 0.036902 -0.0910328 -0.0344605 -0.00750605 -0.186076 0.0918838 0.185607 0.0025519 -0.0244842 0.0258649 0.0478689 0.0131149 -0.118258 0.127642 -0.170077 -0.0271633 -0.103578 -0.185589 0.0568641 0.0661274 0.22743 -0.204532 0.11187 -0.0589802 0.125798 0.111265 0.0401347 0.203384 0.00264923 0.11981 0.0861982 0.141392 0.0299434 -0.00881388 0.198832 -0.0568005 0.0408703 0.0828498 0.0751928 -0.056743 0.0887729 -0.102605 -0.0930354 0.000501656 0.0307197 0.300429 -0.0555891 0.173941 -0.0614777 0.0442938 -0.0370864 -0.0559524 0.0572953 0.0632317 0.0712049 -0.118033 -0.0792983 0.0994446 -0.0959486 0.008653 -0.0126034 -0.186813 0.0356158 -0.00615921 -0.102029 -0.0358512 -0.0376108 -0.114489 0.0585082 0.036443 -0.109175 -0.0452692 0.020641 0.00154819 0.0300516 0.0791744 0.190668 0.0521393 0.128922 0.112689 0.0583408 -0.138174 0.00771235 -0.0365939 0.0402406 0.046761 -0.0472407 0.159392 0.0163813 0.0443632 -0.127762 0.00282844 -0.0531724 0.0886915 0.0755837 0.00349781 0.0870328 0.184798 -0.133864 -0.0645039 0.0946473 -0.08468 0.0268087 -0.103607 -0.240593 0.0895077 -0.0503995 0.0569881 0.0812814 -0.066622 0.051799 -0.128683 0.127092 -0.0515945 0.0256399 -0.0135951 0.00040948 -0.0259052 0.00523672 0.168772 0.0494421 -0.0675596 0.205949 -0.0312808 0.0998584 -0.0858269 -0.146371 0.0805729 -0.0261073 0.0736735 -0.192966 -0.192259 0.0363612 0.0853797 -0.0435894 0.0109889 -0.134242 0.0120034 -0.142781 -0.00327861 -0.128293 -0.0692796 -0.0867804 0.0452667 -0.168814 0.163603 -0.101276 0.265366 0.113545 -0.0507654 0.00787615 -0.0755499 -0.00605811 0.037165 -0.073672 -0.096012 0.0102043 0.100184 -0.0453454 0.151749 0.0214226 -0.0247072 0.112157 -0.0264598 0.0261081 0.0168195 -0.163921 0.00852175 0.185934 -0.141619 -0.0789264 -0.105333 0.119613 0.0328655 0.00438154 0.120263 0.027232 -0.000731656 0.0676634 -0.0982685 0.0166124 0.0757439 0.0087984 0.0949108 -0.00376386 0.0427016 0.125298 -0.0991458 -0.0208812 -0.115186 -0.152444 -0.0199296 -0.10116 0.0905936 -0.223183 0.0190415 -0.0286422 0.0349932 -0.00105662 -0.00222795 -0.0257355 0.0612863 -0.113887 0.0602148 -0.0273617 0.005663 0.0311226 0.135342 -0.0202827 0.0584113 0.0331203 -0.0839985 0.131495 -0.0541685 0.0154866 -0.00612229 0.0299453 -0.020524 -0.0526897 -0.151186 0.031347 0.060042 -0.0449567 -0.0164963 -0.0923087 -0.0835218 -0.0423325 -0.0168301 0.118911 0.0790429 -0.144178 0.0242782 -0.0233915 -0.00827534 0.189738 -0.153292 0.122034 -0.0160506 -0.0533698 0.0901553 0.124508 0.0243876 0.0776632 0.058311 0.10181 0.230032 0.0135907 0.0336885 0.188642 -0.00735067 0.127847 0.0902999 0.0454113 -0.116226 0.0293311 -0.0707125 -0.0589929 0.213027 0.105465 0.0323815 0.0362893 0.17827 0.0978728 -0.12031 -0.0428968 0.107517 0.0595462 -0.0718451 0.0165441 0.013783 0.211918 -0.0161223 -0.109003 -0.0647879 -0.0502963 -0.0115074 0.0288314 0.0395208 -0.0228788 -0.0904137 0.0434388 0.0441471 0.0430887 0.0313795 0.0605645 -0.00770534 0.00766561 0.145762 -0.0083578 -0.0997502 -0.0620777 -0.102885 -0.168769 0.171217 -0.0788071 -0.0544669 -0.041111 0.19502 0.150367 0.0590186 -0.102949 -0.113364 0.152182 -0.0123902 0.16535 -0.0703586 -0.143489 0.00294196 -0.0906065 0.039702 0.054377 -0.188753 0.0179414 -0.111956 0.118098 -0.222316 -0.0313698 0.103414 0.142413 -0.0106704 0.0842038 0.0231971 -0.254193 -0.130485 -0.12342 0.0119163 -0.00949516 0.0815074 0.0238356 0.110889 -0.0695113 -0.0521175 -0.101718 -0.0323495 -0.25111 -0.0488299 -0.0307579 0.000337061 -0.0755165 -0.0278938 -0.0214165 0.157606 -0.131263 -0.142431 0.107852 0.0127413 0.0692301 0.0292785 0.0236044 0.109902 -0.120924 -0.0359647 0.0862023 -0.0997091 0.0737242 -0.0630254 0.142382 -0.0658899 -0.175427 -0.0840074 0.0486588 -0.0998718 0.0772444 0.0523317 0.169304 0.158923 -0.0750088 -0.053048 0.138499 -0.0996732 -0.080939 -0.0163024 -0.148049 -0.038642 0.0620681 -0.036782 -0.0723084 0.116077 0.0738547 -0.115016 -0.224299 0.233206 0.0237966 -0.0430829 -0.213356 -0.0332644 -0.161933 -0.0411664 0.0479692 -0.00328465 0.108 -0.108025 0.178257 0.162898 -0.070237 0.157353 0.00866431 0.0730188 -0.0678469 0.0802138 0.145278 -0.0221716 -0.0903594 -0.0413394 0.0166225 -0.0390378 -0.0892484 0.0174071 0.022652 -0.0415635 0.0482847 -0.0939771 0.0112606 -0.145263 -0.0118693 0.0570708 -0.0707181 0.0070797 0.0769852 -0.0207608 0.0895957 0.0750315 -0.0327599 0.145344 -0.27898 -0.127317 0.21128 -0.0152218 0.173094 0.0493253 -0.0681665 0.162903 0.00396773 -0.0397163 0.353507 -0.0487685 0.0437677 -0.0299365 0.117959 -0.0854357 -0.00995039 0.21475 -0.0283344 0.0430675 -0.0460021 0.0435106 -0.132742 -0.0581304 -0.0215385 0.0725504 -0.0975444 -0.0639465 -0.012118 0.0477213 0.102005 -0.0906962 0.0306785 -0.086899 0.122392 0.0515586 -0.0374154 -0.0335909 0.070915 0.0137754 0.208585 -0.110195 -0.0479928 0.0936952 0.0937688 -0.053739 -0.167445 0.0105344 -0.104306 0.0520957 -0.158659 -0.0662542 0.0988179 -0.118251 0.0282852 0.00382151 -0.0206791 0.0114413 0.0822998 0.0397981 0.127284 -0.059315 -0.0169939 -0.11209 0.00529638 -0.159552 -0.0152534 0.100111 -0.0856114 0.0767373 -0.113391 0.0380334 -0.0906063 -0.11515 0.088096 -0.191641 0.0992396 -0.012333 -0.277638 0.0145802 -0.138555 -0.158637 0.0554781 0.0706132 -0.0484092 0.0914835 0.127833 -0.0182142 -0.0899927 -0.0557322 -0.104832 -0.0709199 0.00630112 0.00991617 -0.0201532 0.0509854 0.060779 0.149322 0.0920367 -0.0845156 -0.0876782 0.0455819 0.0811423 -0.138958 0.0686041 0.279106 -0.142246 0.13407 -0.0694561 0.00835163 -0.00534837 -0.0477041 -0.106889 0.0245245 -0.0650442 -0.0161227 0.128066 0.0594087 0.0901138 -0.0229669 -0.00227203 0.0400649 -0.0101457 0.127495 -0.106022 0.0787949 0.00545557 -0.120877 -0.0818809 -0.0523428 -0.020497 -0.00985835 0.050196 -0.0208958 0.00978263 -0.0934221 -0.172824 0.139833 0.0139167 -0.0353799 -0.0266296 0.0547948 -0.0385204 0.0731246 -0.0780941 0.115275 -0.0520261 0.0330604 -0.0435422 0.0269449 -0.0777132 0.279478 0.000571813 0.123323 0.134291 -0.100142 -0.00557002 0.0359648 0.0564722 -0.228023 -0.160057 0.0673157 -0.056641 0.0906635 0.139416 0.105913 -0.0347134 -0.0753916 0.0431896 -0.0466609 -0.144711 0.17254 0.0194625 0.0155754 0.0209993 0.0290236 0.208859 0.018962 -0.0250458 0.202699 0.0124498 0.0825832 -0.197653 0.0553672 0.129693 -0.0178311 0.0268592 0.151249 0.160604 -0.203267 -0.0648939 0.109607 -0.0434183 0.0498263 -0.0593634 -0.181471 -0.0249076 0.0468558 0.28434 0.131579 0.127367 0.221329 -0.000264782 0.070408 -0.183477 -0.0523259 -0.000640735 -0.234277 -0.06763 0.0466622 0.178551 0.0613454 -0.0776484 0.0416781 0.0259538 0.0332889 0.000647929 -0.0135866 0.120089 0.0188058 -0.0474034 0.0448776 -0.042316 0.0689949 -0.0756319 -0.0433995 0.0439042 0.0896597 0.00861655 -0.269277 0.0163706 -0.0168417 -0.129977 -0.225575 -0.166333 -0.0283628 -0.00422579 0.0140269 0.156755 -0.100742 -0.0430278 -0.145094 -0.232303 0.0179336 0.0195301 0.0368236 0.115458 -0.11097 0.110045 0.0632583 -0.0136792 0.184326 0.0743726 -0.0144385 0.0912679 -0.24378 -0.0364707 0.0669983 0.0616899 0.240452 -0.221653 0.0966324 0.0405654 0.110069 0.105616 -0.163661 -0.0167976 0.152943 0.0282758 -0.0875819 -0.103067 0.139328 0.0738909 -0.0824115 -0.167657 -0.0698848 -0.123701 -0.112238 0.0462229 0.132806 0.140763 -0.0683503 0.0218708 -0.16571 0.121741 0.0211105 0.0263732 -0.0533842 -0.0281483 -0.0145287 0.0417467 0.0631882 0.0614749 0.122893 -0.091843 0.0676118 -0.0188933 0.0058879 0.0321918 0.108651 -0.0724448 0.0129901 -0.15352 0.0319774 0.0895535 0.0742723 -0.0174719 -0.0432304 0.213458 0.0368801 0.177918 0.0797198 0.0894996 0.0762663 0.132713 0.0490312 0.0542732 0.0655585 0.0413451 0.0282988 0.0305063 -0.0271171 -0.174655 0.0790259 -0.143054 -0.146572 -0.040464 0.0128654 -0.0506901 0.0522773 0.00558007 0.165437 -0.316305 0.0186479 -0.134761 -0.0079644 -0.164524 0.15808 0.0123319 0.0321142 0.0195041 0.035225 0.0821527 0.244047 0.0402935 0.0506272 -0.0807938 -0.0594674 -0.071666 -0.027484 -0.171159 0.223618 0.0658541 -0.0121158 0.111931 -0.0152673 0.0976338 -0.0982382 0.0919974 0.0584112 -0.0302662 0.0337934 0.0914597 0.0408673 -0.00428566 -0.0647218 0.0932176 0.00616878 0.0586543 0.174367 -0.060226 -0.0487479 -0.0212204 0.089006 0.112435 0.00811893 -0.0300843 0.00550316 0.111891 0.0752578 -0.144669 0.101258 -0.150885 0.0953257 -0.0276567 -0.165441 0.0984134 0.0124623 0.0975174 -0.166546 -0.0936662 -0.0496545 -0.012273 0.0191497 -0.026464 -0.0473166 0.0608327 0.00183039 -0.0453445 0.0597716 0.147364 -0.00219186 -0.141592 -0.0194101 0.0987443 0.0620985 -0.00940106 0.00994282 -0.0270987 0.0869914 0.11881 -0.133003 -0.0283835 0.149994 -0.109481 -0.0834669 0.0943684 -0.0882635 0.153758 0.0544827 -0.0240662 0.0938231 0.0081136 0.0496136 0.00297736 0.0170191 -0.0443046 -0.0858689 0.052216 -0.084505 -0.154399 0.121577 0.103123 0.0869725 -0.161542 0.0473749 -0.176873 0.189705 0.0102263 -0.0482991 0.0285369 0.0725203 -0.0602957 -0.000473345 0.00261004 0.0678645 0.136981 0.104825 -0.0847891 -0.0940176 -0.141819 0.0750094 -0.0481816 -0.167322 -0.0368575 0.0815137 0.122848 -0.0243819 -0.156723 0.174026 -0.161344 0.142494 -0.0758568 0.0904281 -0.00345229 -0.0826233 0.040063 0.0304149 -0.172192 -0.159642 0.141851 0.0212365 0.0476707 -0.0640626 -0.130319 0.179486 0.250101 -0.042921 0.0145724 -0.0135462 -0.0820422 0.0813178 -0.0383213 -0.0553407 0.220524 -0.0501863 -0.0222129 -0.185458 -0.00809392 -0.0356989 -0.106008 0.0665911 0.271872 -0.0168301 -0.0548406 -0.00799226 -0.0106111 0.0317977 -0.0130024 0.0670734 0.00247331 -0.017493 0.0531954 -0.0374218 -0.123459 -0.30232 -0.0310403 -0.157846 -0.172403 -0.0504249 -0.0377619 -0.0296672 -0.0234601 -0.0992489 -0.343245 0.0339855 -0.100524 0.0485992 -0.106958 -0.142541 0.010755 -0.00344531 0.0726757 0.121998 0.0146829 -0.153886 0.0445734 0.0103222 -0.00579249 -0.0699136 -0.169541 0.0416233 0.0539491 0.0453311 -0.0143054 0.0247602 -0.249482 -0.0205765 0.0651009 -0.0239103 -0.0219818 0.0597512 -0.110555 0.0441018 0.108071 -0.0268109 -0.147631 0.045443 -0.090682 0.140496 -0.00803038 0.0291256 -0.121119 0.0083346 0.036062 0.0342516 -0.0981318 -0.0690154 0.0210857 -0.164912 0.108925 -0.0331914 -0.0596256 0.0489659 -0.0500324 -0.0618978 0.189075 0.106362 -0.0611639 0.0249762 0.0831677 0.00331218 -0.182788 0.143189 0.0878104 0.129535 -0.077163 0.0748137 -0.102276 -0.05163 0.0620961 -0.0897846 -0.142939 0.011228 0.0477974 0.171591 0.00917976 -0.111481 0.12241 -0.158298 0.00213497 -0.165149 -0.165856 -0.0180566 -0.075643 0.0249814 -0.0531479 -0.0269162 -0.159144 0.110222 0.059739 -0.0133489 -0.0981451 0.00886428 -0.0345059 0.161012 -0.202238 0.150979 -0.0875944 -0.109321 -0.0120736 0.151041 0.0826208 -0.0931833 0.0908756 -0.0877324 0.173346 -0.0162007 0.264793 0.140601 0.148175 0.0698171 0.080652 0.0388158 -0.05293 -0.150302 -0.10146 0.000254758 0.0335533 -0.0070504 -0.136673 0.0352255 -0.0450367 0.148306 0.0626486 0.071168 -0.0419857 0.0301188 -0.0129038 -0.0566295 -0.116379 -0.153285 -0.0555221 -0.0675538 0.00708445 0.0738525 0.0811993 0.101423 0.143945 -0.0372157 0.10491 0.117155 0.034168 -0.0749591 0.0204038 0.0494633 -0.00184605 -0.0479339 -0.0129309 0.0245348 0.0601376 0.104985 -0.00374423 -0.0738319 0.062385 0.0461644 0.0149214 -0.0722927 0.256697 -0.173457 -0.133233 0.091449 0.110555 0.0344987 0.00834055 0.0661623 0.0559663 0.008749 -0.00889996 -0.0426046 -0.140113 0.0860927 -0.120614 0.0298451 -0.0807298 0.0360836 -0.0262691 -0.105483 -0.0700059 -0.0462155 0.0475512 0.00676394 0.138406 0.038928 -0.00902486 0.0875531 -0.073726 -0.0301559 0.284544 0.140014 0.0385074 -0.0610105 0.0330933 -0.0874994 -0.0281712 -0.0394897 0.0798383 0.00205526 0.0794027 0.0491256 0.125132 0.0508419 -0.0172876 -0.00728235 0.0701272 0.172025 0.148195 0.222498 -0.198159 -0.0530513 0.0277085 0.128547 0.092898 -0.106717 -0.00927372 -0.0773237 -0.210413 0.0893866 -0.0987199 0.124685 -0.146884 0.100366 0.0438679 -0.0866542 -0.0677948 0.0853122 0.0356576 -0.0358846 0.0320309 -0.0343128 -0.00323072 0.163264 0.0353464 0.219038 0.0217214 0.0696718 -0.111303 -0.0505395 0.0806443 0.100004 -0.00845166 -0.0769168 -0.0331913 0.00557926 -0.0412493 0.0445908 -0.0128519 -0.104037 -0.11806 -0.103974 -0.0310118 0.0462803 0.127893 -0.0480054 -0.0560225 -0.138195 0.153335 -0.0817485 -0.0450001 -0.134049 -0.0705476 -0.0316399 -0.0553158 -0.0259144 0.0638091 -0.0323341 0.069793 -0.108755 0.0905243 0.218352 -0.0287163 -0.198003 -0.0143852 -0.0726691 -0.00960365 0.0810422 0.0710034 -0.13695 -0.0876962 -0.0320634 -0.212039 0.0782219 -0.0882668 -0.0760831 0.0799378 -0.017592 0.0800106 0.0685384 0.00146707 0.179078 0.0376983 0.00389391 -0.117717 0.0780849 0.0114654 -0.102353 -0.00272699 0.0222627 0.0205267 -0.225008 -0.0289453 -0.0412195 0.0694669 0.12045 0.00513247 -0.112572 0.0269654 -0.057349 -0.0393683 0.0767758 -0.0599227 0.133737 0.0640619 0.0323365 -0.127674 -0.0948273 0.0104313 0.126385 0.0468856 0.0288194 -0.0447476 0.0526621 0.137247 0.0791584 0.040244 -0.126269 -0.0726049 -0.0541859 0.0876475 0.0699806 0.0695976 -0.0563263 -0.207692 -0.032908 0.0256012 0.15199 0.0309539 0.0251202 0.0695057 -0.180514 -0.0461567 -0.0246883 -0.116397 0.180762 0.041208 0.0122069 0.16179 0.077522 0.0475561 0.0104107 0.100962 -0.130983 0.0110198 0.0964778 0.113922 -0.18652 0.231534 -0.0522092 0.0875229 -0.0650752 -0.0839677 0.0252884 0.0944731 -0.00809158 -0.0750122 -0.0933501 -0.0308316 -0.0352836 0.0754495 0.0880455 0.158679 -0.0375677 0.018534 0.159334 -0.131054 -0.00651576 -0.156456 0.140675 0.0133321 0.0136673 -0.146374 -0.0230696 0.193204 0.22735 0.0408173 -0.0911302 0.234492 0.0326988 0.0746834 -0.100615 -0.166184 0.0266104 -0.193801 -0.0813614 -0.0299192 0.021071 -0.0961798 -0.0736003 0.0528637 0.0989084 0.0326949 0.138562 0.122459 0.127147 0.0819398 0.00470703 -0.187766 0.099068 0.105005 0.0283827 -0.0204985 0.250178 0.173972 -0.154611 0.0727238 0.187604 -0.169366 0.142261 0.0434065 -0.0601256 0.0774026 -0.00199534 0.0228855 -0.0837337 -0.00729504 -0.0275032 0.0200165 -0.130606 0.00546078 0.0486332 -0.0936556 0.0306769 0.00864035 0.0713919 0.0632827 0.178917 0.0791491 -0.0231019 -0.0803337 -0.0447235 0.0703106 -0.0187505 0.227194 -0.0012914 -0.238138 -0.125669 -0.0204261 -0.0131481 0.0450036 0.040901 -0.124801 0.0170923 0.160445 -0.0437055 -0.0655978 -0.0191319 -0.0365236 0.0298239 0.0220593 -0.00920045 0.0449558 0.0558532 0.0184996 -0.216358 -0.0227579 -0.129141 -0.0788654 0.138829 -0.0882642 -0.0445485 0.0135964 0.0573031 -0.0484634 0.0523497 -0.0672707 -0.123065 0.0436575 0.130421 -0.179998 -0.162175 0.0487526 0.0291088 0.0300471 -0.0612204 -0.060467 -0.21481 -0.0263861 -0.0779755 -0.155168 -0.122195 -0.0491578 0.120127 -0.0439878 0.102827 -0.0960112 0.0879476 0.0601151 -0.0920044 -0.0767452 0.0348395 -0.140363 0.113162 0.0806133 -0.0144747 -0.0347539 -0.155299 0.0307626 0.150495 -0.127304 -0.00578271 -0.0948398 -0.0567138 -0.175334 0.107101 0.158437 0.00479039 0.00671312 0.196334 0.0663411 -0.0449374 -0.0293347 -0.0627368 0.0770488 -0.0117741 0.0847635 -0.0848976 0.0208003 -0.022162 -0.0400337 0.0104167 0.0503107 0.153287 -0.0673314 0.065121 -0.0956492 -0.0601262 0.0866819 0.0752356 -0.228986 -0.127425 0.00607762 -0.0204274 -0.0799684 -0.00153478 0.13044 0.0771768 0.0648901 -0.102037 -0.0662339 0.0458049 0.123427 0.134296 -0.022909 0.113541 0.157003 0.0647404 -0.24458 -0.056232 -0.0882072 0.0633441 -0.0996153 -0.1123 0.0225671 0.0535804 0.189604 0.138667 -0.0201788 0.0191115 -0.0777184 0.16999 0.0134482 0.0348064 0.120863 -0.0551495 -0.00813865 -0.0581087 -0.00321581 0.0526151 -0.0539253 -0.289833 0.0479189 0.135491 -0.0134257 -0.128061 0.179828 0.052989 0.0410629 -0.0575611 0.0379231 0.292376 -0.0596617 -0.0174459 0.0694261 -0.0381871 0.002145 -0.0570879 -0.0354913 0.202596 -0.0567511 -0.0838004 -0.0164695 0.0460551 0.0445256 0.18399 -0.0171746 -0.00236404 0.0354573 0.183626 -0.0252752 -0.0138103 0.0553443 0.0821644 0.092021 0.0345978 0.00255051 0.216257 0.0648307 -0.0439936 -0.233494 -0.0491713 -0.00269324 0.0202364 -0.00139648 0.0339144 -0.0320977 0.0511112 -0.185303 0.0426152 0.0712228 -0.00958818 -0.0924952 -0.196967 0.0550805 -0.0101491 -0.0839962 -0.0267875 0.080901 -0.218128 -0.0971582 0.128832 0.233737 -0.148252 0.0301281 -0.0233942 -0.0278163 0.0568116 0.00351311 0.00148231 -0.0821772 0.0622055 -0.0773715 -0.0511671 -0.190932 -0.0511205 0.134043 -0.0380911 -0.0295817 0.155936 -0.249586 -0.0834755 0.0727939 0.230637 0.0944313 -0.0974964 -0.00560014 0.00742552 0.0272668 0.0965374 -0.163921 -0.0513022 0.0499286 -0.183182 0.1868 -0.010236 -0.0398632 0.0994058 -0.00744952 0.256425 0.0323328 -0.0266791 -0.111325 0.0384354 -0.117091 0.040994 -0.0701318 -0.0814941 0.013513 -0.0962039 -0.0329798 -0.106785 -0.134008 0.274435 0.0212341 -0.0484236 -0.0753864 0.0271241 0.184478 0.0131998 -0.126839 -0.142433 0.0408859 -0.0140129 0.0648065 -0.116017 -0.0319227 -0.0246742 0.0592442 -0.0407117 0.10468 0.0730055 0.147253 -0.0818386 0.144021 0.0106017 -0.118463 0.143053 -0.0652626 0.0590931 0.0131747 -0.106329 0.0680845 -0.0372725 -0.0270611 -0.0242176 0.00299803 0.0110239 -0.0727669 0.204629 -0.0261791 0.0318778 0.151126 0.104793 -0.177202 -0.0348647 -0.0581999 -0.0285788 -0.0743308 0.129315 -0.0580986 0.146631 -0.255944 0.188185 -0.155043 -0.0601713 0.084875 0.0582951 0.0671422 0.000183145 0.033103 -0.0459652 -0.120248 0.0451158 0.00898433 -0.0709409 -0.0326142 -0.0676731 -0.0918691 0.110889 -0.0167229 0.0537997 0.174401 0.0483874 0.0447408 0.149043 -0.0818584 -0.04408 0.0639932 -0.0262763 -0.114133 -0.0420477 0.0702225 -0.125118 -0.104254 -0.0870868 0.0450766 0.115515 -0.0411624 -0.0558109 -0.0833333 0.0455457 0.0600753 0.0147545 0.0362043 0.039642 0.0393281 0.0782524 -0.0609113 -0.236649 0.00227088 0.152443 0.00137948 -0.00689796 0.0564431 -0.0434675 0.0703144 -0.0590074 -0.0964547 -0.111762 -0.00468174 -0.0117559 -0.0560734 0.124589 -0.0246581 -0.142273 0.00941858 -0.056062 0.0350065 -0.122335 0.0351864 -0.100645 0.0808237 -0.0478727 -0.0968878 -0.0135331 -0.102099 0.00691858 -0.096323 0.0193193 -0.0064699 0.120073 -0.0305731 -0.174517 0.0908542 0.277829 -0.0852322 -0.118977 -0.0884814 -0.0434565 -0.052622 -0.135138 0.0660704 -0.0347418 -0.113039 0.0951467 0.154199 0.0166 0.0958929 0.0857585 -0.0319134 0.123705 -0.106536 0.162644 -0.0545855 -0.028086 -0.0899642 0.0649287 0.0710435 -0.132905 0.14365 -0.0766218 0.0482897 0.0942233 -0.0218075 -0.213333 -0.0320733 0.00245298 0.119161 -0.0188229 0.052187 -0.156668 0.082551 -0.0247013 0.0267143 0.0105812 0.119758 -0.0478749 -0.116782 -0.00550897 -0.0859243 -0.161279 -0.0200945 -0.0744063 -0.10602 -0.0582369 0.113124 -0.0980448 0.00368819 -0.0492194 -0.120707 -0.0228172 0.179595 0.0782635 0.0412544 -0.107744 -0.0735218 0.0260319 0.107706 0.185782 0.0165673 0.0729249 0.0535099 -0.130045 -0.109045 0.0901259 -0.077783 0.0505891 -0.0171921 0.0516217 -0.0120211 0.0832313 0.152476 -0.0399269 -0.0153506 -0.0489808 -0.137493 0.174407 -0.0911189 -0.0989777 -0.137048 -0.0298036 -0.03521 0.0349024 0.0911067 -0.0209061 -0.0901678 -0.0138611 0.140433 -0.0235126 0.0337993 0.276623 -0.14096 -0.125756 -0.00654426 -0.0155099 0.0701756 0.0834563 -0.031712 -0.0644634 -0.0503879 0.0856854 -0.0990056 0.085934 -0.109197 -0.0380597 0.037504 0.0154308 -0.0120104 -0.0869289 0.0765265 -0.0915285 -0.0284518 0.10894 -0.047454 0.136228 -0.0306458 -0.247631 -0.0119468 -0.117245 0.0939025 0.0967898 -0.0348832 0.115345 -0.0793436 -0.103463 -0.0689622 -0.00379417 -0.0633211 0.0935857 -0.0475537 -0.0352461 -0.0674999 0.0456281 -0.0641748 0.0388779 0.0132689 0.0223425 -0.119087 -0.0170335 0.0124481 0.234537 0.0885478 -0.0159343 -0.126417 -0.0653205 0.0648288 -0.036844 0.046355 -0.0746992 0.0523482 0.00677733 -0.195607 -0.000237273 -0.141865 -0.0239225 -0.0325738 -0.107578 0.148575 0.0929054 -0.00462734 0.108532 0.0379299 -0.0198991 0.0272281 0.161811 -0.179589 0.130791 -0.141134 0.115705 -0.103572 -0.133112 0.0420799 0.0648403 0.042154 -0.283355 0.052231 0.0203777 -0.291584 -0.0572137 -0.029526 -0.151644 -0.0290539 0.0399073 0.0513022 -0.0161865 0.144307 0.00343213 -0.0674114 0.0318597 0.05788 -0.0245305 -0.176448 -0.128632 0.00328835 0.0513686 -0.125059 -0.0476296 0.224503 0.0540572 0.232369 0.0980094 0.23498 -0.203185 0.0168592 -0.0304108 0.114801 0.168634 0.0320455 -0.11007 0.00966632 0.0304388 0.0531251 0.0526221 -0.0987381 -0.156125 0.126433 0.0626769 0.0679562 0.085228 0.109073 0.0252028 -0.053491 -0.0974226 -0.0168085 -0.0340569 0.112387 0.105525 -0.0562675 0.0888706 -0.00995626 0.15785 0.106539 0.151315 -0.0611375 0.123464 0.135596 0.0185878 -0.0471875 -0.0195401 0.118475 0.0599247 0.14704 0.00627927 0.00427187 -0.0607438 0.105195 -0.139285 0.106537 -0.0141114 -0.182514 0.00614254 -0.13076 0.0715029 -0.139634 0.0558845 -0.0163217 0.0294757 -0.0196689 -0.0291019 0.148427 -0.148273 -0.0574975 0.137196 0.072575 -0.114806 -0.0440331 -0.146849 -0.0342981 0.00200704 0.0220162 0.0163267 0.15581 0.0800092 -0.217339 -0.319212 -0.070222 -0.11841 0.0247766 -0.128503 -0.0687365 -0.129546 -0.0653078 0.052216 -0.050656 0.105634 0.0595372 0.039584 0.0381552 -0.0114478 0.151088 -0.108101 0.107131 -0.024232 -0.0831726 0.072455 -0.0488802 -0.0688467 -0.0693973 -0.156775 -0.111971 -0.0991915 0.0426056 0.0732288 -0.0834712 -0.00739245 0.0394519 0.0416835 0.091339 0.0975191 0.09751 -0.139467 0.182054 -0.0181641 0.100447 0.162621 0.0265233 0.0386882 -0.148229 -0.125446 0.0132497 -0.10239 -0.0227935 0.0642539 0.00495102 0.0272269 0.0885676 0.087574 -0.0868564 0.0275105 -0.208962 0.0523379 0.0193209 0.0631131 -0.0110841 0.0269268 -0.0814038 -0.0922115 0.0747418 -0.114348 -0.0169413 0.0950234 0.081602 -0.00412003 -0.1808 0.0953724 0.023973 0.0379743 -0.112898 0.020394 -0.00974328 -0.0729604 -0.0582803 0.0964267 -0.00317545 0.0375219 -0.0414511 -0.0241174 0.0874231 0.214371 -0.00461508 0.0917129 -0.109871 0.0536968 -0.0463207 0.101378 -0.000557977 -0.04223 -0.26826 -0.098496 0.0938089 -0.102631 -0.155375 -0.150175 -0.145416 0.0571821 -0.018 0.1449 0.0886433 -0.0362358 0.0732233 0.0304126 -0.0824973 -0.0395643 -0.0299757 -0.0611027 0.0620959 0.00201112 0.0727259 -0.202222 0.0575386 0.0319232 -0.0572234 -0.166259 0.131587 -0.00391942 -0.135019 0.0371383 0.1634 0.0442122 -0.0307274 0.0100136 -0.024489 -0.186811 -0.1498 -0.0880995 -0.0256879 -0.0666503 -0.0607281 0.0168582 -0.161839 -0.00125464 -0.0638159 0.0289106 -0.12284 0.15901 -0.0971637 0.0742674 0.250539 0.041085 -0.108591 -0.15541 0.142222 0.298488 -0.0131221 0.112664 0.094753 0.0334573 0.0696189 -0.0495807 0.101697 -0.10503 0.173932 0.0595984 0.176396 0.10004 0.063758 -0.022255 -0.0160087 0.0988628 0.0252834 0.0134589 -0.262463 -0.0603574 -0.0107893 -0.240284 0.100806 -0.0276339 0.15861 0.0784874 0.0196238 0.0287087 -0.109066 0.0608818 0.00726763 0.0190867 0.0141506 0.0351132 -0.144489 0.186143 -0.241931 0.0514742 -0.148331 -0.111887 -0.136063 0.067588 0.0796558 -0.0836173 -0.0125488 -0.0754708 0.0370441 0.0308334 0.0601353 0.0387407 0.0642064 -0.0534179 -0.0407087 -0.0202694 -0.0305719 -0.19595 0.025838 -0.0713444 0.0630103 0.0465067 -0.107664 -0.117657 0.105596 0.0472308 0.0140933 -0.220883 -0.0939283 -0.0259069 -0.0118921 -0.107988 -0.0829624 0.0972215 -0.172541 -0.105143 0.135583 -0.10104 0.0874481 0.0992924 -0.0426784 -0.0941482 0.0233816 -0.0167046 -0.0557687 -0.0485275 -0.158459 -0.0484045 -0.0366242 -0.150834 -0.0261366 0.081314 0.0978445 -0.0727288 0.0334412 -0.18867 0.00921612 -0.153135 -0.04421 -0.0208314 0.00677408 0.0814771 0.0829591 -0.0265592 -0.0463001 -0.0160902 0.0162097 0.0218554 0.0571363 -0.10687 0.0369396 0.0113394 0.0735484 0.111859 0.00297471 -0.110519 0.0100726 -0.176976 -0.0705338 -0.0196528 0.034535 0.107433 0.0277392 -0.0819277 0.0467924 -0.175753 0.101106 0.0642121 -0.0550702 -0.198137 -0.258785 0.00960156 -0.0134759 -0.0496568 -0.235876 -0.0211047 0.0534208 0.0968664 0.0706702 0.00089985 0.0886506 0.00382528 -0.0848986 -0.00329816 -0.0553128 0.0782274 0.0224585 0.0894735 -0.0217309 -0.298932 0.0793302 -0.100492 -0.12617 0.111888 0.0147775 -0.0386162 -0.20496 0.0205399 0.0580685 0.0497549 -0.0328383 0.0659421 0.257231 -0.0135739 -0.0966184 0.0511941 -0.00694678 -0.201965 0.121266 0.0348474 0.0244866 -0.0936636 -0.0932165 0.173392 0.0134161 -0.142025 0.0899189 -0.00367516 0.187153 0.0387891 -0.00799949 0.0694146 -0.167374 0.0219851 0.140585 0.172116 0.127237 -0.0069258 0.175229 -0.0248255 0.102557 0.116705 -0.0117155 0.120308 -0.160767 -0.140266 -0.0166527 0.00771699 -0.0983948 0.0108011 0.097272 0.0964372 0.09075 0.00440446 0.0575127 0.0482723 0.0537855 0.0471078 -0.0945945 -0.0164998 -0.133606 0.00407652 -0.0376155 -0.0230473 -0.0227211 0.0146306 -0.152109 -0.15603 0.126119 0.00346587 -0.170639 0.0627859 -0.0877178 0.107249 -0.0122449 0.000246631 -0.0343092 0.0567663 0.0442374 -0.115755 -0.0314582 0.0457854 0.118346 0.0579788 0.0196532 -0.0667178 -0.118154 -0.164727 -0.0649451 -0.0572066 -0.101565 -0.123099 0.19563 -0.110484 0.0373902 -0.0093594 0.0351426 0.0186256 0.0269159 0.0825253 0.229081 0.166365 0.160998 0.0146799 -0.112156 0.145177 -0.0173355 0.0822925 0.0682568 0.0475589 -0.0568551 0.137696 -0.119979 -0.035503 0.00597843 0.0980674 0.125057 -0.151215 0.0515074 0.00695565 -0.0840712 -0.200408 0.208788 0.0141761 -0.0884243 -0.0143834 0.251284 -0.0281224 0.146207 0.0659851 0.0839819 -0.00028849 0.0563414 -0.00704698 -0.0189641 0.0459234 0.0340522 -0.0390658 0.0219741 -0.00291447 0.182584 -0.0415902 0.0390038 -0.0187855 0.00347315 -0.0280356 0.0661045 0.105053 0.0126959 -0.0562275 -0.146305 -0.12888 0.0541255 0.0688622 -0.00470172 -0.0563325 -0.0902124 0.0145992 -0.00671438 -0.0110092 -0.0308406 0.133478 0.144432 0.125406 0.150705 -0.0812676 0.00365074 -0.0395833 -0.0861936 -0.0611283 0.126091 0.111508 -0.0158901 -0.00533656 -0.149296 0.182841 -0.0581976 0.0246425 -0.185017 -0.0394631 -0.109996 -0.0400925 0.0964947 -0.0665807 -0.109807 0.00802279 0.10045 -0.0128975 0.0363655 -0.118537 -0.159574 0.0745406 0.0919434 0.0258451 -0.0393658 0.161647 -0.143992 0.0477692 0.160732 0.0664568 0.0149978 0.180772 -0.0427794 0.0543656 -0.0428766 -0.0968715 -0.0534515 0.106344 -0.058062 -0.094354 0.0417408 -0.0243681 -0.0801479 0.0996092 0.125938 -0.0530339 0.037659 -0.0355392 0.205183 0.101471 0.0983414 0.04634 0.0821599 0.107914 -0.0434384 0.00142918 0.240973 -0.0214074 0.0656514 -0.0563861 0.12212 -0.135383 0.104871 0.00346012 -0.0921965 -0.140645 0.141 -0.0644681 -0.0310796 -0.0497473 -0.00994947 -0.0765444 -0.0737876 -0.123775 0.146612 0.0149026 0.02868 0.0754175 0.0977336 -0.145171 -0.166659 -0.00698758 0.00296873 0.012238 3.37685e-005 -0.016844 -0.0863673 0.050267 0.145247 -0.0179313 -0.0944596 -0.0125862 -0.0335798 0.104656 0.0988764 -0.10688 0.0290923 -0.0859886 -0.108359 -0.237005 -0.0683672 -0.00998232 0.127516 0.0815989 0.014144 -0.0145232 0.0515265 0.142803 0.0339814 0.0196098 -0.0268907 0.0915112 -0.186031 -0.0566929 0.0846827 0.0895569 0.0215884 0.0037353 -0.0371016 -0.074274 -0.118009 0.0402587 0.061044 -0.274832 0.0903107 -0.152433 -0.0421739 0.0583586 0.0643816 -0.0226299 -0.0913686 0.207789 0.0126129 0.0317251 0.0570505 0.107963 -0.0561234 -0.0139682 -0.140981 -0.0261161 -0.0906972 -0.113754 -0.20608 -0.0282579 0.200454 -0.0524872 0.0618431 -0.0389655 -0.090661 0.0420438 0.0180882 -0.0649645 0.0571417 0.0589726 0.119104 -0.0604381 0.0570254 0.185084 0.05099 -0.0176387 0.160369 -0.113334 0.00694356 0.0235509 -0.065493 -0.00183174 0.130354 0.0776892 -0.144372 -0.00510488 0.0578261 -0.0178757 -0.153005 0.0304183 0.0772148 0.135168 0.0942226 0.143857 0.178393 -0.147894 0.0847345 -0.043985 -0.0487319 0.0271072 -0.202157 -0.165386 0.015537 -0.0832509 0.138458 0.00920043 -0.00734696 0.0147369 0.106008 -0.0544829 -0.0452796 0.0308682 -0.0871717 0.0660668 0.0140231 -0.0965363 0.0268108 0.00963305 0.165305 0.0561927 0.0454314 -0.138601 0.0636886 -0.0199396 0.170859 -0.0771892 -0.122944 0.0343572 -0.0823379 0.0457291 -0.199005 -0.0419627 0.00162706 0.175941 0.0817353 0.221296 0.0332651 0.0966029 0.0381753 -0.0395079 -0.112032 0.0347049 -0.0255304 0.0280968 -0.0116525 -0.0858875 -0.115112 0.0427824 0.0398904 0.186709 -0.0721393 0.0630627 -0.0149302 -0.0678908 -0.0889332 -0.198286 -0.174612 0.112172 0.0164765 0.0294412 -0.00968338 -0.0637683 0.123815 0.0275825 -0.15455 0.167544 -0.150301 0.0191139 0.0742003 -0.0736367 0.120318 0.218554 0.134737 -0.0534141 -0.00964561 0.0568347 -0.0600232 0.00490178 0.00766697 -0.141655 -0.0925412 0.194303 -0.0228018 0.0481186 0.0329235 0.0287478 0.16733 -0.0944678 -0.00311482 0.0771278 -0.0358911 -0.00858962 0.0602218 -0.0180727 -0.0503569 0.117638 -0.0560692 -0.010303 0.0593745 -0.0186551 -0.00344016 0.012758 0.257851 0.0864036 -0.0222978 -0.0325426 -0.0168212 -0.0469668 0.0753197 0.0314991 0.309386 0.102953 -0.0398479 -0.0467061 -0.0566024 0.0566899 0.00869657 -0.032683 -0.191598 0.011747 0.0321272 0.100183 0.222901 0.0854916 -0.147371 -0.0929704 0.0425477 0.0975015 0.114565 0.116927 -0.0551207 -0.0704923 0.263355 0.0327826 0.169598 -0.156809 -0.0427963 0.130689 0.0619442 -0.0917765 -0.0819715 0.214513 0.0668522 0.0106013 -0.0439764 -0.0324844 -0.107842 0.089734 -0.117005 -0.0213981 0.0706898 -0.211632 -0.0851572 -0.0525439 0.0797143 -0.0512356 0.0379478 -0.0661404 -0.00246119 -0.0446581 0.102822 -0.158813 -0.0745903 -0.0723897 0.178306 -0.171818 -0.0120813 -0.0829194 0.163757 0.284867 -0.0490886 0.139942 0.271201 -0.0578959 -7.22147e-005 -0.0468566 -0.113673 -0.146377 -0.0277735 -0.0311311 -0.0830774 0.191923 0.0617591 0.0258703 0.00339292 -0.010718 0.0848259 -0.219897 0.00862136 0.0322794 0.124795 0.119394 0.0438592 -0.0385771 -0.175949 -0.0210422 -0.031744 0.103606 -0.00290266 -0.0676709 0.136486 0.0717778 -0.0256661 0.0948767 -0.120078 -0.00925734 0.222878 0.0717218 0.0353216 -0.0193969 -0.120529 -0.17915 0.0842597 0.129336 -0.072457 -0.0314084 -0.0520755 -0.0618428 0.0145659 0.0321189 -0.0904053 0.186157 0.0681741 0.0887135 0.000857851 -0.0589977 0.126816 -0.0323678 0.00383462 0.044651 0.046696 -0.104322 0.0922236 -0.00951001 -0.110743 -0.0116186 -0.260568 0.0259316 0.0128301 -0.0993217 -0.0360295 0.0493714 -0.145413 -0.256541 0.133216 0.0478514 -0.089162 -0.030138 -0.0220547 -0.0507319 -0.0490548 -0.0545505 -0.144634 0.09021 -0.0304446 0.0813415 0.00179851 0.0818581 0.117929 0.0335191 0.146567 -0.079696 -0.112333 -0.101736 -0.138431 -0.118395 0.290148 0.134409 0.0031897 -0.00495957 -0.0172391 -0.0518276 -0.213271 -0.00860226 0.0556194 0.0147109 -0.0289721 0.00101679 0.192208 -0.202746 -0.100255 0.0600274 -0.146105 -0.0457504 7.91598e-005 -0.0823166 -0.0093894 -0.0249042 -0.270621 0.124381 -0.0645774 -0.0711724 -0.00699218 0.0937038 0.00200775 0.0662242 -0.164293 0.113744 0.0774641 -0.0868807 -0.0392017 0.0969876 -0.0153308 -0.0565718 -0.263497 -0.157152 0.111632 -0.0478533 0.0142907 0.102221 -0.039192 -0.0320346 0.0167246 0.0880938 0.0406552 0.150105 0.162092 -0.039771 0.00212629 0.0164886 -0.0207135 -0.116777 0.0829543 -0.153084 -0.0137138 0.00642775 0.0636349 -0.0515308 -0.137456 -0.00944529 0.0603963 0.170264 -0.131217 -0.104351 0.0236559 -0.119775 -0.147547 0.236631 0.0648107 -0.118814 0.0333933 -0.127915 -0.165143 0.0648716 -0.024956 -0.133061 0.0538718 0.033674 -0.0743325 -0.0103946 -0.0574187 0.0864186 0.0244111 -0.0185226 -0.130299 -0.0817435 0.00339076 0.0379075 0.0603725 -0.0824348 0.088855 0.00924882 0.105121 0.137283 -0.080651 0.0109873 -0.105629 0.0785561 0.0211398 0.14816 0.0437519 -0.0595764 -0.0415201 0.00143576 0.0605053 -0.13595 0.112852 -0.140055 0.00919979 -0.0209515 0.0345583 0.132933 0.00882993 -0.0141213 0.158519 0.145213 0.240053 0.152076 -0.166511 0.0121654 0.061812 -0.0123105 -0.0951068 -0.0604287 0.23473 0.0817669 0.0948749 -0.165115 -0.00304355 -0.0676117 -0.0433366 0.00833237 -0.0209832 0.0818413 -0.0340459 -0.157817 -0.154451 -0.096712 -0.0882274 0.0552964 0.00488938 0.075482 -0.011604 0.130348 0.125829 0.169946 0.0706311 0.112175 0.089762 -0.206492 -0.0290661 -0.0963504 -0.0113547 0.111308 0.0148799 0.0872265 0.132732 0.0499966 -0.130011 -0.0138229 0.0129638 -0.0966236 0.062084 0.0664153 -0.0339652 -0.0244235 0.165298 -0.115478 -0.123613 -0.0144579 -0.015317 0.0285647 -0.245512 -0.165497 -0.0830406 -0.0348408 -0.0680375 -0.0927205 0.0933642 0.0279647 -0.0765864 0.17684 -0.0377392 -0.0085883 -0.0165991 -0.14048 0.0792397 -0.120679 0.117648 -0.0451007 0.17275 -0.0900569 -0.0314642 -0.138994 -0.0888308 -0.0396711 -0.118798 0.0779581 0.0188243 -0.00449144 0.100585 -0.00982358 -0.220167 -0.149233 0.0033287 0.16247 0.0812612 -0.156466 -0.00653276 0.12182 0.0297557 0.0923443 0.0248077 -0.108776 -0.0132632 -0.0326509 -0.144104 0.0636881 0.0592228 -0.0861784 -0.0622068 -0.0201983 -0.0519693 -0.0916154 0.169184 -0.0819713 0.0425116 0.0339884 0.0693765 0.0791202 -0.113751 -0.193106 0.160263 -0.0389506 -0.100667 -0.0810484 -0.0446477 0.0893327 0.0861018 0.0415804 0.277989 0.0470132 -0.084777 0.094213 0.000943583 -0.0549442 0.354578 -0.0227185 0.201059 0.0407435 -0.242537 0.137022 0.0182641 0.0307685 -0.0249478 0.15139 0.0900214 -0.0177071 -0.166056 -0.197441 -0.0644969 -0.082369 -0.025762 0.0349558 0.0334491 -0.0389345 -0.0421373 0.111685 0.00620312 -0.142942 -0.0244199 0.0556603 -0.000313316 0.0802327 0.038585 0.0379471 0.113541 -0.152744 -0.0108248 0.145317 -0.182789 -0.211579 0.130041 -0.0874775 -0.0320371 -0.0927039 -0.197535 0.190579 -0.0813028 -0.00340502 -0.0428573 0.078153 0.115671 0.0254804 -0.1286 -0.153784 -0.0625986 0.218584 0.0384991 0.0841214 0.051766 0.131784 -0.0552585 -0.126985 0.143692 0.000183026 -0.126053 -0.00317679 -0.0256567 0.193302 -0.126629 -0.0509886 -0.00321697 0.076266 -0.102629 -0.140915 -0.0593654 0.0998215 -0.0614268 -0.0848678 0.0764995 0.0495264 -0.0776723 -0.0442912 -0.105746 0.0660302 -0.00435644 -0.049298 0.0382561 0.200916 -0.125161 0.0741261 -0.108754 -0.0973057 -0.0552279 0.185412 -0.0258978 -0.119671 -0.162571 -0.0831712 -0.0547315 0.0795539 -0.106913 0.0843945 -0.213291 0.0759745 -0.1901 -0.0247972 -0.00662331 0.0606767 -0.0519442 -0.00317978 0.0328414 -0.0804154 -0.0715443 0.0228702 0.109181 0.0157724 0.0262274 0.117518 0.0502235 -0.0521828 -0.0182217 0.125802 -0.270395 0.00191485 0.157801 -0.130011 -0.042662 -0.0566898 0.0215631 -0.00711724 0.0276634 -0.0187039 -0.0622603 -0.0111418 0.0949806 -0.00962895 -0.0739715 0.104633 -0.102759 -0.00288284 0.00528956 -0.0949575 -0.205953 0.0107086 -0.0801516 -0.113184 0.166747 -0.0457898 -0.036152 -0.00490646 0.00111703 0.0541107 -0.179824 -0.082308 0.120826 -0.0346992 -0.00867846 0.129063 0.0830127 0.119333 0.0447822 -0.193101 0.133983 0.0532955 -0.150881 0.0214085 0.175127 0.0114251 -0.0167924 0.107508 -0.0686146 0.0481126 -0.0599433 0.0683743 0.178908 0.104284 -0.0223034 0.0451603 0.0813406 0.0310711 -0.0107382 -0.0077927 0.03704 0.164792 -0.00495938 0.0843494 -0.0396906 -0.00802587 0.15341 -0.213846 0.0422129 0.0162424 0.0224246 -0.0227571 0.00589952 0.0238943 -0.0850817 0.0712834 -0.0985887 0.0436887 0.0837054 -0.00847445 -0.104115 0.0127327 -0.165158 -0.0797006 -0.00893062 0.111138 -0.0485252 -0.216745 0.176148 -0.0419259 -0.160916 -0.00824253 0.103483 0.0140395 -0.105932 0.0677905 -0.0672329 0.0952364 -0.117446 0.114275 -0.0887107 -0.0300632 -0.0775228 0.00939486 0.093656 -0.0428897 0.0476234 -0.0527807 -0.0544255 0.0218913 0.0971483 0.0879917 0.0023796 0.115918 -0.178466 0.0744678 0.0112203 0.0564058 0.0903296 -0.119478 -0.00105991 0.108319 -0.160255 0.0303088 0.108991 0.25558 -0.14233 -0.0740025 -0.102222 -0.0254216 -0.0160984 0.0173019 0.203061 -0.0720147 0.0871901 0.0608619 0.0581729 -0.196885 0.057506 0.0422601 0.147631 0.12799 -0.112424 -0.045802 -0.0647936 0.09206 0.0866399 0.246508 -0.171296 0.0821632 -0.0229324 -0.065914 -0.152325 -0.0847249 0.0443945 -0.0724376 -0.320998 -0.250484 -0.054907 0.00896197 0.00739676 -0.0145467 -0.0819681 0.102115 -0.207717 0.103247 -0.0800941 -0.200944 0.0169131 -0.0440282 -0.134989 0.12994 -0.0226419 -0.0827752 -0.163901 0.051119 0.00117682 0.0524427 0.0119458 0.0857748 0.154631 0.115376 -0.0775211 -0.0261699 0.0970348 0.0189162 0.106256 0.192041 0.0121051 0.0802424 0.122317 -0.00111629 0.0659887 -0.188917 -0.090602 0.102871 -0.170919 -0.02247 0.0593239 -0.102387 0.100325 0.00162479 -0.0684548 0.0232627 0.047292 -0.0698107 0.017048 0.0571344 -0.0591446 0.0397584 0.0138888 0.0203299 -0.0199589 0.0047449 -0.146006 0.00250352 -0.191416 -0.00804627 0.0726129 -0.0154081 0.0843842 0.0609572 -0.161335 0.0328818 0.0319735 0.111291 -0.216272 0.179521 0.095058 -0.0128051 -0.103591 0.0123406 0.0861312 -0.0356655 0.0030022 -0.0217329 -0.219254 -0.0485337 0.12129 0.0130532 -0.0576125 -0.0435771 -0.0227879 -0.0367749 -0.0677558 0.249086 -0.000806827 -0.00169976 -0.128076 0.0677609 0.148553 -0.148892 -0.00298321 0.0130254 0.0522089 0.149503 0.0217058 -0.0855543 -0.023648 0.175177 -0.060633 0.00805555 -0.302229 0.0964512 0.118364 0.0144815 0.0511339 0.0490188 0.0556733 0.179365 -0.177935 -0.195996 -0.0438553 0.0966993 -0.115242 -0.136185 -0.155753 -0.041448 0.111636 0.131781 0.0878668 0.01474 0.151384 0.0193211 -0.0605301 0.11742 -0.065988 0.108844 -0.0522686 -0.0511408 -0.00022188 -0.152803 -0.047274 -0.0342242 0.128216 -0.0893435 0.0634798 -0.135807 0.0111457 0.014046 0.0358258 0.0626781 -0.111196 0.153561 -0.0585746 0.0721229 -0.00423026 0.0582388 -0.0822656 0.0680843 -0.0552426 0.0341324 0.105901 0.020437 0.110053 -0.10722 0.0291378 0.130114 -0.114647 0.143356 -0.0487665 -0.0727532 0.0381771 0.112194 -0.0805337 -0.128888 -0.0766018 -0.0461673 -0.0840226 -0.210345 0.0320149 -0.0190246 0.0116274 -0.00832575 0.055349 0.0456419 0.0206164 -0.0588462 0.0480067 0.0936355 -0.124925 -0.00399466 0.135661 0.0587056 -0.0654148 -0.0590881 -0.0835601 -0.0736241 -0.0602699 0.0066285 -0.234935 0.0296222 0.0364916 0.0244821 -0.101475 -0.0483073 -0.0480753 0.0729286 -0.071431 0.0342596 0.0861459 -0.105798 -0.152567 -0.0281241 -0.109163 0.155813 0.00646129 0.0454735 0.0202817 0.0215101 -0.0215993 0.0389327 0.0329149 0.13416 0.00382382 -0.171103 -0.0683453 -0.0908427 -0.198908 -0.11355 0.0570102 0.0375002 0.0248545 0.10029 -0.0160397 0.0667722 -0.00745795 0.1139 0.0825854 -0.178035 -0.151938 0.128368 0.168833 0.0542478 0.0275241 0.132693 -0.0374746 -0.0867373 -0.167578 0.352157 0.0635009 -0.132272 -0.0306038 -0.0293422 -0.000159557 -0.0136258 -0.0202953 0.0231072 -0.235801 -0.0545113 -0.0671942 -0.104689 0.102251 0.00264344 -0.0595882 -0.0919147 0.0790323 -0.132611 0.0775854 -0.021147 0.126147 0.0503649 0.0230711 0.0521839 -0.0135554 0.0651782 -0.106118 0.0324838 -0.000636231 -0.159266 0.0257838 -0.161199 -0.113217 -0.028411 0.117604 0.0637046 0.0474536 -0.016061 0.0214285 0.0181801 0.0351907 -0.0489282 0.0913496 0.0618296 -0.0509316 0.0597017 0.155479 0.148144 -0.11204 0.00915452 0.0950295 0.110493 -0.141175 3.97892e-005 -0.0555892 -0.0556155 -0.0212418 -0.102539 0.199938 -0.0873551 -0.00664462 0.0641401 -0.0787257 0.0727775 -0.0061367 -0.144751 0.103908 -0.0460957 -0.160135 0.0288564 -0.115597 -0.165821 -0.0912406 -0.138176 -0.0593104 -0.0726763 0.0491832 -0.114071 0.0964969 -0.00729968 -0.12806 0.102277 0.0639153 0.244677 -0.0332952 0.0250634 0.0399535 0.0188768 0.0575591 0.117727 0.174382 -0.116512 0.0318609 0.0957544 -0.0371959 -0.0505041 0.208669 0.122584 0.0328393 0.0683575 -0.153899 -0.11455 -0.0632918 0.0844415 0.149701 -0.00237156 0.0138841 0.0599477 -0.116947 0.104336 -0.123124 0.146831 0.0954758 -0.0185982 -0.0729315 -0.0845637 0.183584 -0.137181 -0.0175148 -0.0591398 0.0925513 0.107648 0.0709773 -0.0915779 -0.0103633 0.160891 0.120075 -0.145996 -0.104905 -0.132513 -0.0369042 -0.0352901 -0.14308 0.00845227 0.0877843 0.164182 -0.0363615 -0.149539 -0.0369587 0.24366 -0.0585368 0.131758 0.16903 0.186508 -0.133613 0.213135 0.0590248 0.0302122 -0.0367733 -0.0461783 -0.0907205 -0.0247437 0.093677 -0.0256726 -0.038182 0.147259 0.0771245 -0.110382 -0.0212616 -0.0903834 0.072035 -0.165643 -0.00224283 -0.100147 0.101707 0.0574349 0.23149 -0.0188056 0.0598179 -0.0703048 0.110015 0.0709012 -0.17528 -0.223267 0.227848 0.0532983 0.00860709 0.0875618 -0.0798227 -0.0453664 -0.0433117 0.178785 0.0702519 0.146406 0.0217062 0.129943 -0.016914 -0.0407132 0.0733991 0.143746 -0.0864835 -0.00828335 -0.0139159 0.0403621 -0.133576 0.0591862 0.0248183 -0.0931986 0.0357487 0.0451725 -0.0230997 -0.149064 -0.0881824 0.0637852 0.0992438 -0.0311669 0.0399947 0.227694 0.0113209 -0.0517371 -0.033521 -0.122478 0.0431242 0.167593 -0.033392 -0.0362526 0.0206533 0.108115 0.209191 -0.10917 -0.0437523 0.0783128 0.183508 0.0296334 0.243329 -0.116517 0.0737827 -0.214218 0.124075 -0.113133 -0.0315671 0.00931725 -0.150736 0.120565 0.212648 0.0701778 -0.0518766 0.0878879 0.0160736 -0.00978897 0.0831831 0.0145656 -0.148979 -0.0639156 0.00601514 -0.0870529 0.0950881 -0.0445872 -0.0872851 -0.0134821 -0.217247 0.0376644 -0.0528426 0.124399 -0.0731411 -0.0918434 0.192778 -0.0834213 0.0263737 0.0150892 0.0444565 -0.0741817 0.0383673 0.120689 -0.150724 0.0234419 -0.094131 -0.0437278 -0.132071 -0.00870865 -0.107926 0.128406 -0.146623 0.0128028 0.0563508 -0.138816 -0.109649 0.0768153 -0.137659 -0.0193501 -0.0506211 0.0530589 0.0687999 -0.00304362 -0.202086 0.0618137 -0.0288695 -0.0393324 -0.101416 0.174048 -0.0339392 0.117475 0.0496625 -0.0311887 0.0183597 -0.0374257 0.0338368 -0.0830379 -0.193245 0.0207354 